nep3 1 C 
cutoff 8 4 59 21
n_max 4 6
basis_size 10 8
l_max 4 2 1
ANN 100 0
 -1.1517610e-01
 -5.1793581e-01
  1.1162682e-01
 -5.4899949e-01
 -2.2438085e+00
  6.4983785e-01
 -2.8801543e-01
  1.7862113e+00
 -5.9800024e+00
  1.9395827e+00
  2.1642268e+00
 -2.0957236e+00
  4.1272622e-02
  3.9969787e-02
 -1.4966680e+00
 -1.2105339e+00
  5.7846230e-01
  3.6219318e+00
  5.8910865e-01
 -2.6674600e+00
  1.0867063e+00
  7.0160818e+00
 -1.6526017e+00
  1.1430926e+00
 -1.6147970e-01
  2.1075821e+00
  7.3860019e-01
  1.7819577e+00
  2.3382277e+00
 -3.3264370e+00
  4.8603706e-02
  2.0734057e+00
 -6.5226221e+00
  3.2419783e-01
 -1.4974252e+00
 -1.8729002e+00
 -9.7652711e-02
 -2.1996696e+00
  1.6644278e+00
 -1.7795675e+00
  1.8717085e+00
  1.2404048e-01
  1.4823534e+00
 -1.1435117e+00
  4.5484062e-02
  1.7096666e-01
  5.8784020e-01
 -3.3513467e+00
 -1.7811823e+00
 -2.5098403e+00
 -2.5246853e-01
  6.9572258e-01
 -4.1583371e+00
 -2.4800518e+00
 -4.2417669e+00
 -6.8688935e-01
  1.3568666e+00
  1.6930093e+00
 -1.9182699e-02
  1.9218168e+00
 -1.4073710e+00
 -1.5623628e+00
 -7.7954073e+00
 -1.8151346e+00
 -1.4619194e+00
 -3.0860717e+00
 -4.6802986e-01
 -3.1889627e+00
 -2.5142982e+00
 -9.5298898e-01
 -4.8407483e-01
  2.3697571e-01
 -7.4459249e-01
 -2.0933146e+00
 -1.3070130e+00
  8.6314392e-01
 -3.2171469e+00
  2.1684785e-01
 -1.0269673e+00
 -2.3156295e+00
 -3.3824806e+00
  1.6731514e-02
 -1.3421135e-01
 -6.1162235e-03
  3.0085307e-01
 -4.4809365e+00
  1.2167668e+00
 -6.0104173e-01
 -1.2502943e+00
  9.9159658e-01
 -2.9695424e-01
 -8.2064621e-02
 -1.4866155e-01
 -1.9121356e-01
 -1.0495421e+00
  8.2401127e-01
  2.1539495e+00
 -5.9473711e-01
  3.6469349e-01
 -1.3793733e+00
 -1.0299272e-01
 -7.4960327e-01
  7.4516267e-01
 -5.4228735e-01
  9.4669187e-01
 -5.6588191e-01
 -2.3300428e+00
  1.8949398e-01
 -2.6109431e+00
 -1.9940796e+00
  1.7617229e+00
  1.7407267e+00
  2.6001620e+00
 -7.2326982e-01
 -1.2193989e+00
  6.4669788e-01
  1.0583898e-01
 -4.5049629e-01
  6.8646789e-01
  9.3419111e-01
  1.3543000e+00
 -9.4013050e-02
  2.4331979e-01
  8.5760599e-01
 -1.0150571e-01
  1.2074338e-01
 -1.9393637e+00
 -4.7277570e-01
 -1.7356230e+00
  2.2424373e-01
 -1.6418364e+00
 -1.0141275e+00
  2.3926365e+00
 -1.9176133e-01
 -3.6390400e+00
 -4.2511848e-01
  2.9278544e-01
 -1.1824104e+00
 -3.7291566e-01
  3.4997144e-01
 -3.6616588e-01
 -1.5065302e+00
 -7.5420216e-02
  2.1981492e+00
  9.4520882e-02
 -8.8060552e-01
 -5.2613497e-01
  2.0371874e-01
 -1.6753438e+00
 -6.6858047e-01
 -1.5593873e+00
  4.2564149e+00
  4.3945038e-01
 -2.2376733e+00
  7.0029366e-01
  4.4218499e-02
 -1.2179351e+00
  2.5532496e-01
  4.7464153e-01
 -1.0855907e+00
 -2.2853858e+00
 -1.0401152e+00
 -2.1398971e+00
 -4.5430511e-02
 -5.7607937e-01
 -1.6274567e-01
  1.5480653e+00
 -8.1030470e-01
 -2.1513717e+00
 -3.7938115e-01
 -4.3870673e-01
 -3.0685265e+00
 -1.2564456e+00
  1.4264033e+00
  6.8215144e-01
 -1.0407887e-01
  1.2171288e+00
  4.1735584e-01
 -2.6714404e+00
  1.3511248e+00
 -3.2830653e+00
 -2.0413122e+00
 -5.6149590e-01
  1.0520215e+00
  1.1594737e+00
 -1.3978702e+00
  6.8561995e-01
  9.4711536e-01
 -2.2581677e-01
  5.2738981e+00
 -1.0442582e+00
 -6.6060507e-01
  1.0413734e-01
 -6.6510057e-01
 -6.4547259e-01
  1.4651980e-01
 -9.3721741e-01
 -5.6590519e+00
  6.2093687e-01
  3.6611254e+00
 -1.7177458e+00
 -7.2885644e-01
  2.0913634e+00
 -8.4860325e-01
  3.2283959e-01
  2.4887969e+00
 -2.3689895e+00
  1.1542780e+00
 -3.1450742e-01
 -1.7754958e+00
  2.2757378e+00
 -5.0229743e-02
 -6.4161646e-01
 -9.5675296e-01
  1.9809477e+00
  7.4153252e-02
 -8.5556811e-01
 -3.1648278e+00
 -1.7986582e-01
 -2.5130787e+00
 -1.1464050e+00
  1.1717667e-01
 -1.7574827e-01
 -1.1377126e-01
  2.3710415e+00
 -6.7199908e-02
 -5.1358229e-01
  1.8485358e+00
  1.0537145e+00
  3.2848924e-01
 -1.6634713e-01
  7.1286047e-01
 -1.2367409e-01
 -1.1943892e-01
 -7.7483334e-02
 -2.3090339e+00
 -1.2218264e+00
 -3.5480483e+00
 -5.6217992e-01
 -2.0870057e-01
  9.9569470e-01
 -6.6810840e-01
  3.7302296e+00
 -8.3170962e-01
  2.6051354e-01
 -2.0058980e+00
 -2.8161809e+00
  1.1018760e+00
  2.0636816e+00
 -4.7756238e-03
 -1.3535066e+00
  4.7097391e-01
  1.2524629e-01
  1.7627212e-01
  2.4261341e+00
 -2.9367945e+00
 -3.2587383e+00
 -8.1791335e-01
  1.5935830e+00
  1.4732963e-01
  6.2531698e-01
  9.6595036e-03
 -4.2949221e-01
 -3.0117893e+00
  5.5994940e-01
 -7.9614311e-01
  5.2844799e-01
 -2.8435338e+00
 -1.1077404e+00
  9.8920691e-01
 -4.6787784e-02
 -1.8188660e+00
  1.3828817e-01
  6.1459589e-01
 -3.3868287e-02
 -1.6802391e-01
 -2.5620120e-02
  5.1142070e-02
 -1.3973203e-01
 -1.1538498e-01
  1.9065173e+00
 -4.4586238e-01
 -3.3192816e-01
  4.1508231e-01
  2.2921027e-01
  3.6694434e-01
 -1.1498871e+00
 -2.4352288e+00
 -5.3250909e+00
 -1.4914058e+00
  7.5747228e-01
  6.6348022e-01
 -3.2992575e-01
  2.2577138e-01
  1.3944017e+00
 -1.5023485e-01
 -1.8128712e+00
 -2.0542884e+00
  8.0036509e-01
 -1.7385291e-01
 -2.7876027e+00
  2.1030886e+00
 -1.6063079e+00
  1.9347751e+00
 -1.3401799e+00
  3.4022048e+00
 -1.7025254e+00
  1.7413493e+00
 -2.2036967e+00
  1.0204308e+00
 -4.9222326e+00
  2.4728522e+00
 -4.5231754e-01
  2.4603901e+00
  2.7507442e-01
  3.2388814e-02
  1.8164736e+00
  1.7314581e+00
  1.0568461e+00
  1.5248759e+00
  3.6706549e-01
  2.8005489e-03
 -6.7776847e-01
 -2.3603687e+00
  1.5585686e-01
 -1.9000828e+00
  6.8091176e-02
  2.1144588e-01
 -5.1881589e-02
 -6.0751271e-01
 -1.0060263e+00
  1.6322031e+00
 -5.6277979e-02
  2.8648910e-01
  3.3667252e+00
  1.0053701e+00
  1.7681253e+00
 -3.1412944e-02
  2.9177421e-01
 -3.3595572e+00
 -7.9555254e+00
 -6.2777406e-01
 -3.9150507e+00
  1.4013597e+00
 -3.8992219e+00
 -1.5329999e+00
 -4.5750190e-02
 -7.8616995e-01
 -9.5289648e-01
  3.2690680e+00
 -2.0138552e+00
 -2.8874090e+00
 -2.1506457e+00
  7.8876799e-01
 -6.1671948e-01
 -2.7810648e-01
  1.9580112e+00
 -3.2824686e+00
 -2.8256080e+00
 -1.1209109e+00
 -8.5551077e-01
  7.4317247e-01
  6.4047605e-01
  1.8495148e+00
 -9.6199505e-02
  1.9176915e-01
  3.2192987e-01
 -1.5226287e+00
  1.9858949e+00
 -2.0282896e+00
 -1.0833315e-01
  1.3734456e+00
  1.1342080e-01
 -8.1285453e-01
  4.1806114e-01
 -1.4862318e+00
  4.9083397e-01
  4.0470952e-01
 -9.4794744e-01
  1.3033280e+00
 -3.3682701e-01
  3.5013798e-01
 -2.0874116e-01
 -2.3800427e-02
 -1.4981015e-01
 -6.1025822e-01
  4.9367490e-01
  1.2058878e-01
  2.2383898e-01
  2.2186257e-01
 -3.9796192e-02
  7.3547047e-03
  1.3210477e-01
  8.5899211e-02
  4.5727398e-02
  2.2875552e-01
 -9.4009437e-02
  1.5387218e+00
 -3.9364204e-01
 -5.8142072e-01
 -3.9161655e-01
  1.5310608e-01
 -4.5575255e-01
 -1.6064973e-01
  8.6264569e-01
 -7.6832318e-01
 -6.1440766e-01
  1.1253387e-01
 -7.3721386e-02
 -2.9562017e-01
 -7.8572214e-01
 -6.2956482e-01
 -4.5637736e-01
 -1.6381450e-01
  3.3073533e-01
  1.2780380e-02
 -2.3301528e-01
  1.2838699e-01
 -1.3729650e-01
  6.0014898e-01
  1.2754695e-01
 -1.4679700e-01
  7.8041971e-02
 -1.6022727e+00
  1.3348548e+00
 -1.4300619e-01
 -1.3244616e+00
  3.0607688e-01
  4.4392145e-01
 -4.2808920e-01
  5.6151813e-01
 -1.6635295e+00
 -8.8980719e-02
 -8.5753381e-01
 -5.6017037e-02
  2.0323627e-01
  1.6895140e+00
 -2.1548550e-01
  1.5272467e+00
 -3.7957404e+00
 -1.9022086e+00
  5.1914439e-02
  2.5920448e-01
  2.6431644e-01
  1.0280230e+00
 -2.5911951e-01
 -3.1142222e-02
  1.7105154e+00
  1.7480741e+00
 -2.2539888e-01
 -5.7776469e-01
  1.0080607e+00
  2.6380509e-01
  5.1179713e-01
  1.0475279e+00
 -5.4350406e-01
  1.0989118e+00
  6.1286145e-01
 -9.9453592e-01
  5.1740921e-01
 -6.9342333e-01
 -4.1221663e-02
  1.0876566e+00
 -4.9900916e-01
 -8.5394993e-02
  2.2656895e-01
 -5.7252687e-01
  7.9733586e-01
 -1.5345949e-01
 -5.3948349e-01
  2.2889111e+00
 -2.2816982e+00
  2.4793460e+00
 -1.1182399e+00
 -2.1954523e-01
  3.6129045e-01
 -3.1952819e-01
  7.5518662e-01
 -7.3411918e-01
 -1.3741764e-01
  4.7938648e-01
  1.3537943e+00
  3.3448008e-01
  5.8716780e-01
  2.5346971e+00
  6.9506806e-01
 -2.1964195e+00
  6.5278345e-01
  5.4647379e+00
  2.0613620e+00
  2.9369196e-01
  6.3717330e-01
 -5.8494550e-01
 -8.0594823e-02
  9.2115617e-01
 -2.0826583e-01
 -1.4017101e-03
  1.1809053e+00
 -3.0806010e+00
  6.7063904e-01
  9.1585553e-01
 -4.5937648e-01
 -5.8501762e-01
 -6.6175466e+00
  4.2031713e-02
  1.5073203e-01
  1.9864309e+00
 -3.8192216e-01
 -1.2362200e+00
 -1.9719775e+00
  7.7596927e-01
  6.6518134e-01
  8.6073637e-02
  1.5106520e-01
  1.6406769e-01
  9.9407792e-02
 -7.4000263e-01
 -1.6953157e+00
 -1.8741015e-01
  1.6568370e-01
 -1.4161597e+00
  1.5984384e+00
 -1.2576512e+00
  2.1918998e+00
  2.4017403e+00
 -6.8824100e+00
  3.8878009e+00
 -3.0651655e+00
 -1.2154084e+00
  1.4402232e+00
 -1.5642176e+00
  9.5370024e-01
  2.4136715e-01
 -9.8202789e-01
 -1.1069945e+00
 -5.9107339e-01
  2.2423382e+00
  1.0654597e+00
  1.5463747e+00
  8.1250089e-01
  2.3057981e+00
  1.4838525e+00
  2.4583929e+00
  6.6132593e-01
  4.0681357e+00
 -1.4829956e+00
 -2.4559538e+00
  1.4524570e+00
 -1.3652008e+00
  1.6820804e+00
 -1.2556992e+00
  1.4284538e+00
  6.4781338e-01
  5.3927678e-01
 -1.8010777e+00
  7.9594529e-01
  5.9445667e-01
 -1.5500801e+00
  2.4857642e-01
 -1.9854544e-01
  1.2685450e-02
 -2.4577137e-02
  9.9457294e-01
 -3.0639198e+00
  1.2759055e-01
  1.1027094e+00
  9.5970601e-01
 -5.1691270e-01
  5.5244047e-02
 -5.4919249e-01
  1.3285723e+00
 -2.3399010e+00
 -6.1991245e-01
 -4.7685523e+00
  2.2552874e+00
  6.2513080e+00
  3.6005208e+00
 -3.4968030e+00
  3.5129250e-03
  2.0975733e+00
 -2.0311477e+00
  2.2355511e+00
  2.5867424e+00
 -4.2025912e-01
 -2.9294956e-01
 -1.8417977e-02
  1.8228419e+00
  2.9759207e+00
 -3.8780847e+00
 -1.1584552e-01
 -1.5776335e+00
  1.9145255e+00
 -3.6831589e+00
  4.4174629e-01
  3.1891181e+00
 -3.2392554e-02
 -2.1506705e+00
 -2.9122362e-01
 -1.2942131e+00
  2.9348138e-01
 -3.1151697e-01
 -3.0525131e+00
  6.0665447e-01
  6.1023128e-01
  4.9382675e-01
  7.3876999e-02
  4.2516032e-01
 -2.3592031e-01
  3.4599116e-01
  9.3561298e-01
  6.7759767e-02
 -1.5328960e+00
 -1.4104825e-01
  8.3905071e-01
 -8.4664553e-01
 -1.6347191e+00
  1.2162862e+00
 -6.1107922e+00
  1.8183525e+00
  2.9620278e-01
  2.2474234e+00
  2.3972954e-01
 -2.0292959e+00
 -1.8001944e-01
  1.3057201e+00
 -3.4683163e+00
  1.8530493e+00
 -8.4933597e-01
  2.3015249e+00
  3.6089757e-01
  3.4925814e+00
  4.1136670e+00
 -3.2852082e+00
 -3.7995657e-01
 -7.8632438e-01
 -3.1667674e+00
  9.1647536e-02
  2.3050866e+00
 -2.4846666e+00
  5.5797189e-02
  3.1109626e+00
  1.2579949e+00
 -7.3951948e-01
  5.3548294e-01
 -2.8005087e+00
 -4.6568475e+00
 -5.6070828e-01
  4.6810263e-01
 -3.4523866e-01
  2.0715177e+00
  2.1262193e+00
 -3.9805532e-01
  1.0859511e+00
  2.1756510e-01
  2.5725731e-01
  1.7844523e-01
 -1.9675422e+00
 -1.1314564e+00
  1.6645213e+00
  7.4971646e-01
 -3.6499872e+00
  1.1396214e+00
 -1.5071186e+00
  1.0725754e+00
 -2.8060498e+00
 -2.0703657e+00
  1.6375788e+00
 -1.1485746e+00
 -7.0786461e-02
 -2.3471200e+00
  3.1529825e+00
 -1.1565608e+01
 -9.7153151e-01
 -5.1134052e+00
 -6.1815143e+00
  1.6289541e-01
  4.8353691e+00
  2.2427690e+00
 -2.5318198e+00
 -4.9753261e+00
 -1.8983856e+00
  5.1355267e+00
 -2.8465199e+00
 -3.3791595e+00
 -2.3115129e+00
  5.8036828e-01
  1.8650030e+00
  1.6267424e+00
  1.9120004e+00
 -2.3516169e+00
 -6.5328658e-01
  1.0900484e+00
 -3.7130058e-01
 -1.1204113e+00
  2.4729805e-01
 -4.6160202e+00
  5.2258196e+00
 -1.0289161e+00
 -5.8995509e-01
  4.5197904e-01
  5.9741855e-01
  1.4110414e+00
 -4.5963067e-01
  2.2934835e+00
 -4.1732076e-01
 -2.5043283e+00
 -9.2869115e-01
  2.6263247e+00
 -1.2660769e+00
 -6.8446547e-01
  7.0927048e-01
  7.0640045e-01
  3.7418240e-01
  4.8060226e-01
 -2.8657913e+00
 -5.3110600e-02
 -1.5836867e+00
  7.4521255e-01
  6.1693013e-01
  1.3123573e+00
 -8.0490953e-01
  2.8498211e+00
 -3.4336086e-02
 -6.8441504e-01
  3.1924489e-01
  2.4035342e+00
  1.8314462e+00
 -5.5019855e-01
  6.1166668e-01
  3.8611736e+00
  2.6209941e+00
 -3.4505713e-01
 -3.1240165e+00
 -1.6003903e+00
 -8.6657405e-03
 -1.1789045e+00
  5.7021153e-01
 -1.4220029e-01
 -1.4559854e+00
  7.8494352e-01
 -2.2871819e+00
  2.0154169e-01
  6.1352098e-01
 -8.2126188e-01
  1.4629136e+00
 -3.0240364e+00
 -5.3744996e-01
  5.9838746e-02
  1.3106681e-01
  5.2377783e-02
  7.6754868e-02
 -7.9596257e-01
  2.2251644e+00
  4.2938560e-01
 -1.8508582e+00
  1.1860138e+00
  4.7303498e-01
  1.9394990e+00
 -5.0171596e-01
 -8.4763843e-01
  1.3687969e+00
  2.1499100e+00
  1.1038319e+00
 -3.0349195e+00
 -2.9015782e+00
  8.0701254e-02
 -1.6598077e+00
  2.4193268e+00
 -1.3797917e+00
  7.5525314e-01
 -9.8374087e-01
 -4.4945338e-01
 -2.2895908e-01
 -1.7986083e+00
  1.2829875e+00
 -1.7638412e-01
 -7.1593143e-02
 -1.0859884e-01
  1.2414104e+00
 -1.4295192e+00
 -3.0501082e+00
  2.7674827e-01
 -6.1851782e-01
 -3.0589420e-01
 -1.1625248e+00
 -1.4890528e+00
  3.8932257e+00
 -1.2403574e+00
  1.4848371e+00
 -1.8216130e-01
  1.3283236e-01
  3.4096655e-01
 -1.0120679e+00
 -9.0681112e-01
 -2.3780385e-01
 -5.5147314e-01
 -1.2869151e-01
 -1.8074928e-01
 -2.3551378e+00
 -5.5908281e-01
 -1.6435156e+00
  4.6622738e-01
  1.2997453e-02
  2.0943096e+00
  8.5115308e-01
  1.1215568e+00
  6.1646438e-01
  1.9976890e+00
  7.7162999e-01
 -1.6671388e+00
 -5.9861887e-01
 -2.0621510e+00
  1.3792185e+00
 -1.9184065e+00
  4.0133600e+00
  2.0817053e-01
 -8.5814059e-01
  7.3766720e-01
 -1.0044903e-01
  1.6913564e+00
  6.6624343e-02
  1.5396613e+00
  2.2607746e+00
 -1.1564127e+00
  4.6794318e-02
  1.2154642e-01
 -5.9118223e-01
 -3.4281534e-01
 -2.0041788e-01
  1.9403706e+00
  1.2478639e+00
 -4.3635621e+00
  1.5216972e+00
  5.3474283e-01
 -3.4433756e-02
 -3.9860231e-01
  1.1112114e+00
  1.5396293e+00
  4.4056496e-01
  1.0880973e+00
  1.6852564e-01
 -9.8072402e-02
 -1.4748960e+00
  1.9645126e+00
  1.1356289e-03
  3.8972825e-01
  3.2221496e-02
 -5.0772595e+00
 -4.9211703e-02
  3.9347744e-01
 -9.1649044e-01
  3.2375071e+00
  1.6223341e+00
  1.0600667e+00
 -6.0557705e-01
 -1.8953233e+00
 -1.3424269e+00
 -1.8616061e+00
 -2.2003143e+00
  2.3975956e-01
  1.3543611e+00
  3.2539322e+00
  2.4423692e+00
  1.2676880e+00
  1.1970725e+00
  1.5314879e-01
 -8.6088467e-01
  1.3062496e-01
 -4.1376767e+00
  3.8780800e-01
 -1.0495813e+00
 -2.0583777e+00
 -2.2028537e+00
 -9.2113423e-01
 -2.2229373e+00
  3.4432507e-01
  3.0444297e-01
 -1.8911426e+00
  1.1553944e+00
  3.9875641e-01
  7.4426353e-01
  5.4862657e+00
  1.3740554e-02
  6.5159762e-01
  7.4662423e-01
  4.2941284e+00
 -1.0645250e+00
  1.0626709e-01
 -8.8127869e-01
 -1.4970391e+00
 -3.0859527e-01
 -1.2686995e+00
 -1.4834942e+00
  7.1996874e-01
 -1.3070546e+00
  3.1694043e-01
  6.0663813e-01
  4.0456709e-02
 -1.3166937e+00
  4.7646370e+00
 -1.5942320e+00
 -5.3074211e-01
 -6.8302546e+00
 -1.4363213e+00
 -1.3109589e-01
 -1.2013509e+00
 -3.6479473e-01
 -2.5890646e+00
 -3.9049813e-01
 -1.1110257e-01
 -1.2975607e+00
 -2.5613024e+00
  8.9113486e-01
  7.4501908e-01
  1.3725986e+00
  7.0480120e-01
  1.7902377e-01
  1.0129807e+00
  1.1064907e+00
 -2.2312589e+00
 -1.8312756e+00
 -4.8477507e-01
  6.1467099e-01
  1.2112626e+00
 -1.3550246e+00
 -5.5103071e-02
 -6.2186956e+00
  2.0229793e+00
 -7.1304679e-01
 -3.1845808e+00
 -8.7519121e-01
  3.2685077e+00
 -6.8449146e-01
  1.0132854e+00
  2.6731195e-02
 -2.4318411e+00
  1.4044817e-01
  4.3161759e-01
 -3.3489245e-01
 -2.1046977e+00
 -2.5929415e-01
 -1.5434663e+00
  5.1177015e+00
  4.2908052e-01
 -2.8840136e-02
  2.5789598e-01
 -1.3847779e+00
  2.9104310e-01
 -9.3507105e-03
 -1.7971966e-01
  4.4551401e+00
  2.7868417e-01
  3.9399374e-01
  4.6830657e-01
 -1.4784298e+00
 -5.7740320e-02
  4.8303390e-01
  1.7116797e+00
  9.6714401e-01
  3.6204112e-01
  3.7973437e-01
 -2.3708816e-01
  3.5508627e-01
  3.4422982e-01
  8.7203316e-02
 -2.2341351e-01
  1.5002013e+00
  2.6856580e-01
  1.0986675e-02
 -3.5364788e-02
 -1.5797040e-01
  1.5744538e+00
 -2.5663877e-01
  7.4429460e-02
 -3.6440179e-01
 -1.7418741e-01
 -4.4384732e+00
 -2.6701355e+00
 -2.1711259e-01
  4.5738256e-01
  2.3486032e-01
 -9.3107373e-01
 -1.4547563e-01
  1.0882081e+00
  9.0011501e-01
  2.8601807e-01
 -7.9354143e-01
 -1.1213417e+00
  4.0824464e-01
 -2.2545121e+00
  2.9710329e-01
  3.0176297e-01
  1.0407573e+00
 -5.3393644e-01
 -1.4944571e+00
 -5.3825126e+00
  1.9781717e+00
  1.3701257e+00
 -8.3136153e-01
  2.0289078e+00
 -1.5988375e+00
 -1.7619407e+00
 -6.0653791e+00
 -2.5822332e+00
 -3.8863003e-01
  3.8779023e+00
 -6.6226161e-01
  3.0809245e+00
 -2.2458313e+00
  3.2843704e+00
 -2.3305206e+00
  1.0529986e+01
 -1.9560105e+00
 -5.0758710e+00
  7.1444881e-01
  2.2951482e-01
  1.2354283e+00
 -1.1397804e+00
  1.2501805e+00
 -1.0771788e+00
 -4.3083415e+00
 -1.9335363e-03
  7.9963863e-02
  4.1251168e-01
 -5.1004481e-01
 -7.0250887e-01
 -1.2046847e-01
 -6.0385942e-01
  6.5435690e-01
 -2.0849974e-01
  4.0580004e-01
  5.7003774e-02
  5.5997927e-02
 -5.3126585e-01
 -1.3589940e+00
 -1.4113517e+00
  4.7710949e-01
 -2.1686414e-02
  4.6442896e-01
 -5.5171132e+00
  9.1279477e-01
  1.6804871e-01
 -1.5795050e+00
  4.0847645e+00
  1.5459627e+00
 -4.5214705e+00
  3.6573899e-01
  4.0319448e+00
  5.4511027e+00
 -8.0771124e-01
  1.2534570e+00
 -4.9101147e-01
 -2.4516137e-01
  1.3874739e+00
  2.9152777e+00
 -1.5981148e+00
  6.6365021e-01
 -2.9973807e+00
  1.4453546e+00
  8.5969883e-01
 -2.5108626e+00
  2.6737607e+00
 -2.5408909e+00
  1.3678244e+00
  2.1522353e+00
  8.6341625e-01
 -2.1843224e+00
  1.8830552e+00
 -2.9730637e+00
 -5.0166903e+00
 -5.8137470e-01
 -1.7750363e+00
  4.5241065e+00
  2.1058369e+00
 -1.8945721e-01
  3.8188732e-01
 -5.3330164e-02
 -1.9190338e+00
 -5.0003690e-01
  8.0198638e-02
  6.2813926e-01
 -9.3544090e-01
 -9.0916842e-01
 -2.4056959e+00
  6.2257665e-01
  6.1807448e-01
  4.7630984e-01
  1.4357479e+00
  1.1300573e-01
 -8.1230380e-02
 -3.4742539e+00
  6.1931282e-01
 -2.6943712e+00
 -1.0749367e+00
  5.9631139e-01
  1.2842274e-01
 -2.0507319e+00
  4.0829027e-01
 -1.3212646e+00
  1.2696636e+00
 -1.3177972e-01
 -1.4476769e+00
 -4.1945851e-01
  6.4611566e-01
 -1.2024180e+00
  6.1666316e-01
  5.5010360e-01
  1.6268292e-01
  2.7756655e-01
 -3.6924522e+00
  3.7111330e-01
 -1.0978540e+00
 -1.2314144e+00
  5.1261247e-03
 -2.0897706e-01
  4.5543156e+00
  8.0876398e+00
  1.4263797e+00
 -1.6977816e+00
 -1.9029669e+00
 -8.0597544e+00
  3.9585617e-01
  4.8056263e-01
 -1.6354921e-01
  3.8288433e-02
 -2.6136008e-01
 -1.5954472e-01
  7.1828413e-01
 -4.5900536e+00
  8.6204201e-01
 -2.0661190e+00
 -2.7460113e-01
  9.2841625e-01
 -2.2573984e-01
 -6.4270163e-01
  2.4610119e+00
 -1.3089721e+00
 -9.1219342e-01
 -3.8636151e-01
  2.1928033e-01
 -2.4741507e+00
 -2.5535309e-01
  5.3459924e-01
 -2.2876957e-01
  3.1736979e-01
 -8.8714294e-02
  2.6805052e-01
 -3.9146599e-01
  5.9490585e-01
  5.7471615e-01
  2.1445063e-01
 -4.9032947e-01
 -7.0308501e-01
 -6.5969223e-01
 -1.0602525e+00
 -1.2030594e+00
 -1.1509594e+00
 -3.4103063e-01
 -3.0493205e+00
 -1.3979741e+00
 -6.3346446e-01
  2.2963569e-01
 -1.5157212e+00
 -2.2049062e-01
 -2.1538289e+00
  3.0553561e-01
  8.0938958e-02
 -3.1080112e-01
 -1.3726112e+00
  6.7346752e-01
  6.5149345e-02
 -2.7928638e-01
 -1.4599487e-01
 -2.7748927e-01
 -4.8823261e-01
  6.0091436e-01
  5.1354289e-01
  2.4108505e+00
  2.3021084e-01
 -1.1065050e+00
  2.4335690e+00
 -7.5194538e-01
 -5.0203075e+00
 -1.5681545e+00
 -9.5530963e-03
 -1.0284593e+00
 -1.1555304e-01
  2.3156359e+00
 -4.3915567e+00
  4.2488923e+00
 -3.5223970e-01
  7.5021572e+00
  1.6445658e-01
  3.1876659e+00
  2.4186157e-01
 -1.8509196e+00
  2.8523183e+00
 -1.2483248e+00
 -6.3533252e-01
  1.7433519e+00
  1.0451634e+00
 -1.0372845e+00
 -4.9212747e+00
 -9.2610598e-01
  3.8480183e-01
 -1.5052998e+00
 -2.1193063e-01
  1.8621342e+00
  3.1237941e+00
 -3.8658479e-01
  2.7357285e+00
 -8.3878857e-01
  9.8292422e-01
 -1.9448577e+00
 -1.8041761e+00
  3.1212890e+00
 -8.0579072e-01
 -4.7480050e-01
  1.5152304e-01
  8.7946951e-01
  1.7131178e-01
 -1.1118745e+00
 -9.2482477e-01
 -1.2708801e+00
 -2.4433610e+00
 -2.3206756e-01
  9.7474587e-01
  3.4956944e-01
 -4.9613867e+00
  8.6554289e-01
 -3.7230894e-01
  2.1104693e+00
  5.5896622e-01
 -4.5333571e+00
  2.9948914e-01
  2.5499132e-01
  3.6715994e+00
  6.1735086e+00
 -9.1621178e-01
  1.0093936e+00
 -2.2254446e+00
 -2.0874734e+00
  5.9159762e-01
 -2.3642920e-01
  8.1814092e-01
  1.0761973e+00
  1.7052294e+00
 -3.0172503e+00
 -5.7575613e-01
  2.8484771e+00
 -3.7300425e+00
 -1.8882827e+00
  1.5940176e+00
 -2.9687264e+00
 -1.1905346e+00
  5.5351062e+00
 -8.7340909e-01
 -3.3533910e-01
 -1.0126057e+00
 -4.7619586e+00
  1.1379496e+01
 -1.3102882e+00
  8.1619537e-01
  1.5620498e-01
  2.1096072e-01
  2.2663859e-01
  9.1648876e-04
  3.3270273e-01
 -3.2883074e-02
  1.3847269e-01
  3.5657197e-01
  4.6166641e-01
 -9.9248183e-01
 -1.2557247e+00
  1.6642882e+00
  1.8999071e+00
  1.6523290e-01
 -8.2681730e-02
  1.9716979e+00
  4.1641802e-01
 -6.7957115e-01
 -1.8297651e+00
  5.3393865e-01
  3.0740261e+00
  3.3330405e+00
  4.2263002e+00
 -1.3575760e+00
  1.3786930e+00
  5.8144033e-01
  1.3063965e+00
  1.4120032e-01
  2.8185670e+00
  1.8052112e-01
 -5.5251986e-01
  1.0037737e+00
 -1.1349951e+00
  2.1560953e+00
 -1.9209666e+00
 -2.6744871e+00
  1.6493894e+00
  1.9310246e-01
 -8.7355417e-01
  7.9400223e-01
 -3.9409909e-01
  8.9502789e-02
  1.9496117e+00
  3.0484457e+00
  7.6560527e-01
 -2.0038180e-01
  6.0171170e+00
  1.5546360e+00
 -9.8195501e-02
 -1.2931949e-01
 -8.5942057e-04
 -1.4383483e+00
 -9.6440595e-01
 -8.7951171e-01
  9.4475174e-01
  6.3711745e-01
  5.3135711e-01
 -6.3657171e-01
  1.1701426e+01
 -1.7674933e-01
 -7.4622214e-02
 -2.3006999e+00
 -8.4944267e+00
  2.7129397e+00
  1.8320562e+00
  2.9643698e+00
  1.3797553e+00
 -1.4289960e+00
 -1.7237721e-01
 -2.0743899e+00
 -2.3279176e+00
 -3.0841057e+00
 -4.6401877e+00
 -8.1212387e+00
  1.8402926e+00
  7.1131587e-01
 -1.4936098e+00
 -2.4671106e+00
  1.3361034e+00
 -4.5556602e-01
  2.0831401e+00
  2.4338739e+00
 -1.2339652e-01
  3.8439754e-01
 -2.4870193e+00
 -1.8299402e+00
 -3.7780359e-01
  2.1911988e+00
 -2.1971107e+00
 -2.3069115e+00
 -1.9616745e+00
  4.0820999e+00
  3.2452494e-01
  2.8014660e+00
 -1.2733345e-01
 -4.6410349e-01
  3.7533367e-01
 -1.7452386e-01
  4.3747595e-01
  8.4337600e-02
  1.2927175e+00
  4.6177664e+00
  1.4128898e+00
  7.9320073e-01
  3.1796806e+00
 -1.8749270e+00
  8.5487224e-02
 -5.2948027e+00
 -2.4509130e+00
 -1.5883087e+00
  6.2545657e+00
  3.1394508e-01
 -7.1172559e-01
 -5.0527006e-01
  3.3128786e+00
 -2.9840767e+00
  1.5032482e+00
  2.4612231e+00
  1.0114548e+00
  7.7294034e-01
 -2.4765384e+00
 -1.5224087e+00
  7.0163399e-02
 -3.5678594e+00
 -3.6215457e-01
 -1.3139127e+00
 -1.5851021e-01
  1.2483148e-01
 -2.6723826e+00
 -5.0481634e+00
  3.2196879e+00
 -1.3137996e+00
  2.5074034e+00
 -3.4180276e+00
 -2.1882076e+00
 -7.2860467e-01
  4.2324238e+00
  1.3002949e+00
 -1.5537508e+00
 -6.3970585e+00
 -2.8211122e+00
  1.2766252e-01
  7.3638225e-01
  3.4247515e-01
 -6.0044771e-01
 -7.0408142e-01
  2.8431299e-01
 -4.4658175e-01
 -1.7388486e+00
 -6.1412442e-01
 -2.2539842e-01
  4.8581192e-01
  1.9173219e+00
  1.2946241e-01
  1.6005321e+00
 -8.4751284e-01
  2.3576500e-02
 -2.4991312e+00
 -5.2620865e-02
  1.7342983e+00
  3.3674565e-01
  1.6788070e+00
 -1.2070576e+00
 -3.2198086e-01
 -1.8660495e+00
  2.3830020e+00
 -9.0191863e-02
  6.5268290e-01
 -1.0207790e+00
 -1.0747694e+00
  2.3700054e+00
 -1.2352831e+00
 -2.3914804e+00
  2.0125220e+00
 -1.5960439e+00
 -5.2098542e-02
  1.0686914e+00
  3.1740573e-01
  5.3372359e-01
  2.1296992e+00
 -4.4577953e-01
 -3.3680773e-01
 -8.3569288e-01
 -3.0905204e+00
 -1.4520768e+00
  4.3594875e+00
  2.6199908e+00
  1.6683880e+00
  1.2566255e+00
 -1.3863509e+00
  2.3814507e-01
  1.1312715e+00
 -6.7050308e-01
 -6.0440820e-01
 -4.3597621e-01
 -1.8907682e+00
 -8.1331655e-02
 -4.5293853e-01
 -5.8292574e-01
  5.0060880e-01
  2.0055904e+00
 -1.4339259e+00
 -1.5226583e+00
  3.5462472e+00
  7.3646349e-01
 -1.6293171e-01
  6.2610495e-01
 -3.9804380e-02
  3.7450078e-01
  7.6332492e-01
  3.3392227e+00
  7.1653140e-01
 -5.3548530e-02
  7.0692813e-01
  1.7153717e+00
 -2.0474465e-01
 -1.3184892e+00
  2.3651900e+00
 -1.7377232e+00
  2.6184776e-01
  1.0002129e+00
  1.6387039e-01
 -3.0882218e+00
 -4.8674989e+00
  1.3803749e+00
 -2.1087089e+00
  4.8098497e+00
 -6.9276530e-01
  3.8220805e-01
 -3.2698411e-01
  1.2592330e+00
  5.3777534e-01
  4.8814020e-01
  9.9494487e-01
 -3.2816902e-01
 -4.6146024e-02
  1.7064722e-01
  1.2520362e+00
 -7.9004008e-01
  1.8483764e+00
  2.4193650e-01
 -1.2200346e-02
  5.2757122e-02
  3.8365445e+00
  2.4621524e-01
  7.5782192e-01
 -1.7888354e+00
 -8.6491382e-01
  2.2618325e+00
  1.2268943e-01
  4.5152326e+00
 -4.1918725e-01
  1.5634779e+00
 -1.6777178e+00
  7.5393186e+00
  2.4491446e+00
 -2.1289806e+00
 -2.3564277e+00
  7.6932764e-01
  1.5875666e+00
 -1.4775848e-01
  4.9743519e+00
 -1.7396562e+00
  1.1908678e+00
 -4.1634387e-01
  6.8786979e+00
  1.5892942e+00
  6.3847381e-01
 -4.8750889e-01
  1.3050727e+00
  1.3241380e+00
 -1.7601525e+00
  1.6589893e+00
 -1.9797329e+00
 -2.5497205e+00
  7.1110770e-02
  7.3978108e-01
  4.2528617e-01
 -2.7797827e-01
 -6.4994526e+00
  2.7121955e-01
  1.6689138e-01
 -1.0075730e-01
 -4.6602437e-01
 -3.2689804e-01
 -1.8337059e-01
 -3.1770870e-01
  1.3438760e+00
  5.9895366e-02
 -1.8914294e+00
 -4.5456871e-01
 -2.3007268e-01
 -4.3071032e-01
 -2.3048720e-01
  6.3986349e-01
 -1.4369085e-01
  3.6820757e-01
  7.0239633e-01
 -1.4477773e+00
  6.2542534e-01
  8.1500524e-01
  2.3602574e+00
  2.6929278e+00
 -2.5510424e-01
  1.0043864e+00
 -1.1351000e+00
  2.1223321e+00
  2.1019361e+00
  1.5371346e+00
  2.6387217e+00
 -2.1103661e-01
  7.2865438e-01
 -1.6567426e+00
 -1.9693395e+00
  6.1200798e-01
  2.8408027e+00
  2.9795394e+00
  1.3280782e+00
  2.5365498e+00
  1.9503496e+00
 -1.4247376e-01
 -1.2649252e+00
 -3.4869695e-01
 -5.2837737e-02
 -2.4663558e+00
  4.1483865e+00
  4.0815216e-02
  1.3115420e+00
  1.5506198e+00
 -4.8627276e-02
  1.3523975e-01
  9.0803429e-02
  3.5251036e-01
 -1.2981954e+00
 -3.8826808e-02
  6.8676198e-01
 -1.4155648e+00
  5.5715889e-01
  7.7610242e-01
  1.1217158e+00
 -3.0020790e+00
 -9.5733851e-02
  4.3944409e-01
 -4.9885559e-01
  5.2115363e-01
 -1.8047240e+00
 -3.7386215e-01
 -8.3831984e-01
  7.6347840e-01
  4.8421523e-01
 -1.3816020e+00
 -4.6926699e+00
 -1.7765493e+00
 -3.7893480e-01
  8.9532834e-01
  3.7388405e-01
  9.5725536e-01
  2.3142228e+00
 -3.9464531e+00
 -3.3575469e-01
  1.1053989e+00
 -3.4866646e-01
  7.6186389e-01
 -2.9486079e+00
 -1.9934456e+00
 -1.5562955e+00
 -1.8482862e+00
  2.3165543e+00
  2.2184939e+00
 -3.0768904e-01
  1.1409732e+00
 -3.6034808e+00
  7.7289194e-01
 -2.9847999e+00
  7.7937860e+00
  1.0000114e+00
 -1.1601812e-01
 -4.7496766e-02
 -6.1025345e-01
  3.9324814e-01
 -7.9066396e-01
 -8.4141843e-02
  3.7594149e-01
  5.0998098e-01
  1.8968365e-01
  1.0312892e+00
 -2.4292250e-01
  8.7881935e-01
  9.5135897e-02
 -5.2701151e-01
 -4.0868085e-02
  4.8006701e-01
  9.5802402e-01
  5.2095991e-01
  5.0690521e-02
  4.1801357e-01
 -3.6683491e-01
 -1.9271249e-01
 -1.4709884e+00
  1.3395651e-01
 -3.0690839e+00
  4.5830533e-02
  1.1662364e+00
  1.0459067e-01
 -5.3256315e-01
 -1.5536369e+00
 -3.0322155e-01
  3.2686856e-01
  1.6994986e-01
  1.0880179e-01
  9.2698410e-02
  1.4208909e+00
  2.0304852e+00
 -8.8571258e-02
 -3.2411676e-02
 -7.9951918e-01
 -1.0472230e-01
  4.2566773e-01
 -3.1967342e-01
 -7.1202570e-01
  1.3410041e+00
 -6.5419436e-01
  2.8261566e-01
 -6.2414074e-01
  1.0802757e-03
  2.4941675e-03
 -6.5447682e-01
 -1.0507352e+00
 -1.0298594e+00
  2.0896988e+00
  7.0185077e-01
 -2.2977901e+00
 -1.4248104e+00
  4.5699888e-01
 -4.3303171e-01
 -3.5071933e+00
  1.4536010e+00
 -1.4089612e+00
  1.5926881e-01
  7.8556967e-01
 -5.5398434e-01
  3.7573517e-04
 -3.4237039e-01
 -3.4692448e-01
 -4.9023113e-01
 -2.7491257e+00
  1.6463490e+00
 -7.0846543e+00
 -1.1584829e+00
 -1.8494816e+00
 -1.3307368e+00
 -2.2573140e+00
  7.4159861e-01
  3.4653142e-01
 -1.5272912e-01
 -2.4617147e+00
  4.6995007e-02
  7.3144633e-01
 -2.9310575e+00
  1.3141586e+00
 -1.0359247e+00
 -8.6034393e-01
 -1.6454515e-01
 -2.9968467e-02
 -2.6847234e-01
 -3.8240410e-02
  4.3854982e-01
  3.3396646e-01
 -8.4623832e-01
 -1.5863247e+00
  3.7719178e-01
  1.0857126e+00
  3.8279060e-01
  9.6410209e-01
 -4.1410396e-01
  4.5201099e-01
  1.5096122e+00
  1.5934497e+00
  1.5025731e+00
 -1.5019098e-01
  5.9157270e-01
  3.1146973e-01
  1.1777867e+00
  5.2629833e+00
 -6.2769842e-01
 -2.5632322e-01
  6.6998181e+00
 -2.4923918e+00
 -9.3706876e-01
 -5.3409500e+00
  1.4291576e+00
  1.7981502e+00
  7.6665051e-02
 -2.5199459e+00
 -2.2451365e+00
  2.6863136e+00
 -1.5019895e+00
  1.3816513e+00
 -1.0950563e-01
 -8.3124749e-02
  4.6766907e-01
  2.8233616e+00
  2.4751398e-01
 -1.9102768e+00
 -1.6180118e+00
 -1.4115267e+00
 -2.5774020e-01
 -5.0131793e+00
  1.2225718e+00
  1.0886761e+00
 -2.3217492e+00
 -2.5229349e+00
  6.5376419e-01
 -1.1663406e+00
  3.6095148e-01
 -2.8486824e-02
 -6.9376600e-01
  4.8027647e-01
 -4.8376957e-01
 -1.6962271e+00
  6.8650597e-01
  1.1463410e+00
 -1.0313679e-01
 -9.4424856e-01
  2.7654654e-01
  6.2659183e-03
 -1.2811127e-01
  6.0396320e-01
  1.7364444e+00
 -9.0985304e-01
 -8.4477383e-01
 -2.0600903e+00
  2.3823969e+00
 -1.1943247e+00
  2.0508943e+00
 -1.1378918e+00
  6.9639224e-01
 -6.9793487e-01
  2.0446680e+00
 -6.6069365e-01
 -9.0327919e-01
 -1.8853043e+00
 -1.3785303e+00
  3.4067574e-01
 -1.2174419e+00
  1.5956111e+00
 -1.1100059e+00
  1.5967928e+00
 -1.4620086e+00
 -4.6866894e-01
 -3.0728450e+00
 -6.6911823e-01
 -1.0928485e+00
 -4.5165855e-01
  2.8020722e-01
  5.6276065e-01
  1.6364298e+00
  2.4376380e+00
  1.3305163e+00
 -3.6711042e+00
 -1.2152158e+00
  5.3772002e-01
  5.0352645e-01
  1.4430330e+00
  2.4607677e+00
 -5.0179654e-01
  1.7583393e-02
  3.5163018e-01
  1.9388037e+00
  2.2251909e+00
  6.6973561e-01
  3.0429854e+00
  2.6423934e+00
  8.2525486e-01
 -6.1843312e-01
  8.7224609e-01
 -3.3382957e+00
 -8.7621862e-01
 -2.4579037e-02
 -6.0340405e-01
 -4.6318564e+00
  1.1605294e+00
 -1.2716873e+00
 -1.2944185e+00
  4.2519646e+00
  2.9341836e+00
  2.1036370e+00
 -7.6164728e-01
  9.8952961e-01
  7.4990737e-01
  1.3208351e+00
  3.4944475e+00
  1.3346634e+00
 -4.3007274e+00
 -2.7873313e+00
  2.6296086e+00
  4.1909653e-01
 -3.5709212e+00
  3.7742516e-01
  1.1032600e+00
 -1.6721367e+00
 -6.4118576e-01
  8.5594046e-01
  1.1143844e+00
 -2.1061666e-01
  2.3745162e+00
 -1.3410002e+00
  1.4893304e-02
 -3.6820427e-01
 -4.5963817e+00
 -4.8450926e-01
 -8.1062531e-01
  3.4100115e-01
 -6.9861062e-02
  1.3861402e+00
 -5.9939778e-01
 -3.7622619e+00
 -1.8052403e+00
 -2.9377407e-01
  5.6035429e-01
 -2.2343911e-02
 -1.6957979e+00
  4.3326268e+00
  3.6783287e-01
 -1.0654141e+00
 -2.2430892e+00
  7.5603440e-02
 -1.3564805e+00
 -1.3569450e+00
 -1.2764016e+00
 -6.1945911e-03
 -1.8163367e-01
 -4.1062832e+00
  7.9686239e-02
 -7.0621282e-01
  2.0976172e-01
  1.6998963e+00
  2.7228332e+00
 -1.5654325e+00
 -9.0601496e-02
 -1.1207521e+00
  1.3927374e+00
  1.1328602e+00
  5.1063663e-01
  8.7704498e-01
 -1.1671340e+00
  3.8857825e+00
 -2.9267519e+00
  3.2420082e+00
 -7.9598939e-01
  2.4159489e+00
 -3.2755214e-01
 -4.5728666e-01
 -1.9642226e+00
  2.8982997e+00
 -4.7650700e+00
  2.5082355e+00
  1.6406779e+00
  8.7846488e-01
  5.4227587e-02
  1.4183391e-02
  1.7061904e-01
 -5.6696731e-01
  1.7619611e-01
 -2.7027231e-01
 -6.0942024e-01
  9.6700943e-01
 -2.1262869e-01
 -1.2340490e+00
 -1.0423248e+00
  1.2548801e+00
 -1.8594879e+00
  2.6753156e+00
 -1.8475229e+00
 -1.2684637e+00
  1.3530123e+00
 -7.3769623e-01
 -2.1372628e+00
  2.8867772e-01
 -3.1307883e+00
  9.0756729e-02
 -6.5502697e-01
 -2.9924386e+00
 -1.7783562e+00
 -3.7532318e+00
 -7.9003483e-01
  8.4319715e+00
  1.3846349e+00
 -1.7881732e+00
 -1.6426570e+00
 -1.4989020e+00
  2.2885973e+00
 -2.9747643e+00
  1.7606674e-01
  1.8292247e+00
 -1.3354333e-01
  1.2929182e+00
 -2.3614144e+00
  3.4620562e+00
 -1.2270901e+00
 -2.4714091e+00
  2.1185420e-01
  3.3923523e+00
  2.2801251e+00
  1.1752737e-01
 -1.4021245e-01
 -1.1260570e+00
 -2.6954022e-01
  1.3238730e-01
 -4.7835264e-01
  3.7605870e-01
 -4.3920732e-01
 -1.0660610e+00
  1.7840418e-01
  1.1898683e-01
 -1.5057167e-01
 -1.4344360e+00
 -2.4644754e+00
 -1.1474551e+00
 -1.0940453e+00
  1.1532359e-01
  2.1092680e+00
 -1.6057209e+00
 -1.6912991e-01
 -6.2306142e-01
  7.3648190e-01
 -1.5510561e+00
 -1.1303316e-02
  5.4936689e-01
  9.5661235e-01
  1.1585058e-01
 -4.9460939e-01
  3.9942808e-02
 -3.7604302e-01
  1.0225697e+00
  7.7424270e-01
 -8.2202542e-01
  2.5103369e-01
  1.1757742e+00
  1.3480390e+00
 -1.2631149e+00
  5.9593266e-01
  2.5608426e-01
  8.9271523e-02
  5.0035232e-01
 -8.2982296e-01
  8.8715009e-02
 -3.2361536e+00
  2.3274546e+00
  1.9808339e+00
  2.2277904e+00
  4.9592714e+00
  4.9192429e-01
  2.7123377e+00
  1.0016285e+00
  2.3183237e-01
  1.0242543e+00
 -5.2129121e+00
 -3.3987832e-01
 -9.8254967e-01
 -1.2353916e+00
  1.0699888e-03
  1.0487397e-01
  2.7857740e+00
 -4.6841550e+00
 -4.3997613e-01
 -1.9786545e+00
  6.8719018e-01
  1.2681118e+00
 -6.3065451e-01
 -1.8236734e+00
  1.5569764e+00
 -4.1883149e+00
 -1.1784993e+00
  7.6531544e-02
  2.3717108e+00
 -1.5632797e+00
  1.0640551e+00
  4.1681108e-01
 -2.8905806e-01
  7.0322531e-01
  5.8555508e-01
  2.2409263e+00
  4.8272979e-01
 -1.2473121e-01
 -1.9067198e+00
 -2.0182886e+00
 -4.0454206e+00
 -2.0991642e+00
  1.8549037e+00
  1.6844260e+00
 -5.4684067e-01
  4.4368920e-01
 -1.1038046e+00
 -7.3687702e-01
  1.7179556e+00
 -1.1342673e+00
 -2.1436293e+00
  2.9729354e-01
  1.9039451e+00
  3.2563940e-01
 -7.7708006e-01
 -2.6523247e-01
  6.6959299e-02
 -2.9829979e-01
  5.0153073e-02
  1.1697527e+00
  4.0431708e-02
  8.0039448e-01
 -1.1187103e+00
  1.9818470e+00
 -3.0177096e-01
  5.0006664e-01
 -1.2218113e-01
 -1.6693768e-01
  5.8584529e-01
  5.0969128e-02
 -1.4357021e-01
  1.3775584e+00
  6.4422804e-01
 -4.0151812e-02
 -1.6313732e-01
 -5.6159012e-02
  3.3446419e-01
  6.1319405e-01
  2.3401822e-01
  4.8130247e-01
 -1.4919248e+00
  3.8482910e-01
  1.1432374e+00
 -2.3007710e+00
  2.7335295e-02
 -8.4981352e-02
 -8.6532247e-01
  1.5974703e+00
 -6.8737710e-01
  2.5340950e-02
 -2.3400714e-01
 -5.8668447e-01
  2.8287005e-01
  3.1519111e-02
 -1.4247112e+00
 -1.1735953e-01
  1.2119733e+00
  3.4388009e-01
 -7.2280079e-01
 -6.0568631e-02
 -4.0317926e-01
 -4.5123607e-02
  5.6156236e-01
 -7.2326797e-01
 -2.6942381e-01
  1.0147711e+00
  3.4743914e-01
  4.3408468e-01
 -1.6104813e-01
 -1.3607815e-01
  3.9927838e+00
 -9.6401167e+00
 -2.3872183e-01
  1.5768008e+00
  6.7822462e-01
 -3.4018745e+00
 -1.8207434e+00
  1.1232485e+00
  3.0265337e-01
 -2.5842798e+00
  3.9052871e-01
  9.4110250e-01
  1.3389566e+00
 -1.2276092e+00
 -2.4071825e+00
 -2.4938018e+00
 -3.7504706e+00
 -3.6526403e-01
 -2.2095797e+00
  6.0290533e-01
 -4.5347953e-01
 -1.0681326e+00
  4.0890694e+00
 -1.2935839e+00
 -1.1335036e+00
 -1.6119856e+00
 -1.4368041e+00
 -3.2131672e-01
  1.1318611e+00
 -3.6043179e-01
 -3.4489276e+00
  3.4788737e-01
 -3.4866071e-01
 -2.6256690e+00
 -5.4292530e-01
  3.2116938e+00
 -4.3563497e-01
  1.3922230e+00
  1.2704587e+00
  5.5762810e-01
 -4.0763076e-02
  3.2702047e-01
 -8.5493952e-01
 -3.8350055e+00
  1.9386093e-01
  1.0805609e-01
 -3.7062690e+00
 -2.3312027e+00
  3.1757510e+00
  2.2449252e-01
 -3.0185971e-01
 -3.0321753e+00
  9.6085495e-01
  1.9720725e+00
  4.7514186e+00
 -2.7563226e-01
 -2.8631942e+00
  5.1994604e-01
 -1.9286654e+00
  9.9325073e-01
  1.3914932e+00
  3.7314555e-01
 -1.3354019e+00
  4.5176992e+00
  9.4079500e-01
 -2.5716510e+00
 -2.6409433e+00
 -1.4378594e+00
 -2.8996806e+00
 -1.0925324e+00
  8.7697881e-01
  3.8196692e+00
  2.7964842e-01
 -4.7447104e+00
 -3.4005761e+00
  1.3230790e+00
 -3.7139542e-02
 -3.4561977e+00
  1.2356368e+00
 -1.8243127e+00
  4.4918332e-02
  1.8929631e-01
  5.1977062e-01
  2.7035323e-01
  5.7201731e-01
 -3.5992444e-03
  3.8626584e-01
  7.3322304e-02
 -6.5649158e-01
 -6.6298383e-01
  2.4220134e-01
 -2.2788379e+00
  4.2200240e-01
 -1.4884936e+00
 -3.8853166e-01
 -2.9789239e-01
 -1.4851651e+00
  6.9533998e-01
  3.6959076e-01
  3.7014335e-02
 -1.8901062e-01
 -2.4586024e+00
 -1.5011091e+00
 -3.3640105e-01
  5.8087218e-01
  1.3400215e+00
 -1.0650150e+00
 -1.0332778e-01
  1.0267510e+00
  1.2792737e+00
  1.6070760e+00
 -4.8213366e-01
  1.5125899e-01
  1.6438557e-01
  5.8593261e-01
  6.2399822e-01
  1.1569457e-01
  3.7949603e+00
 -1.6591110e+00
  3.5701040e-02
 -6.2248427e-01
 -5.5163282e-01
  7.8100026e-01
 -2.1897662e+00
 -1.4838694e+00
 -7.4294454e-01
 -1.6549118e-01
 -2.9170591e-01
  1.0624686e+00
 -5.8005232e-01
 -2.3071729e-01
 -4.0974259e-01
 -6.5006399e-01
  2.8594437e+00
 -2.0300867e-02
 -2.7460024e-01
 -2.4926791e-01
  1.0917770e+00
  3.1635678e-01
 -2.9615244e-01
  1.5852058e+00
  7.0786917e-01
  2.2526751e-01
 -8.0653451e-02
 -1.3196507e-02
 -3.1062421e-01
  5.8851427e-01
  6.7864352e-01
  5.6447296e+00
  2.0982499e-01
  3.0824605e-02
 -2.0824242e+00
 -8.0842024e-01
  4.9765214e-01
 -2.5861010e-01
 -2.8851311e+00
 -4.1244812e+00
 -6.0951173e-01
  5.8722204e-01
  1.0108145e+00
 -1.0091808e+00
 -5.1752489e-02
 -1.0000117e-01
  4.8107335e-01
  8.3891517e-01
  7.0453984e-01
 -4.8520401e-01
  4.0368450e-01
  1.3464503e-01
 -7.5540453e-01
 -6.0316747e-01
 -2.0361366e+00
  1.9681524e-01
 -1.0236996e+00
 -1.2437274e-01
 -2.3566079e+00
 -7.6500821e-01
 -7.3711556e-01
 -7.6061147e-01
  2.3035882e-01
  4.6747676e-01
 -1.0711558e+00
  9.2352167e-02
  4.9729425e-01
  3.3203799e-02
 -1.3132316e-02
  4.7326720e-01
  5.4692268e-02
  3.9202258e-02
 -2.2219904e-02
  7.4901181e-01
  1.9072665e-01
 -3.6676988e-02
 -5.7011193e-01
  3.1405303e-01
  1.0055181e+00
 -9.6978359e-02
  2.9239911e-01
 -3.6892992e-02
 -5.9631187e-01
 -1.2014619e-01
  3.1602779e-01
 -1.8439950e+00
  5.3119831e+00
 -1.0912914e+00
  1.2795728e-01
 -6.0097617e-01
 -2.7472457e-01
 -1.2188674e+00
 -7.1917641e-01
  7.2714627e-01
  1.8569299e+00
 -2.9931620e-01
 -3.3144683e-01
 -1.7276996e-01
  8.5448012e-02
  1.9544281e-01
 -4.2296022e-01
 -4.0572399e-01
 -8.2744338e-02
  6.5538406e-01
  6.2761426e-01
  7.2484575e-02
 -9.4612986e-02
 -1.3551797e+00
 -2.8106663e-01
  3.2204694e-01
  2.8965676e-01
  3.4092474e-01
 -1.2825472e+00
  1.6097044e+00
 -2.8825741e+00
  1.7683982e+00
  1.1262121e-01
  9.8130357e-01
  2.2858691e+00
  4.1541939e+00
 -9.8493046e-01
 -7.3739690e-01
  2.2994369e-01
 -1.2992444e+00
 -4.8675981e-01
  1.3296974e-01
  5.1679760e-01
  3.4606707e+00
  8.5096091e-01
  2.1073899e+00
 -2.6510426e-01
  1.1755501e+00
  1.7367351e+00
 -1.4824979e+00
  4.1389089e+00
 -7.7894169e-01
  2.1362159e-01
  7.0217532e-01
  6.9172210e-01
 -1.6023923e+00
 -8.2633476e+00
  5.1957309e-01
  2.1555001e-02
 -3.5885227e-01
  3.4718785e-01
  6.4511573e-01
 -1.6363465e+00
 -4.1482344e-01
  9.7061515e-01
 -3.7160301e-01
  1.6585935e-02
 -3.5885911e-02
  1.4731728e+00
 -1.4959972e-01
 -7.1781181e-02
 -2.2488539e-01
  1.6536799e-01
  1.9844599e-01
  9.4585085e-01
 -1.7320896e+00
  3.3911079e-01
 -1.9567956e+00
 -2.0567586e+00
  1.2557844e+00
 -1.3552916e-01
 -1.8169014e-01
 -2.4551575e+00
 -8.7984127e-01
 -1.4648639e+00
  2.4542727e+00
  1.5649544e-01
  2.7323380e-02
  2.1015012e+00
  5.1892138e-01
  8.9860761e-01
  2.4478412e-01
  1.1237308e+00
  1.8007450e-01
 -8.9664972e-01
 -2.8882883e+00
 -2.4494402e-01
 -1.6856354e+00
 -6.7361385e-01
 -8.8371623e-01
  3.1849604e+00
 -2.5443373e+00
  3.2229567e-01
  1.0960636e-01
 -4.6296325e-01
  3.3234462e-01
 -2.6297717e+00
  2.3030536e+00
 -1.6623753e+00
  5.5487185e+00
 -7.7660460e+00
  1.7684717e+00
  6.4175683e-01
 -3.7951019e+00
  1.7813735e+00
  1.7201728e+00
  8.5525918e-01
  1.1385189e-01
  2.2902112e-01
 -8.7940097e-03
  6.5011895e-01
 -9.7565353e-01
 -1.9797493e+00
 -2.5197065e+00
 -2.7012153e+00
 -1.5773336e+00
 -1.7255807e+00
  3.8561672e-01
  2.9485291e-01
  4.7153005e-01
 -3.3725936e+00
 -1.2438796e+00
 -3.1406727e-01
 -1.7259921e+00
  9.4849986e-01
  5.3985171e+00
 -6.9573081e-01
 -1.0236695e+00
 -5.1345973e+00
 -4.0446895e-01
 -1.6332816e+00
  3.0496976e-01
 -2.9904757e+00
 -1.1095011e+00
  1.6123914e+00
 -6.4360070e-01
  5.1408186e+00
 -1.0394244e-01
 -2.5550897e+00
 -3.1981027e+00
 -4.9228916e-01
  1.9865260e+00
 -1.0729758e+00
  2.7606468e+00
  2.2630296e+00
  3.4778540e+00
 -2.6835570e+00
 -1.0173577e+00
 -4.1635516e-01
 -3.6631987e+00
  1.8969698e+00
 -3.6303496e+00
  8.8776547e-01
 -1.8068528e-01
  1.8373319e+00
  1.9580182e-01
 -1.0916539e-01
  4.5262545e-01
 -5.3371094e-02
  5.0272509e-02
 -2.1881380e+00
 -3.6319795e+00
  4.2883143e-01
 -1.1214999e-01
 -1.8595344e+00
 -6.7807144e-01
  6.1604780e-01
 -3.5644593e+00
 -4.2701459e-01
 -4.6451883e+00
  9.1877878e-01
 -4.4752073e-01
  1.3017875e-01
 -6.6142714e-01
  4.2589357e-01
  1.0561284e-01
 -5.2294021e+00
 -1.4283872e+00
  1.7440875e+00
 -1.3449575e+00
 -3.7855322e+00
  2.9141407e+00
  3.0994320e-01
  9.4092005e-01
 -2.0424309e+00
 -1.1966108e+00
 -1.9523430e+00
  2.2873175e-01
  9.5081203e-02
  5.1702766e+00
 -6.1047304e-01
 -7.6260775e-01
 -2.1793256e+00
 -1.7933683e+00
 -1.3920904e+00
 -2.2673063e+00
  6.4167851e-01
  9.7016621e-01
  1.2764931e+00
  1.8508586e-01
  3.6886173e-01
  1.2951525e+00
  1.4726456e+00
 -9.4752294e-01
 -4.7014795e-02
 -8.8842285e-01
 -8.4820890e-01
  1.3820506e+00
  2.5053072e+00
 -6.2988275e-01
  8.3517516e-01
  1.4442374e+00
 -1.1553912e+00
  1.4836333e+00
  2.3131661e+00
 -1.4347273e-01
 -3.8653605e+00
 -3.4110584e+00
 -9.8777212e-02
  2.0810037e+00
  7.7832586e-01
 -9.2678845e-01
 -6.3414162e-01
 -3.8530928e-01
 -7.3673397e-01
 -1.1443458e+00
 -6.9061118e-01
  5.6677932e-01
 -2.7404342e+00
 -1.1636608e+00
 -4.4223937e-01
  5.4022110e-01
  1.0153223e+00
 -4.0663797e-01
 -2.0290482e+00
 -1.3323185e+00
 -1.8236905e+00
 -4.6967435e-01
 -9.3533146e-01
  1.3565184e-01
  1.1247799e+00
 -2.2933056e+00
 -2.1417809e+00
 -3.5866228e-01
 -5.9485340e-01
  7.2051316e-01
 -1.3773823e+00
 -4.5398126e+00
 -1.0816244e-01
  7.0060857e-02
 -6.4443982e-01
  1.1818547e+00
 -1.4269019e+00
  4.2645311e-01
 -5.5833429e-01
  1.1091872e+00
 -3.1669080e+00
  3.5084659e-01
  1.9268599e+00
 -1.6332592e-01
 -2.8203416e+00
  3.9969739e-01
 -4.7580463e-01
 -8.6118698e-02
 -2.1976218e+00
 -9.9782401e-01
 -2.6045948e-01
  8.9769244e-01
  3.2822237e+00
  1.9031128e-01
 -3.1912366e-01
 -1.0729842e+00
  5.7163352e-01
 -4.0639682e+00
  4.2064151e-01
  1.4254243e+00
  1.1924891e+00
 -6.4499760e-01
 -5.4900169e-01
  1.3038379e-01
  8.6305678e-01
 -1.6432345e+00
  4.1532269e-01
 -3.4675658e-01
  3.0167377e+00
 -4.2493191e+00
  8.0795979e-01
  4.7364604e-01
 -1.6441453e-01
 -4.1114588e+00
 -2.5263562e+00
  5.6393921e-01
 -8.7196976e-01
  2.8653367e+00
  6.3044715e+00
 -2.0663676e-01
 -3.2454439e-02
  3.0600296e-02
  6.1376578e-01
  2.3880839e-01
  1.1966214e+00
 -6.7669350e-01
 -1.4521451e+00
 -1.9610049e+00
  2.3263794e-01
  8.9545506e-01
 -2.5931355e-01
  2.1219006e+00
  7.0531681e-02
 -2.3556068e+00
 -4.8767972e+00
 -2.1776576e+00
  1.1499963e+00
 -3.1133282e-01
  3.8237491e+00
 -1.3819541e+00
 -3.2696805e+00
  3.2197225e-01
  3.4407052e-01
  1.0656717e+00
  9.8019361e-01
  2.3666370e+00
  4.7663015e-01
 -5.2668281e-02
  8.2835488e-02
  8.0579525e-01
  1.2715037e+00
 -7.0822525e-01
 -7.6860303e-01
 -1.8467474e+00
 -7.9272145e-01
  1.4734498e-01
  6.7894429e-02
 -5.4095861e-02
  7.1483274e+00
 -1.1416699e-01
  1.9423206e+00
  9.6185732e-01
 -1.0249298e+00
 -1.0563621e-01
  2.5243058e+00
 -8.2875830e-01
 -6.9025987e-01
 -2.1457550e-01
 -1.1124516e-01
 -2.1725680e-01
  1.0199922e-01
 -2.4116173e-01
  3.0531991e+00
 -2.4480751e+00
 -1.9039086e+00
  1.7377037e+00
 -1.2462839e+00
  4.3032902e-01
 -3.8010061e-01
  1.8255657e+00
 -9.2520130e-01
  2.2306743e+00
 -8.6732250e-01
  3.1367496e-02
 -1.4138803e+00
 -2.0534053e-01
 -3.2307677e+00
 -2.1557124e+00
 -8.1548822e-01
 -1.0532308e+00
 -1.0378122e+00
 -3.0569515e-01
 -2.0617194e+00
 -3.0500680e-01
 -3.5806784e-01
 -4.7906891e-01
  1.3758864e+00
 -9.4448519e-01
  1.0278151e+00
 -1.2056606e-01
 -2.8694322e+00
 -2.3144042e+00
 -1.7234024e+00
  3.5494438e-01
  1.6399463e-01
  1.0223367e+00
  1.0201859e+00
 -1.2696471e+00
 -1.6084212e-01
 -5.4683560e-01
  2.9181154e+00
  5.4733837e-01
 -1.4252340e+00
 -1.0003773e-01
 -7.7740312e-02
  5.4577887e-01
 -3.4509039e-01
 -1.5953971e-01
 -1.3032614e+00
  3.7834045e-01
 -2.4748757e+00
  2.2309599e+00
  8.4089357e-01
 -3.1752009e+00
  8.8930264e-02
 -1.1949756e+00
 -1.8848158e-01
 -2.8635103e-01
 -7.5307980e+00
  2.3403058e+00
 -5.9198766e+00
 -8.3557832e-01
 -6.4441481e+00
  5.0194122e-02
  1.7014056e+00
  1.1223923e+00
  2.4615798e+00
 -2.0535421e+00
 -2.8718336e+00
 -2.5895193e+00
  1.5191128e+00
  6.6368777e-01
 -1.5986010e+00
 -1.1292913e+00
 -1.4974424e+00
 -1.0850464e+00
  8.1541133e-01
  3.1623182e+00
  1.5825739e+00
  4.2235756e+00
  1.2720565e+00
 -5.9413642e-01
 -2.1458101e+00
  1.8033549e+00
 -5.3364725e+00
 -3.4942403e-01
 -8.5880303e-01
  2.0979881e-01
 -4.2602954e+00
  4.6524100e+00
 -4.1051015e-02
 -1.5331345e+00
  1.2813900e-02
 -4.3530375e-01
  2.5046390e-01
  1.1146785e-02
  9.8808396e-01
 -6.1295444e-01
 -1.5014134e-01
 -5.1047746e-02
  1.7482653e+00
  5.2421674e-02
  5.9474629e-01
  6.4027734e-02
  4.1051325e-03
 -6.0023570e-01
 -2.8001711e-01
  6.8086225e-01
  2.5342185e+00
 -3.3156639e-01
 -3.7858257e-01
 -1.4370391e-02
  4.0028319e-01
  9.7813404e-01
 -2.0195982e+00
 -6.5245971e-02
  5.4038984e-01
  1.1458751e-01
  1.5748224e+00
 -5.3428162e-02
  1.4512400e-01
  3.1502455e-01
 -5.1859027e-01
  4.1913155e-01
 -5.0837576e-02
  1.1438701e+00
 -5.9888959e-01
  7.7899724e-01
 -1.2863553e-01
  3.4611258e-01
 -3.5752919e-02
 -1.9014306e-01
 -1.4129865e-01
 -8.9099646e-02
  2.0793650e-01
  7.5306642e-01
  2.1893552e-01
 -1.5197405e+00
  1.8151926e-01
 -1.4046203e-01
  3.0420471e-02
  1.2225090e-02
 -4.6977121e-02
 -1.3704264e+00
 -2.2104907e+00
  1.0850687e+00
 -1.1230615e+00
  4.6671543e-01
  1.1381708e+00
 -1.9944918e-01
  9.2234325e-01
  2.7288109e-01
  9.2708427e-01
 -5.6806606e-01
  1.1004127e+00
 -4.6710733e-01
  2.7519450e-01
 -2.7523455e-01
  2.6448238e-01
 -9.0555620e-01
  1.8110733e-01
  5.7216680e-01
 -5.8271694e-01
  5.5885220e-01
  4.8639080e-01
  7.0239729e-01
 -1.6866999e+00
  3.0379423e-01
 -1.7686013e+00
 -9.5291632e-01
 -6.7951918e-01
 -1.5414011e+00
  4.0767381e-01
 -1.1295809e+00
  8.6359733e-01
 -1.7679782e-01
  3.9703432e-01
  5.7716262e-01
 -2.7529573e-01
  2.3400436e-01
  1.1461394e-01
  3.2542804e-01
  1.3623764e-01
  1.7188892e-01
  3.4258759e-01
 -1.3048129e+00
  2.3507833e-01
  9.8637484e-02
  3.9196926e-01
  2.8843132e-01
 -4.7161493e-01
  5.3643286e-01
 -1.8182278e-01
 -2.9600647e-01
  1.1490818e+00
 -1.4478332e+00
  9.2880750e-01
  1.4520397e+00
  6.9215345e-01
 -7.8386557e-01
 -3.0046907e-01
 -1.5616970e+00
  2.6490190e-03
  3.3922550e-01
  2.3296379e-01
  6.1359954e-01
  1.4876277e+00
 -1.5795840e+00
 -1.2189783e+00
  2.3384313e-01
 -3.4486702e-01
  4.2944339e-01
 -1.7987418e+00
  2.7101716e-01
  1.1019638e+00
 -1.3266039e+00
  7.2023290e-01
  5.2836466e-01
  3.7721366e-01
  1.3403745e-01
 -9.1622800e-01
 -1.3027613e+00
 -7.4860662e-01
 -2.9558203e+00
 -6.0527492e+00
 -1.6337602e+00
 -8.9085126e-01
 -3.4097761e-02
  3.0955184e+00
  1.6551307e+00
  8.5166401e-01
  1.1227911e+00
 -3.9251593e-01
  4.7802660e-01
  5.9068990e-01
  6.1676617e+00
 -1.7295603e+00
  9.0174943e-01
 -2.2931428e+00
  1.1011800e+00
  2.3554146e-01
 -2.5832364e-01
  5.6204569e-01
 -9.6074057e-01
  1.2328147e-01
  2.2191908e-02
 -3.0701985e+00
  3.8880193e-01
 -4.2827681e-01
  1.2618499e+00
  2.9663141e+00
 -1.9057920e+00
 -2.5528619e-01
 -2.2286229e+00
  1.3899978e-01
  6.9137134e-02
  7.0225269e-01
  4.6683201e-01
  7.2814238e-01
 -7.0866799e-01
  4.2662615e-01
  1.5936379e+00
  8.2878357e-01
  9.1691846e-01
 -2.5486729e-01
 -6.8740547e-01
 -2.3961206e-01
 -3.8656667e-01
 -6.2807095e-01
 -7.8376639e-01
  1.1214019e+00
 -3.8780546e+00
 -8.5155642e-01
 -6.6149765e-01
  1.0901177e+00
  1.8449335e+00
 -4.6575159e-01
 -1.5117679e+00
  1.1331304e+00
  5.3698123e-01
 -1.4760786e-01
  7.8194624e-01
 -1.1857468e+00
 -2.1133268e+00
  6.8813819e-01
 -4.5640488e+00
  4.5337483e-01
  1.6424493e-01
  1.0813284e+00
  1.4930054e+00
 -2.1681139e+00
  1.7583747e+00
  5.3662878e-01
 -8.4027183e-01
  1.5846925e+00
  3.6317420e+00
  3.5220590e+00
  4.0847033e-01
  9.4903427e-01
  8.1472343e-01
 -3.2005351e+00
 -2.3936732e-01
  7.5818524e-03
  3.3870721e-01
 -4.6654433e-01
  4.1710097e-01
 -3.6648154e-01
  2.2703671e+00
 -3.1185760e+00
  1.2743182e+00
 -3.5391307e+00
 -3.0501238e-01
 -4.1223496e-01
  1.2473881e+00
 -1.7024995e+00
 -1.2809488e+00
 -8.7923539e-01
 -2.7946392e-01
 -7.5430942e-01
 -3.3538654e-01
 -1.5610658e+00
 -2.7896169e-01
  4.3611681e-01
 -3.8025191e-01
  4.7738421e-01
 -2.5893852e-01
 -3.5047540e-01
 -5.8659011e-01
  2.8426701e-02
  1.1914064e-01
 -1.4748211e-01
 -2.1704009e-01
  1.0657010e-01
 -8.7902343e-01
 -3.4701616e-01
  2.1381609e+00
  1.9758952e-01
  6.6692913e-01
  9.3937922e-01
 -5.6959707e-01
  1.2403113e+00
 -2.0868497e-01
  1.7085776e+00
 -2.6899740e-01
 -5.2807889e+00
  1.4788810e+00
 -2.5473859e+00
  1.1015034e+00
 -7.3893957e+00
 -1.6766189e+00
  5.2180988e-01
 -4.5846562e+00
  7.4621487e-01
 -1.2852073e+00
 -1.0073339e+00
 -1.5096070e-01
  1.5126848e+00
 -2.0515686e-01
  1.3427219e+00
 -3.1541213e-01
  1.0102868e+00
  9.0647179e-01
 -2.5899024e+00
 -3.2397168e+00
 -4.7017322e+00
  5.4552186e-01
 -3.1273613e+00
 -5.3100646e-01
 -4.2054057e-01
  1.9366357e-01
  3.7519529e-01
  1.6571910e+00
 -1.1132231e-01
  1.9862504e-01
  7.9500270e-01
 -1.6207011e-01
  2.9714286e-01
  1.1683968e-01
 -1.0860511e+00
  1.0327293e-01
  6.2229079e-01
  4.1495323e-01
  4.7071657e+00
 -1.8299719e+00
 -2.3081779e+00
 -3.1271539e+00
 -5.7225007e-01
  3.2579848e-01
  2.4993128e-01
  5.9963326e+00
 -5.3866476e-01
 -6.0925155e+00
 -5.0694408e+00
 -1.0013756e+00
 -1.7624772e+00
  1.4592979e+00
  1.4694648e+00
 -3.9335275e-01
 -2.4478297e+00
  3.1006672e+00
  2.6481345e+00
 -1.5196395e+00
  1.4104993e+00
  1.4063319e+00
  8.2808924e-01
  3.5733941e-01
 -3.9131553e+00
  2.7768442e-01
 -1.0278937e+00
  3.6949539e-01
 -7.7969730e-01
  3.4465847e+00
  1.9826788e-01
 -1.0764829e+00
 -7.1994048e-01
 -2.2895418e-01
  3.2923117e-01
  2.0400113e-01
  4.7449312e-01
 -1.4416367e+00
  5.8079839e-01
 -4.5598249e-04
  1.8347718e-01
  2.5343719e+00
  1.5737562e-01
  9.5951483e-02
 -4.8626125e-02
  2.3133895e-01
  8.1448179e-01
  2.9319885e-01
 -2.0858848e-02
  2.7333441e-01
 -6.8149894e-02
 -2.3326206e-01
  1.3030411e+00
 -3.7213352e-01
  6.2213629e-01
  1.5596564e-01
 -3.0648324e+00
  7.6680876e-02
 -1.6306780e-01
 -3.4176093e-02
 -1.5348174e-01
  1.9055845e-01
  6.0304475e-01
 -1.2336712e-01
  1.9294088e-01
 -4.6553853e-01
 -7.9759949e-01
  3.9854491e-01
 -1.4777132e+00
 -4.4759933e-02
 -2.4189743e-01
 -6.2808853e-01
 -2.2163619e-01
  1.9179879e-01
  6.7981996e-02
 -8.1367332e-01
 -1.8449546e-01
 -5.5805618e-01
  7.7708326e-02
 -1.8778498e-01
 -2.9516158e-01
  1.0826179e-01
  3.7115616e-01
  8.7889421e-01
 -1.4311263e-01
  8.1932408e-01
  2.7031374e-01
 -9.0943895e-02
  1.6620313e-03
 -2.3442462e-01
 -3.0011690e-01
 -2.7798245e+00
  3.1339817e+00
 -5.0113177e-01
  1.5666772e+00
 -1.3465528e+00
 -1.0957506e+00
  2.9595885e-01
  2.2850044e-01
  2.5721469e+00
  1.3795046e+00
  1.4768792e+00
 -4.0680089e+00
  6.4615542e-01
 -2.1213419e+00
  3.3380063e+00
 -1.4567791e-01
  2.3270278e+00
 -6.1976159e-01
  6.0976893e-01
  2.1065216e+00
 -5.2860966e+00
 -8.8243169e-01
 -5.7912922e-01
 -5.9104390e+00
 -2.3432999e+00
 -9.4760025e-01
 -1.4755379e+00
 -2.9912180e-01
 -5.5555505e-01
  2.6227123e-01
 -2.8903494e+00
 -3.4669198e-02
  1.4690347e+00
  9.4492692e-01
 -3.9583974e+00
  1.3971020e+00
  3.1373313e-01
 -2.3924965e-01
 -7.2427398e-01
  7.9559922e-01
  5.5747622e-01
  6.3698702e-02
 -1.9692788e-02
 -3.1793150e-01
  9.5940751e-01
  5.3294122e-02
 -9.7277927e-01
 -7.5902522e-01
  8.7571585e-01
  5.8094870e-02
 -1.1987146e+00
  1.2150284e+00
  2.6812205e-01
  3.3272395e+00
  6.5553330e-02
 -1.5490586e+00
 -1.2224119e+00
  4.3711495e+00
  4.0847054e-01
  1.4837729e+00
 -2.4557228e+00
  2.5012264e-01
  1.6555196e+00
  2.8158226e+00
 -5.2213699e-01
 -4.8039455e-02
 -1.7675157e+00
 -2.6580729e+00
 -4.0933594e-01
  4.5477450e-01
  1.2164332e+00
 -5.7974029e-01
  6.0275611e-02
  2.8359878e-01
  2.2102277e+00
 -2.8425169e+00
 -5.3627974e-01
  7.2742544e-02
 -1.7093876e-01
  4.3255529e-01
  2.2361614e-01
 -8.5669351e-01
  4.5591202e-01
  2.1892464e+00
  6.7323914e+00
  8.4092164e-01
  1.6558801e-01
 -8.4247756e-01
  3.7794083e-01
  4.1834748e-01
 -9.3416065e-01
  1.5276588e-01
  1.1480976e+00
  6.6164726e-01
  1.8213490e+00
  1.3794834e-02
 -1.3653218e-02
  1.3258759e+00
  1.1297507e+00
 -5.5377173e-01
  6.8656188e-01
 -2.7005212e+00
  1.1682997e+00
  1.7565778e-01
  8.0091737e-02
 -2.7231975e+00
  3.0280208e-02
  3.3230889e+00
  1.1060194e+00
 -1.1120374e+00
  2.7679431e+00
  2.8938162e+00
 -1.8333553e+00
  3.4237142e+00
 -1.2894045e-01
  3.4867242e-02
  2.3365159e+00
  5.1393783e-01
 -5.6581366e-01
  2.2920474e-01
 -1.4941881e+00
 -4.2495842e+00
 -1.3060100e+00
  4.0859404e-01
  1.9163604e-01
  1.4614015e+00
 -3.7766850e-01
 -1.1340237e-02
 -9.3805206e-01
 -2.0140911e-02
  4.2830467e-01
  2.7221814e-02
  1.2263308e-01
 -1.2789738e-01
  3.4837213e-01
  9.5327306e-01
 -5.8289605e-01
 -1.8914282e-01
 -6.3155830e-01
 -1.2993348e+00
 -1.4125689e+00
 -1.8556078e-01
  6.3625866e-01
 -8.2067627e-01
 -7.2405344e-01
 -5.1624757e-01
  5.8107430e-01
 -4.6450558e-01
  6.4759141e-01
 -7.7869952e-01
  4.4835714e-01
  7.5574934e-02
  7.1514599e-02
  1.1922395e+00
 -5.0593168e-01
 -3.8078049e-01
  8.4995925e-01
 -8.1625089e-02
 -3.7919179e-01
 -4.5111912e-01
 -7.9458944e-02
  3.0314413e-01
  8.8110320e-02
 -4.2725745e-01
 -1.4061315e+00
 -2.8869176e-01
 -4.4533494e-01
 -5.6544107e-01
  5.0864613e-01
 -1.6459808e-01
 -6.7672944e-01
 -6.6786833e-02
 -2.5961850e+00
  5.5721349e-01
 -1.0853179e-01
  1.4115573e-02
 -3.3645179e+00
  3.5095102e-01
  4.8767841e-01
 -2.9623972e-02
  4.4155267e-01
 -1.9093765e-01
  4.3369040e-02
 -6.4687246e-01
  7.5420403e-01
 -5.1405742e-03
 -3.4322760e+00
  1.9752678e-02
  1.1573622e+00
  2.2387698e+00
  4.0022948e-01
 -2.2893395e-02
  6.5706486e-01
  1.5766904e-01
  1.4982589e-01
 -3.5141132e+00
 -8.2580376e-01
  5.0408995e-01
  3.4132513e-01
  6.5496542e-02
 -6.0335442e-02
  1.8056602e+00
 -7.7015114e-01
 -1.1080486e+00
  3.2031569e-01
  4.4059448e-02
 -2.1465042e+00
 -1.7316306e+00
  9.6049923e-01
 -8.8231462e-01
 -3.0360016e-01
  1.9528785e+00
 -1.9449004e+00
  2.3375604e-02
 -2.1535285e+00
  1.1824205e+00
  1.2886282e+00
 -7.3761350e-01
  1.2413884e+00
 -1.0588849e+00
 -3.2862228e-01
  1.7851523e+00
  2.0895948e-01
 -4.0891533e+00
  3.2360139e+00
  1.2028325e-02
  5.7923090e-01
  3.7271318e-01
  3.6486886e-02
 -1.6484778e+00
 -5.4400820e-01
  9.5048076e-01
  3.9014103e+00
 -2.1019499e-03
  4.3347979e+00
 -7.1442679e-02
  2.7460730e+00
 -2.4708675e-01
 -3.1652483e-01
  1.0205013e+00
  1.6607684e+00
  1.6327790e+00
 -1.2598094e+00
  4.1435900e+00
  2.1587398e+00
  3.2828569e+00
 -2.2031119e+00
  9.0295029e-01
 -6.1652446e-01
  6.5417212e-01
 -5.3539187e-01
 -4.0526971e-01
  7.6400220e-01
  2.0731289e+00
  4.4006934e+00
 -1.0446384e+00
 -3.7524953e-01
 -2.0260522e-02
  4.7392035e-01
 -4.3648034e-02
  2.8476923e+00
 -4.4340536e-01
 -1.9969533e-01
  5.1940799e-01
  8.3707951e-02
  1.2563014e+00
  1.8092564e+00
  1.0169166e-01
 -5.7102603e-01
  6.3638645e-03
 -7.6627098e-02
  3.4125116e-01
 -1.6063948e+00
  3.5804713e-01
 -1.3501506e-01
 -2.0249015e-01
  2.0739540e-01
 -5.5323720e-02
  6.3071094e-02
 -6.0343456e-01
  7.7082373e-02
 -1.3019308e+00
 -1.2386310e+00
  4.5855853e-01
 -1.0063610e-01
  7.5561380e-01
 -9.2386401e-01
 -2.1412930e+00
  1.3447810e+00
 -4.3146906e+00
 -5.5664867e-01
 -7.3376226e-01
 -1.8912005e+00
  3.2473631e+00
  2.3912964e+00
 -9.4443053e-01
  2.8221793e+00
  2.5216331e+00
 -2.2351437e+00
  1.7518898e+00
  3.6751756e-01
  3.7153101e+00
 -8.9210886e-01
 -1.2500085e+00
 -7.8890488e-02
  2.3238060e-01
 -1.5469145e+00
 -1.7920310e+00
  4.4682950e-01
 -2.6642821e+00
 -1.1970471e+00
 -1.1019069e-01
  3.1087899e-01
  3.4845623e-01
 -3.1459208e+00
  1.1531253e+00
  1.0180509e-01
 -7.5393100e+00
  3.8516822e+00
  1.3441578e+00
  3.2705433e+00
  9.9510485e-01
 -3.2375488e-01
  7.1809396e-02
 -2.8517300e-01
  3.6097032e-01
 -1.0578445e+00
 -2.0998740e-01
 -1.7840936e+00
  1.9899727e+00
 -2.3310523e-01
 -6.5760088e-01
 -2.4590693e+00
 -2.7673617e-03
  3.4127373e-01
 -6.5093571e-01
 -2.4451357e-01
 -6.7646027e-02
  5.2409738e-01
 -1.6670753e+00
 -1.6956517e+00
 -2.6329954e+00
  7.0996195e-01
  4.1088817e-01
  2.3550519e-01
  1.7770426e+00
 -1.0523733e+00
  9.6214420e-01
  2.8322482e-01
 -1.1059724e+00
  1.3354251e+00
 -1.5740710e-01
  1.6399726e+00
 -6.3300526e-01
  2.2472496e+00
  1.1286119e-01
  8.5232598e-01
  1.9832497e+00
  3.1454811e+00
 -2.4928136e+00
 -1.8116188e-01
  1.6300692e-01
  5.9461808e-01
  8.7104768e-01
 -3.6986113e-01
 -2.8808871e-02
 -1.6691867e-01
 -2.5176275e-01
 -1.4106487e+00
 -3.9197749e-01
 -4.7184065e-01
  3.6835563e-01
 -5.2747931e-02
  1.4618552e-01
  1.1484531e-01
  2.0053425e+00
  2.3351437e-01
 -2.3912768e-01
 -9.7724479e-01
 -4.9494737e-01
  7.0601326e-01
 -9.4729054e-01
 -4.1977477e-01
 -9.2657965e-01
  1.0108014e+00
 -5.1285738e-01
  2.0306380e-01
  4.5140065e-02
  9.3158317e-01
  5.9940401e-02
 -1.7773023e+00
 -6.9200242e-01
 -6.7255515e-01
 -5.7219845e-01
  1.3754964e-01
  5.6367643e-02
 -3.9027265e-01
 -2.6306802e-01
  3.0328372e-02
 -4.7921059e-03
  1.4130087e-01
  1.6907266e+00
 -1.9995496e-01
 -9.3324381e-01
  2.3263034e-01
  9.9365187e-01
 -1.5996188e-01
  2.2468327e-02
  1.1363026e-01
  9.4632608e-01
  4.8577633e-02
  1.0839464e-01
 -1.1097539e-02
  9.3110406e-01
  7.5824723e-02
  8.4574139e-01
  3.1731360e-02
 -2.9879159e-01
  1.3853320e+00
  7.0892431e-02
 -7.9645097e-02
 -1.4603856e+00
 -8.2367200e-01
 -9.1639388e-01
 -2.7706701e-01
 -2.2144859e-01
 -6.1390024e-01
 -4.2180589e-01
  9.6190560e-01
 -1.0089811e+00
 -1.5551227e-01
  1.8021062e-02
  1.9776975e-01
 -1.8232253e+00
  1.6004977e+00
  1.0484788e+01
 -1.7276261e+00
  4.4204456e-01
  1.8026519e-01
  1.9229351e+00
  1.2191503e+00
  8.9318138e-01
 -3.8409856e-01
  1.0748342e-01
 -5.5622158e+00
 -9.8888449e-02
 -1.0100632e+00
 -2.0119126e-01
 -3.4288112e-02
 -1.4159596e+00
  3.0468887e-01
 -1.2708451e+00
  8.7197047e-01
 -7.4914873e-01
  5.1496780e-01
 -8.5075021e-01
 -6.9404221e+00
  8.3761746e-01
  9.3849926e+00
 -6.6958914e+00
  3.3587308e+00
  2.4335442e+00
  4.4156307e-01
  3.5394898e-01
 -3.2267020e+00
 -4.7684345e-01
  1.3072950e-01
  7.9021674e-01
  2.8842498e-02
 -1.1239024e+00
 -2.9485646e-01
 -8.2124418e-01
 -9.1412336e-01
 -2.0114217e+00
  2.2952926e+00
  4.2987548e-02
  1.0256268e+00
 -9.0587217e-01
 -3.1873401e-02
  3.1356835e+00
 -3.5288665e-01
  3.6766383e-01
  3.5196474e-01
 -1.2441550e+00
  1.8170993e+00
 -3.2232654e+00
  3.8632462e+00
  5.3546101e-01
 -1.5933900e+00
  5.9686422e-01
  1.0751221e+00
  4.7961078e+00
  3.2459450e-01
 -3.1545258e-01
 -2.5090625e+00
 -2.5740778e-01
  3.3837202e+00
  3.3354318e-01
 -9.8722023e-01
 -2.1132247e+00
 -2.2151761e+00
  5.5959654e-01
  1.3608865e-01
 -3.6944828e+00
 -3.1358581e+00
 -9.1316611e-02
 -4.6520209e+00
  1.6298054e+00
 -3.5289016e+00
  3.4014363e+00
 -3.0138755e-01
 -1.9959673e-01
 -5.4126310e-01
 -1.6909194e+00
 -1.4651282e-02
  6.2469709e-01
  5.6692517e-01
 -6.0094243e-01
  4.7812063e-01
  1.5955789e-01
  6.7123085e-01
  1.2834648e+00
  9.1311312e-01
  1.4555844e+00
  1.0856248e+00
  2.5861671e+00
 -4.2442542e-01
  1.7773614e+00
 -1.6429201e-01
  6.4144212e-01
  1.8546592e+00
  4.0768066e-01
 -2.1836478e-01
 -9.4734162e-02
 -8.5802966e-01
  1.5169519e-01
  1.1142780e+00
  2.3294348e-01
 -3.4581620e-01
 -1.8376350e+00
  7.4844129e-02
 -3.9995453e-01
  6.0250574e-01
 -1.5947129e+00
 -2.5529008e+00
 -7.6444399e-01
 -8.7100826e-02
 -2.1149176e-01
 -5.9593660e-01
  1.5408711e-01
  4.5341042e-01
  9.4436604e-01
 -1.5753803e+00
 -4.8933396e+00
  3.9847341e-01
  2.6988323e+00
 -7.1594858e-01
 -2.9248014e-01
 -1.7769324e+00
  1.5223244e-01
 -4.0418003e-02
  1.2672591e+00
  2.0186582e+00
 -2.6863077e-01
  1.2482783e+00
  4.0163711e-01
 -1.9259280e-01
 -1.1864744e+00
 -1.1901460e+00
  1.9838205e-01
  1.5235654e+00
 -5.2386445e-01
  1.0148278e+00
  1.1966052e+00
  3.0836256e+00
  4.1633053e+00
 -1.4947140e+00
 -6.5568000e-01
  2.5333357e-01
 -6.7566276e-01
 -5.5699921e-01
  2.4444454e+00
  1.1241066e+00
 -3.2877919e-01
  1.1001859e+00
  3.5444754e-01
 -1.2663695e+00
  1.2614876e+00
  9.4424421e-01
 -5.4375935e-01
 -3.7617538e+00
 -1.0451639e+00
 -6.2682420e-01
 -7.5969774e-01
 -1.7486153e-02
  1.5436571e+00
  1.2886940e+00
 -1.7531978e+00
 -3.1494859e-01
  2.9214439e+00
  7.6205862e-01
 -1.3019228e+00
 -2.3790996e-01
  1.3060639e+00
  4.1595846e-01
  9.8172158e-01
 -1.1748766e-01
 -3.5321715e-01
  1.1377377e-01
 -1.1156819e+00
 -1.3107904e+00
  9.6898252e-01
  7.1870327e-01
 -6.3706446e-01
 -7.8905880e-01
 -1.3701731e+00
  1.4072762e+00
  2.3829005e+00
 -1.5578678e+00
 -3.4370384e+00
  9.8815340e-01
 -6.4947045e-01
  2.5225980e+00
  1.6265677e+00
 -5.9032845e+00
 -1.0051357e+00
 -1.0786420e+00
 -1.1977144e+00
 -8.1066597e-01
 -7.5092044e+00
  8.2447499e-01
 -5.2247195e+00
 -1.3310555e+00
  2.7947528e+00
  2.5000560e+00
  3.9935529e+00
  2.4344423e+00
 -2.7591735e-01
  3.6641929e+00
 -8.4603745e-01
 -5.1160586e-01
  1.3815408e+00
  1.3864121e+00
  1.0764852e+00
  6.7635894e-01
 -5.5310369e+00
 -6.8764043e-01
 -6.7460671e-02
  7.9880975e-02
  1.4578912e-01
 -1.8441303e-01
  8.5049319e-01
  1.9834091e-01
  3.5513978e-02
 -1.7511940e+00
 -1.8753605e-01
 -1.9415104e-01
  9.5708454e-01
  7.1306628e-01
 -1.7150754e-01
  1.3332897e-01
  4.0547280e+00
  1.1569688e+00
 -3.2241890e+00
 -1.4009830e+00
 -9.6842849e-01
 -6.8214302e+00
  3.2737083e+00
  2.7867203e+00
 -1.4386514e+00
 -2.1953866e+00
  4.2626053e-01
  1.1314471e+00
  1.4786426e+00
  2.4502710e-01
 -1.0335283e+00
 -1.0591229e+00
 -2.5473623e+00
  8.3236235e-01
  1.5801272e+00
 -9.3782645e-01
  2.1884968e+00
 -3.0548540e-01
 -3.3844754e-01
  3.4179870e-02
  1.5308085e-01
 -1.2880312e+00
 -2.7373304e+00
  1.8027438e+00
  9.6227723e-01
 -4.6189922e-01
  6.2050915e-01
  1.0694746e+00
  2.6426904e+00
  2.0833451e-01
 -7.2527903e-01
 -3.0600164e+00
  6.4812499e-01
  4.2878710e-02
 -3.0482128e-01
 -1.6551970e-02
 -2.3271365e-01
  9.6311337e-01
  4.1752279e-01
 -3.4874458e+00
  6.0296249e-01
 -5.7010212e+00
 -6.3020551e-01
  8.0095720e-01
 -1.7044390e+00
 -1.5697777e+00
  1.8659612e+00
  2.2171066e+00
 -1.0143943e+00
  9.0421205e-03
  4.4187183e+00
  2.9023898e+00
 -1.2215636e+00
  7.2956610e-01
 -4.8703208e-04
  5.0915623e+00
 -1.3937737e-01
 -5.2393180e-01
 -5.4253495e-01
  7.2588705e-02
 -1.0125399e+00
 -2.7258238e-01
 -2.4458985e+00
 -2.0382178e+00
  1.6508203e+00
 -3.0733389e-01
  3.4611530e-03
 -5.2814811e-01
  1.0247144e+00
 -6.7946658e+00
 -1.0488818e+00
 -1.8138871e+00
 -3.5453436e-01
  9.5930016e-01
 -2.1666029e-01
  1.0683283e+00
 -2.3833457e-02
 -1.7783511e-01
 -1.5657764e-02
  3.1252704e+00
  6.6606745e-02
 -6.1700970e-01
 -3.9124128e-01
  5.4418647e-01
  1.7736646e+00
  1.2127209e+00
  8.0811048e-01
  3.8394506e+00
  2.8013804e+00
  3.2576194e-01
 -2.6522586e+00
  3.7507319e+00
  3.3932481e+00
  2.6319388e-01
 -6.4401257e-01
 -2.6220039e-01
 -1.8847411e+00
 -9.3768400e-01
  5.5298764e-01
 -2.7563515e+00
 -1.8781043e+00
 -1.9987351e-01
  9.8013043e-02
 -4.0730914e-01
  2.7732172e+00
 -1.4288090e+00
  2.1923451e+00
  8.2492304e-01
  1.8244603e+00
 -4.9217753e+00
  8.7809938e-01
  1.6418888e-01
 -3.6617315e+00
  1.3824391e+00
 -4.0264621e-01
 -1.2492269e+00
 -2.6805065e+00
 -1.5373085e+00
  1.6321559e+00
  7.9052514e-01
  2.4300690e-01
  3.2846940e-01
  1.1908469e+00
  5.3852201e+00
 -8.1248993e-01
  6.2468374e-01
  2.0288346e+00
  2.5619933e-01
  2.4319694e+00
  3.4304794e-02
 -9.1764338e-02
  7.8074466e-03
  5.4835147e-01
 -1.2389673e+00
 -3.3650172e+00
  4.9918981e+00
  2.0098896e-01
 -1.4431456e+00
 -1.2920662e+00
  8.8310945e-01
 -1.5302200e+00
 -1.7393790e+00
  4.1327105e+00
 -2.4045596e+00
 -7.7697392e+00
 -9.5691025e-01
  3.1919868e+00
 -1.3124435e+00
  4.5120060e-01
  1.0008030e+00
  3.5377029e-02
 -9.8868537e-01
  3.0146923e+00
 -4.2628026e+00
 -1.0279667e+00
  2.2620955e+00
 -1.4522817e+00
 -5.4295582e-01
  7.2606307e-01
  7.2905105e-01
 -7.1343809e-01
  1.6537154e-01
  1.2232525e+00
  4.4582635e-01
 -1.3404225e+00
  9.5937270e-01
 -1.3466289e+00
  1.3969902e+00
 -8.9523315e-01
 -5.7823706e-01
  4.4731851e+00
 -5.3382835e+00
  1.5715837e+00
  8.8628459e-01
  4.5994043e-01
  4.8262540e-01
  1.0475717e+00
  1.1061314e+00
 -3.7301660e-01
 -5.8704746e-01
 -2.6558459e-01
 -1.6856287e+00
  7.8515041e-01
 -1.3010886e-01
 -2.1380446e+00
  9.2739946e-01
 -6.8586740e+00
  7.0342809e-01
  7.5192899e-01
 -3.9515400e-01
  3.6693293e-01
 -2.9860673e+00
  4.3050795e+00
  3.3254607e+00
  9.3587029e-01
  1.7539586e+00
 -2.7926326e+00
  4.6530089e-01
  1.0828607e+00
 -4.2458110e+00
 -3.8036785e+00
 -1.2718720e+00
  1.5827749e+00
  5.7965798e+00
  5.5500346e-01
 -8.0799878e-01
  2.6819620e-01
 -2.5018170e+00
 -3.4537873e+00
  4.3068984e-01
  1.1385386e+00
  1.6727580e+00
  1.5341401e+00
  1.4987818e+00
 -3.3010080e+00
  1.4922800e+00
  4.5667701e+00
 -4.5839934e+00
  1.5055209e+00
 -1.3697444e+00
  3.1694505e-01
 -6.5130734e-01
  8.5847169e-01
  3.0768666e-01
  7.9888850e-01
 -1.7509779e-02
  1.5010288e+00
  1.4265667e-01
  2.5066460e-02
  1.7111666e+00
 -2.9319945e-01
 -3.1556768e+00
  2.3158534e-01
 -3.2054586e+00
  1.4748064e+00
  8.5002817e-02
  4.7958932e+00
 -1.1118213e+00
 -4.2192942e-01
 -1.0466721e+00
  2.4575868e+00
  2.3187181e-01
 -1.2054335e+00
 -2.3094642e-01
 -2.6643765e+00
  6.5329534e-01
  3.6302697e-02
  5.0740995e-02
  1.6359736e+00
  8.6570078e-01
  1.2616565e+00
 -8.1962883e-02
 -4.0776321e-01
  6.3688690e-03
 -1.7097940e+00
 -4.3512883e+00
 -1.3095078e+00
  2.8174505e-01
  1.3136907e-01
 -1.7890066e+00
 -1.9240505e+00
 -3.2097497e+00
  2.9994209e+00
 -2.6241741e+00
  7.5499713e-01
 -3.9990362e-02
  1.2080307e+00
  8.0477208e-01
 -1.9670703e-01
  2.8174463e-01
 -4.3741077e-01
 -2.2937200e+00
 -3.3956274e-02
 -7.6645672e-01
 -4.7793305e-01
 -2.0226746e+00
  1.3129200e-01
  8.3769757e-01
  2.1509862e-01
  3.7219110e-01
  3.4078848e+00
 -1.7010723e+00
  2.6348498e+00
  2.5387285e+00
 -1.9134549e+00
 -7.9695755e-01
 -5.5560213e-01
  3.2023171e-01
  1.0555991e+00
 -8.8999373e-01
  4.3187475e+00
 -1.2849146e+00
  2.4648430e+00
  1.0872069e-01
 -2.7643533e+00
  2.1606181e+00
 -2.0162725e+00
 -1.8922229e-01
  4.5414346e-01
 -6.9151586e-01
 -3.1760027e+00
 -1.7559191e+00
 -2.6728268e+00
  4.0039921e-01
 -6.8654299e-02
  8.1901217e-01
 -2.0563262e+00
 -9.7516614e-01
 -3.7232716e+00
  4.5560994e+00
 -5.9663016e-01
  2.6286037e+00
  2.8101921e-01
  1.5652291e+00
  2.0834093e+00
 -6.8785089e-01
  3.4122092e-01
 -1.0682002e+00
 -1.9102305e-01
  1.8529860e+00
 -1.2316214e+00
  4.9193537e-01
 -1.2851725e+00
  2.6097040e+00
  7.8853720e-01
  8.2518804e-01
 -4.0181623e+00
 -5.6281382e-01
  2.7543824e+00
  1.2847970e+00
  4.7753400e-01
 -6.0193253e-01
  1.1938163e+00
 -1.3816149e+00
  2.0170693e+00
 -3.4266267e+00
  8.7408334e-01
 -2.4200685e-01
 -1.0054070e+00
  1.7920053e-01
 -1.6979079e+00
  8.5010850e-01
 -9.5441586e-01
 -6.4243764e-01
  1.8467333e+00
 -3.2335567e+00
 -4.2988876e-01
 -2.3975887e+00
 -2.8637681e+00
  6.2275302e-01
  2.6539776e-01
  1.0947102e+00
  2.4531479e+00
  7.4759465e-01
  4.4540215e+00
 -1.6194201e-01
 -2.1616856e-02
 -1.1722202e+00
  3.7869461e-02
  7.1843824e+00
  2.1715913e+00
  6.5712303e-02
  9.1494757e-01
 -4.0005997e-01
  1.0959922e+00
 -3.3727708e-01
  1.8289952e+00
 -1.0351601e+00
  2.4772902e-01
  9.1562659e-01
  1.4037861e-01
  3.3586219e-01
 -2.4057974e-01
  2.7418327e+00
  1.2298685e+00
  4.6860412e-01
  1.1401803e+00
  5.8119190e-01
 -2.3427892e-01
  4.2728029e-02
  3.4027192e-01
  1.1446385e+00
  1.0508624e-01
 -2.9938301e-01
  1.2129793e+00
 -1.7465578e-01
 -1.5225259e+00
 -4.1045299e+00
  9.6914031e-02
  2.9291582e-01
  2.4552898e+00
  2.5538220e+00
  1.9125405e-01
 -9.8550260e-01
 -8.3151385e-02
  1.4405044e+00
 -2.1703861e+00
 -1.7432482e+00
 -1.2373476e+00
 -1.7865884e-01
 -7.8729731e-01
  5.3751340e+00
 -3.1887650e+00
  2.4888146e+00
  5.6263725e-03
  2.2823894e-01
  2.9658606e+00
  5.6665626e+00
 -4.2751555e+00
 -2.2134328e+00
 -3.7046853e-02
  6.0483384e-01
  6.0061073e-01
 -1.3247050e-01
  9.2298768e-02
 -1.0036851e+00
  2.5117207e-01
 -1.6232269e-01
 -1.9957721e-01
 -1.2408928e+00
  1.8691900e+00
 -3.4679160e+00
 -1.2214749e+00
  4.1882145e-01
 -1.1410125e+00
 -4.0376267e+00
 -2.1537395e+00
  8.9132339e-01
 -3.2879837e+00
 -4.3364201e+00
  5.1322833e-02
 -7.0356727e-01
 -3.8115919e-01
 -3.9920495e+00
  6.5667766e-01
  1.3501954e+00
 -3.6514959e-01
 -5.2961379e-01
 -7.9319042e-01
 -4.0111380e+00
  8.6955541e-01
  1.5845335e+00
  1.3963884e+00
 -1.9068596e+00
  8.4612250e-01
 -3.1136370e-01
  4.1125145e+00
 -1.7523746e+00
  6.6882318e-01
 -1.1507680e-02
 -3.5091693e+00
 -9.6971703e-01
 -7.5495028e-01
  2.0146844e+00
 -2.5561590e+00
  1.2199764e+00
 -1.1700784e-01
 -2.8842357e-01
 -1.3337343e+00
  5.6691203e-02
  3.9136942e-02
 -2.2361460e-01
 -1.1158888e-01
 -5.5258047e-02
  2.1264933e-01
 -2.4714413e+00
  1.2995663e+00
 -8.8377476e-01
 -2.8346610e-01
  3.1168476e-01
  2.4947906e-01
  9.0255126e-02
 -4.8236135e-01
 -3.4384999e-01
 -1.7166546e-01
 -6.7495316e-04
  8.5980242e-01
 -7.2098130e-01
  2.3926094e-01
 -3.1719333e-01
  1.4213279e-01
 -1.3071276e+00
 -2.6524311e-01
  2.5786054e-01
 -2.1832554e-01
  1.7651919e+00
 -2.8910643e-01
  1.4146240e+00
  5.8094722e-01
 -1.1351533e+00
  9.8572768e-02
 -7.1163024e-03
 -3.7126684e-01
 -2.9115766e-01
  4.4446295e-01
  4.8480809e-01
 -1.7333472e-01
  9.8738992e-01
  1.0600375e+00
 -1.5420692e+00
 -5.2542094e-02
 -2.7554104e-01
  2.4792437e-01
 -1.9645537e-01
  5.5622174e-03
  2.8879011e+00
 -4.3437091e-01
 -1.8390518e-02
 -4.2880747e-01
  1.2208805e+00
  2.2970853e+00
 -7.7662259e-01
  1.1559658e-01
  1.1131301e+00
  2.2711399e+00
  1.2643098e+00
 -4.5930034e-01
  2.2811285e-01
  6.8736565e-01
 -1.3137920e-01
  1.0809053e-02
  9.8292941e-01
 -2.2201595e+00
 -2.2959154e+00
  2.5894159e-01
 -3.3218915e+00
 -1.7796510e+00
 -2.6376047e+00
  1.2544030e-01
 -4.0214226e-01
 -1.6034373e+00
  1.2898040e-01
 -1.2421738e+00
  4.7317415e-01
  6.8433714e-01
  6.6814172e-01
 -1.8201566e-01
  7.4145664e-03
  8.9236981e-01
  3.9701600e+00
  1.1274675e-01
  6.9114584e-01
  3.9640829e-01
 -8.8277715e-01
 -4.2592537e-01
  2.1026087e-01
 -6.5863989e-02
 -1.8712046e-02
 -1.2611917e+00
  6.2969911e-01
 -3.8033107e-01
  1.2488384e-02
  4.2874652e-01
  3.5221260e-02
 -3.9958932e-02
  1.6796605e-01
 -6.0045826e-01
  5.9998941e-01
 -6.1856073e-01
 -2.0935608e-01
  2.3080628e+00
 -1.5044942e-01
 -1.0713980e-01
  1.1349108e+00
 -4.9814942e-01
  1.1533508e-01
  9.8175660e-02
 -4.3445611e-01
 -9.6431547e-01
  3.2541594e-01
  2.1534079e-01
 -1.5468971e+00
 -1.5686083e-01
 -1.0529481e-02
 -1.1351391e-01
  1.3864446e+00
 -2.3401062e-01
  1.6992935e+00
  1.0604773e+00
  7.4880295e-02
  5.9342420e-01
 -3.8586357e-01
 -3.2224506e-01
  1.0608602e-01
 -1.4923301e+00
  1.2891623e-02
 -3.2332230e-01
 -2.5270894e+00
  6.0077119e-01
  6.1631393e-01
 -2.5111353e-01
 -9.7534782e-01
  1.8707463e-01
 -9.7051162e-01
 -1.4873175e-01
 -1.5222594e+00
 -3.8293910e-01
 -5.0352043e-01
 -4.3520543e-01
  2.8540221e-01
  2.0882903e-02
  9.9456869e-02
 -1.4912809e-01
  3.7944937e-01
 -2.5211029e+00
  1.8605398e+00
  1.6678018e-02
  2.1611568e-01
  6.7096794e-01
  2.4328357e-01
 -2.9143596e-02
  4.6264930e+00
  2.5992761e+00
 -1.8238983e+00
 -2.7451569e-01
  2.2613724e-01
  7.6358384e-01
 -5.1903003e-01
 -1.4589746e+00
 -8.3895283e+00
  3.2008737e-01
  3.1734970e-01
  5.9296978e-01
  2.2635727e+00
 -4.4611048e-02
  6.3949931e-01
 -1.7966446e+00
 -7.8274870e-01
  1.7095277e-01
  2.0773715e-01
  2.1078696e+00
  1.8015053e+00
  3.2846746e-01
  2.3944464e+00
 -2.2851131e+00
 -6.3836880e-02
 -4.3104422e-01
 -2.6304618e-01
  4.6864748e-02
  8.8398564e-01
 -3.8251504e-01
  5.5931652e-01
  3.1156647e+00
  1.7242018e+00
  2.7638084e-01
 -2.5348771e-01
 -1.2000860e-01
  1.3820618e-01
 -7.1601546e-01
  3.8918161e-01
  1.6203547e-01
 -5.6390470e-01
 -1.4129281e-01
 -9.1805154e-01
 -1.3372928e+00
  2.2541535e-01
  1.5447041e-01
 -5.4811621e-01
 -1.2696989e-01
 -4.9954817e-01
  1.3550864e-01
 -6.6618299e-01
 -4.8968896e-02
  3.2279032e-01
 -1.9888866e-01
 -7.5954296e-02
 -6.8827397e-01
  2.9710299e-01
 -8.3520100e-02
  3.4069905e-01
 -7.0492774e-01
 -1.1720607e+00
  3.7865198e-01
  3.0053633e-01
  1.3205951e+00
  3.1213886e-01
 -7.2080167e-03
  3.5616854e-01
 -5.1679301e-01
  3.2994670e-01
  2.6306775e-01
 -9.4226720e-03
 -3.7149566e-03
  1.3466592e-01
 -8.5289367e-02
 -3.7986895e-01
  5.3028662e-02
 -7.1708977e-01
 -7.1991578e-02
 -1.6806518e+00
  4.2172012e-01
 -1.9957384e-01
  1.7455445e-01
  1.1842456e-01
 -1.9333420e+00
  9.5200330e-01
 -2.5069216e-01
  6.6694421e-01
  7.7436787e-01
 -1.0886291e-01
  1.4103714e-01
 -5.0095588e-01
  2.0524199e+00
  6.9514877e-01
 -2.8069481e-01
  3.0892646e-01
 -8.6271816e-01
  3.5448110e-01
 -5.5790430e-01
  3.5092406e+00
 -1.0139133e-02
  5.6490794e-02
  1.2941271e+00
  1.3948109e+00
  1.0872083e+00
 -2.1575391e+00
  4.6344018e-01
  2.1493620e-01
  1.4315765e-01
  3.4970340e-01
 -5.4651397e-01
 -1.7959744e-01
 -1.0799652e+00
 -9.2918503e-01
  3.9503130e-01
 -6.6231680e-03
 -4.2220924e-02
  1.7848851e-01
 -1.0218877e+00
  2.2045162e+00
 -2.2174682e-01
  4.7991145e-02
  2.6197329e-01
  5.3664124e-01
  1.5781401e-01
  4.7706601e-01
 -9.0148374e-02
 -6.7697603e-01
  6.7011636e-01
 -2.0792898e-02
 -6.5609634e-02
  3.0761382e-01
  9.9212363e-02
  2.9385565e-02
 -2.6178112e+00
  2.3143899e+00
  4.6396480e+00
 -2.5097358e+00
 -5.3264868e-01
 -8.7507892e-01
  1.2413357e+00
  1.9827365e+00
 -2.5673503e-01
 -1.3394898e+00
  6.5728545e-01
  2.1859205e+00
 -1.0815629e+00
  9.5801540e-02
  1.5244236e+00
 -1.4981339e-02
  1.6372517e+00
 -3.9411619e+00
  1.5015467e-01
 -1.7226914e+00
  3.3941731e+00
  1.3141363e+00
 -8.3908892e-01
 -1.5782671e+00
 -1.1642208e-01
 -8.8593256e-01
 -1.5463685e+00
  8.5765940e-01
 -4.0749335e-01
 -1.9933562e+00
  1.5430154e+00
 -1.0608461e+00
  8.8489014e-01
  2.7965653e+00
 -9.4033277e-01
 -2.5737960e+00
 -1.0318869e+00
 -1.5701009e-01
  4.3974938e-03
 -3.7670007e+00
  9.1827476e-01
  2.3034509e-01
  7.0808059e-01
  1.2857313e-01
  1.9013977e-01
 -5.6384271e-01
  6.8212878e-03
  4.3077639e-01
 -2.9130170e+00
 -1.5091165e+00
  1.1034508e+00
 -1.6135873e+00
 -6.0640392e+00
 -7.7240342e-01
 -7.0355505e-01
 -2.4108291e+00
  9.7917505e-02
 -7.1044725e-01
  7.5215816e-01
 -7.2766805e-01
  8.2962096e-01
  5.4382396e+00
  6.3293347e+00
 -6.4513433e-01
 -2.3391032e+00
 -5.0976151e-01
 -3.0211374e-01
  2.2145589e-01
 -7.2500622e-01
  1.6942743e+00
 -1.4716362e+00
 -1.4615335e+00
 -3.5732612e-01
  5.2343374e-01
  5.3849816e+00
 -9.5326155e-01
 -5.5837739e-01
  4.6367967e-01
 -2.5420208e+00
 -3.0964398e-01
 -6.1663651e-01
  6.4385619e+00
 -2.6719890e+00
  1.4189030e+00
 -4.8447335e-01
  5.1983666e+00
 -7.2947603e-01
  4.3398876e+00
 -1.1733902e+00
 -1.6724370e+00
  1.4159415e+00
 -3.7949000e-02
  3.8925169e+00
  2.9553702e-01
 -1.1818018e+00
 -4.3948665e+00
 -1.1360158e+00
  5.2294606e-01
 -6.7963898e-01
 -1.0500933e+00
 -2.0010061e+00
 -5.6099796e-01
 -1.2160175e+00
  1.0355299e+00
 -4.0731025e+00
  1.7735467e+00
 -7.7808106e-01
  2.5808124e-03
  1.4611295e+00
 -6.4685583e-01
 -6.1270609e+00
  8.1456888e-01
 -1.6347029e+00
 -5.3392309e-01
 -2.9392469e-01
  5.1160872e-01
 -1.1418309e+00
  3.1229943e-01
  6.0760534e-01
 -1.2827857e+00
 -6.4349473e-01
  1.6725113e+00
  3.0859370e+00
  1.0732225e+00
  7.9642290e-01
  7.2245806e-01
  1.0071318e+00
  9.2490774e-01
  6.1716825e-01
 -1.9777098e+00
 -1.3408709e+00
 -6.5451968e-01
  1.4145303e+00
  4.4507618e+00
  1.9255880e+00
 -1.6345283e-01
  1.5003316e+00
  2.9396904e-01
 -4.8819494e-01
 -7.7813305e-02
 -5.1033974e-01
 -3.8134766e-01
 -2.0083301e+00
  1.2123801e-01
 -5.5666161e-01
  2.5967214e-01
 -1.4768475e+00
  1.3281188e+00
 -2.7801380e+00
 -3.1009874e-01
 -1.5617744e+00
 -2.4721980e+00
 -8.2527888e-01
  6.9855267e-01
  8.6844993e-01
  5.0053233e-01
  9.3970633e-01
 -4.0359354e-01
  1.9531587e+00
 -7.4132764e-01
  2.9429147e-01
 -3.2460558e-01
  4.7749791e-01
 -8.5152650e-01
  1.2816123e+00
 -5.7015371e-01
  2.4302953e-01
 -1.5697954e+00
 -3.7423739e-01
  1.4386567e+00
 -4.8696136e-01
  6.9556642e-01
 -1.6090282e+00
 -3.1072769e-01
  1.1603101e+00
 -1.2053336e+00
  3.2065282e+00
 -4.2759390e+00
 -1.8558946e+00
  5.0750631e-03
  3.6466129e+00
  2.2350280e+00
 -1.6439213e+00
  8.2046694e-01
  1.0931803e+00
  5.7415694e-01
 -6.6757506e-01
 -6.5257567e-01
  1.1572361e+00
 -1.4874429e-01
 -1.1079992e+00
  3.3965620e-01
  2.1234037e-01
 -4.7437879e-01
 -7.4590188e-01
  1.7379665e+00
  2.5363123e-02
  3.1507662e-01
  3.7066567e-01
  6.3232027e-02
 -5.5150098e-01
 -4.0145802e+00
 -9.1940010e-01
  7.3985302e-01
 -2.1657948e-01
 -5.1540112e-01
 -6.6777587e-01
  4.2161423e-01
 -1.1302069e+00
  1.1059012e+00
 -2.4877442e-01
 -1.3608189e+00
 -3.2941806e-01
 -7.0114505e-01
  8.6293077e-01
  5.7779789e-01
  5.6951225e-01
 -6.4394265e-01
 -6.1486584e-01
  7.8182049e-02
 -7.9127055e-01
  5.1772815e-01
 -7.0945197e-01
  9.3762225e-01
  1.8046172e+00
  7.3353815e-01
 -4.3589720e-01
 -4.5361197e-01
  1.4929706e+00
 -1.9421335e-01
 -2.7104336e-01
 -1.5283675e+00
 -1.6866043e+00
 -2.3861339e-02
 -1.7440984e-02
  8.3164901e-01
 -3.8505921e-01
  8.3682996e-01
 -3.4430518e+00
  7.8852308e-01
  4.2464358e-01
  3.5935572e-01
  1.0667760e+00
 -1.2786092e+00
  2.1365912e-01
 -5.0200872e+00
  4.8995087e-01
  1.7512406e-01
 -1.7358519e+00
  1.3586885e-01
  3.0230874e-01
  1.2224640e+00
  5.1425475e-01
  1.4276756e-01
 -2.9733098e+00
 -4.0027776e+00
  1.6905484e+00
  3.8205531e+00
 -8.8878259e-02
  1.8332191e+00
 -1.4077568e+00
 -2.4198227e-01
  1.3526627e-01
 -9.1350168e-01
  9.3988103e-01
  4.2129618e-01
  3.5931605e-01
 -4.3437177e-01
 -1.4558837e+00
 -3.3037740e-01
  2.0954511e+00
 -3.5239843e-01
 -1.1614136e+00
 -1.9940550e+00
 -2.1361987e-01
 -1.4475406e+00
  1.1384797e-02
  8.6055541e-01
  1.7672051e-01
  9.6948630e-01
 -6.5262389e-01
  3.9840978e-01
 -5.0578701e-01
 -1.3447679e+00
 -5.5075145e-01
  1.2540464e-01
  3.6746519e+00
 -1.8972257e-01
 -8.8864975e-02
  1.5875749e-01
  6.0551089e-01
 -2.1648557e-01
 -1.0438900e+00
 -9.2980045e-01
 -9.2088330e-01
  7.4860322e-01
  7.7890891e-01
 -6.5416348e-01
 -4.7856739e-01
 -2.6955183e+00
  3.9683804e-02
 -3.9732013e-02
 -1.1752141e+00
 -1.3658875e+00
 -1.9915180e-01
  1.2549629e+00
  1.8689718e+00
  3.8000539e-02
 -6.3646513e-01
  5.3924614e-01
 -9.2053056e-02
 -4.6741106e-03
  1.6482834e+00
  7.1179658e-01
 -3.9455572e-01
  5.0116632e-02
  3.2874006e-01
 -5.3510678e-01
  1.7307469e+00
  8.8135451e-01
 -1.0416383e+00
 -3.6318165e-01
 -2.4296701e-01
 -2.0841868e+00
  1.3398252e+00
 -2.4164379e-01
 -4.1443235e-01
 -3.3794060e-01
  8.3190548e-01
  2.0881307e+00
 -2.1378839e+00
  2.6118910e-01
 -7.4977137e-02
  4.4580158e-02
 -4.5666937e-02
 -1.4895669e-01
 -2.1937114e-01
  1.0186867e-01
 -1.7060151e+00
  1.1653005e+00
  5.3848320e-01
  2.5263362e+00
 -8.9320374e-01
 -1.2775506e+00
  7.3023772e-01
  5.4438692e-02
  1.0314828e+00
 -6.8627834e-01
  1.8639696e-01
 -6.5556383e-01
  1.0171492e+00
 -9.2127645e-01
  1.0739197e+00
  9.1129102e-02
 -9.5532423e-01
  8.6673772e-01
 -6.5742946e-01
 -6.2508303e-01
 -4.0203264e-01
 -2.6776874e-01
  7.8028220e-01
  7.3713344e-01
  9.3102843e-01
 -1.7146586e-01
  6.6920608e-01
 -1.4200570e-01
 -4.0842581e-01
 -9.9620241e-01
 -2.0872118e-01
  7.1278203e-01
 -5.9197295e-01
 -8.0151337e-01
 -2.3225322e-01
  1.1167593e+00
  3.4509313e-01
  9.5700872e-01
 -2.8551564e-01
  1.2276151e+00
 -1.8348375e-01
  3.8898524e-02
 -3.2466316e-01
 -2.2372714e-01
  1.1252664e+00
  8.4478694e-01
  6.0936540e-01
  1.5572013e+00
  6.4280307e-01
  4.4971049e-01
 -1.8378185e-01
 -9.7734869e-01
 -8.6987811e-01
 -1.0315263e+00
  8.6278522e-01
 -2.2853701e-01
  8.8790484e-02
  3.4476835e-01
  7.2479492e-01
 -8.7499535e-01
 -5.2715027e-01
 -6.8971741e-01
  4.5665345e-01
 -6.4040370e-02
 -6.4310122e-01
 -6.3182580e-01
  1.8605456e-01
 -3.9135680e-01
  6.9261193e-01
 -4.5063952e-01
 -4.2287466e-01
 -7.8893042e-01
  1.0417733e+00
 -8.1893051e-01
  8.6964530e-01
 -1.2071991e+00
 -7.6868790e-01
 -7.3652649e-01
 -2.0002284e+00
  1.4111593e-01
  7.3577619e-01
 -7.5580847e-01
  1.4547517e+00
 -7.2334385e-01
  1.5188993e+00
 -9.4788855e-01
 -4.7600377e-01
 -6.8252301e-01
  8.0210096e-01
  9.2315510e-02
  7.0732492e-01
  1.7216195e+00
  1.3999799e+00
  1.0251940e+00
 -1.1766187e+00
  4.0278256e-01
  1.6851079e-01
 -1.7325133e+00
  8.7650675e-01
  3.5155144e-01
 -1.7678014e+00
 -9.3809909e-01
  1.0364480e+00
  6.1642098e-01
 -1.0043314e+00
  6.6291040e-01
 -7.8997427e-01
  1.0726777e+00
 -1.3710246e+00
 -6.9651473e-01
  1.3275056e+00
  1.2594585e-01
 -5.2435350e-01
 -7.4932986e-01
 -9.4844228e-01
  1.3314788e+00
  1.0358339e-01
  2.7008513e-01
 -5.0536776e-01
 -1.1244980e+00
 -8.6825281e-01
  3.9022821e-01
  5.1789489e-02
  5.1789489e-02
  5.1789489e-02
  5.1789489e-02
  5.1789489e-02
  6.9526881e-02
  6.9526881e-02
  6.9526881e-02
  6.9526881e-02
  6.9526881e-02
  6.9526881e-02
  6.9526881e-02
  2.8075431e-02
  2.8075431e-02
  2.8075431e-02
  2.8075431e-02
  2.8075431e-02
  2.8075431e-02
  2.8075431e-02
  2.9735988e-02
  2.9735988e-02
  2.9735988e-02
  2.9735988e-02
  2.9735988e-02
  2.9735988e-02
  2.9735988e-02
  4.2197458e-02
  4.2197458e-02
  4.2197458e-02
  4.2197458e-02
  4.2197458e-02
  4.2197458e-02
  4.2197458e-02
  1.4777824e-02
  1.4777824e-02
  1.4777824e-02
  1.4777824e-02
  1.4777824e-02
  1.4777824e-02
  1.4777824e-02
  6.8237162e-03
  6.8237162e-03
  6.8237162e-03
  6.8237162e-03
  6.8237162e-03
  6.8237162e-03
  6.8237162e-03
