nep3 1 C 
cutoff 8 4 59 21
n_max 4 6
basis_size 10 8
l_max 4 2 1
ANN 100 0
 -1.9469876e+00
  7.2434026e-01
 -3.0998364e-01
 -7.5408596e-01
 -5.6136511e-02
  1.2173815e-02
 -8.3220029e-01
 -1.3718735e+00
 -2.0563638e-01
  8.6840028e-01
  1.4924695e+00
  8.7026942e-01
  8.6718595e-01
 -1.1128598e+00
 -2.0604481e-01
 -1.0721816e-01
 -1.8513467e+00
  9.3142003e-01
  8.3716685e-01
  1.1769964e+00
 -3.9113161e-01
 -3.1374875e-01
  1.0179436e+00
 -7.2913396e-01
 -1.9183793e+00
 -1.8014970e-01
 -6.0745847e-01
  2.3489261e+00
  3.4050912e-01
 -5.8989745e-01
 -8.5672033e-01
 -3.0128884e-01
  7.4290681e-01
 -4.7291884e-01
  5.5213732e-01
  4.4463772e-01
 -6.2631942e-02
 -2.1701477e+00
 -9.9739365e-02
  2.1846147e+00
  2.0608482e-01
 -8.9365896e-03
  2.2390327e+00
  4.4163549e-01
 -7.7859575e-01
  1.8899061e-01
 -2.0504731e-01
 -6.2369168e-01
  1.3404015e+00
 -2.1728005e+00
  6.7364609e-01
  4.5667037e-01
  5.6313038e-01
 -6.1434281e-01
  2.8245177e+00
  6.8301326e-01
 -6.0881156e-01
 -5.9978217e-01
  2.9775014e+00
 -1.3235766e-02
  3.5077101e-01
 -3.9345002e-01
  1.9153913e+00
  1.5696400e+00
  7.3473108e-01
  1.2018124e-01
 -1.6802695e-01
 -2.9077870e-01
 -9.3796015e-01
 -1.2313201e+00
  7.1555281e-01
  1.2895868e+00
 -8.2632524e-01
  2.3010681e+00
  2.3745449e+00
 -5.1577181e-01
  4.3419734e-01
  5.4977655e-01
 -1.3371931e+00
 -8.8462704e-01
  1.4787376e+00
 -2.5725093e-01
  2.9635222e+00
  2.3607969e+00
  2.6052085e-01
  9.2809671e-01
  2.9667535e+00
 -2.3148494e+00
 -6.7616600e-01
  1.1223854e+00
  5.2126569e-01
  6.3291204e-01
  3.6238238e-02
 -3.6453575e-02
 -1.7875600e+00
  3.4766331e-01
  1.3610461e-01
  1.3815058e+00
 -3.8356015e-01
  6.6461325e-01
 -1.9615004e+00
  3.3892608e-01
 -6.7355937e-01
 -1.7065911e+00
  4.9634567e-01
 -4.3429238e-01
 -2.0379351e-01
 -1.2418797e+00
 -3.1245092e-01
 -9.6072334e-01
 -2.3223426e+00
  2.2423644e-01
  2.1958205e-01
 -6.6848761e-01
  1.0804311e-01
  1.0478169e+00
 -8.1854439e-01
  5.1025087e-01
 -9.7731394e-01
 -9.5517093e-01
 -1.4258308e+00
  1.9021519e+00
  8.7850386e-01
 -3.7783545e-01
  8.7201267e-01
 -3.1057969e-02
 -1.1646861e+00
  6.9493926e-01
  3.9150313e-01
  9.4284862e-01
  4.0854255e-04
 -1.9427056e+00
 -1.0991719e+00
  2.5031734e-01
 -9.9112362e-02
 -2.3092617e-01
 -6.4985633e-01
 -4.3529135e-01
 -1.7108011e-01
 -2.6291823e-01
 -1.3390630e+00
  2.7301021e+00
  5.0133914e-01
 -1.5220004e+00
  6.0370362e-01
 -4.6891253e-02
  6.8049058e-02
  4.3045964e+00
 -2.0879838e+00
 -1.7634676e+00
 -1.7799071e+00
  3.5353816e+00
 -1.3805765e+00
  6.8684989e-01
 -9.8763007e-01
 -1.7870563e-01
 -7.6878428e-01
  2.5537285e-01
  2.8634623e-01
  9.9122125e-01
 -2.2365947e-01
 -4.9799219e-01
  3.7962856e+00
  7.5258695e-02
  1.5980921e+00
 -8.7671109e-02
 -2.4290848e-01
 -3.3891175e+00
 -2.0182262e-01
 -6.2571931e-01
 -1.0717870e+00
  2.4227552e+00
 -1.0536880e+00
  1.5545342e+00
 -6.6355389e-01
 -2.1559620e-01
  3.4843750e-02
 -9.7485542e-01
 -7.6582056e-01
 -3.7538666e-01
 -1.8413754e+00
 -8.0957089e-04
  1.4633819e-01
  7.6203473e-02
 -6.4924800e-01
 -5.5274105e-01
  2.1912457e-01
 -2.0784998e+00
  4.1203094e-01
  6.2197906e-01
 -1.0052179e+00
  5.6569666e-01
 -9.6222126e-01
  3.8492653e-01
 -1.4410180e+00
  1.9911383e+00
 -2.1906643e+00
 -4.0971944e-01
  9.9422860e-01
 -1.1512994e+00
 -8.7681299e-01
  5.4451764e-01
 -1.7803924e+00
 -1.6227645e+00
 -6.2241215e-01
 -1.3983938e+00
  1.8422468e+00
 -2.9331568e-01
 -4.9416068e-01
 -9.4795448e-01
 -1.5083673e+00
  1.4643934e+00
 -2.0070734e+00
 -1.1856779e+00
  1.3876998e+00
 -7.0054334e-01
 -6.1808425e-01
 -1.0342888e+00
  1.0954533e-01
 -1.1629082e+00
  5.2972460e-01
 -3.5169503e-01
 -6.5782368e-01
  1.0597731e+00
 -6.4896303e-01
  2.4590077e+00
  8.0051666e-01
  1.6456064e+00
  6.3769364e-01
  4.6329206e-01
 -7.2874421e-01
 -3.3818910e-01
  1.6314164e-01
 -3.8593233e-02
 -1.7391965e+00
 -7.7018785e-01
  3.9878130e-01
 -1.1873454e+00
 -2.7001801e-01
 -1.3698019e+00
 -3.3062211e-01
 -1.2169836e+00
 -1.2807884e+00
  1.9830792e+00
 -6.0273945e-01
  3.7923004e-02
 -4.0554798e-01
 -3.1984240e-01
  3.6044536e+00
 -7.2200948e-01
  1.2729664e+00
 -6.6312653e-01
 -1.5924928e+00
 -1.2456253e+00
  9.9271363e-01
 -6.3965583e-01
 -3.3200533e+00
 -7.1994483e-02
 -1.6464823e+00
  1.2019550e+00
 -1.2406542e+00
  1.3395901e+00
  6.5112817e-01
 -2.7385795e-01
 -8.2299151e-02
 -4.6690183e+00
  3.3909202e+00
  1.0819301e-01
  1.7145269e+00
  2.6519367e-01
 -7.4232042e-01
  1.8041292e+00
  2.5844510e+00
 -6.0978997e-01
  7.9171181e-01
  3.6593762e-01
 -5.2083373e-01
 -3.4150984e+00
 -8.0924404e-01
 -4.6667409e-01
 -2.3494788e-01
  4.4056636e-01
  1.5781938e-01
  8.3646959e-01
 -3.9223883e-01
 -2.3773907e-02
  1.6488124e-01
  1.8101979e+00
  3.2003754e-01
 -1.6666497e+00
  1.6863519e-01
 -4.0736997e-01
 -2.2295945e+00
 -1.3771113e+00
  1.1465950e+00
  4.9995336e-01
  1.2285768e+00
  4.0862662e-01
 -3.4643683e-01
 -1.3731331e+00
 -3.3895217e-02
 -7.5051647e-01
  2.8152583e-02
  1.3954372e+00
  2.3702979e-01
  3.0270496e-01
  5.0813198e-01
  2.3703881e-02
 -2.0963922e+00
  6.1727893e-01
 -4.7775108e-01
  8.0186260e-01
 -2.9541647e-01
 -6.3768309e-01
 -1.4865942e+00
  8.6999178e-01
  6.1337876e-01
  5.1617384e-01
 -5.1069391e-01
 -7.2794899e-02
  2.8125623e-01
 -6.5407902e-01
 -4.4373867e-01
 -5.7842847e-02
 -6.3708138e+00
 -1.3170373e+00
 -6.2624496e-01
  4.7620195e-01
 -4.4642657e-01
  5.4727942e-01
 -6.7564780e-03
  6.9368947e-01
  2.0665720e-01
 -3.3625832e-01
 -1.5019909e+00
 -5.7425082e-01
 -1.9909966e-01
 -4.5106828e-01
 -1.2035271e-01
  1.8163555e+00
  9.4368190e-02
 -8.8258970e-01
  2.5957723e+00
 -8.0569893e-01
  2.8500111e+00
  3.4849006e-01
  4.8248217e-01
 -6.2765622e-01
  3.8708454e-01
 -6.6482735e-01
 -5.1588297e-01
 -2.2436602e+00
  2.4986990e-01
 -7.7859002e-01
  7.7802837e-01
 -4.2860526e-01
 -1.0006525e-01
  8.4407240e-01
  1.0833839e+00
  2.2295475e+00
  1.7685767e+00
 -9.3874884e-01
 -1.2928802e+00
  1.1226212e+00
  1.7332628e-01
  1.4040509e-02
 -9.6667314e-01
 -1.0256767e-01
  1.6830531e+00
 -2.2069085e-01
  2.7813852e-01
 -1.4567874e-01
  1.3312083e-01
  1.1142253e+00
 -1.1899020e-01
  1.6857719e-02
  1.3575649e+00
  1.0066252e+00
 -8.0755427e-02
 -1.9486094e+00
  4.7907078e-01
  6.5338142e-02
  1.2260534e+00
  4.9266508e-01
 -8.3206916e-01
  1.1976452e-01
  6.4903572e-02
 -6.2842682e-02
  1.8083996e-01
 -6.0327053e+00
 -3.3704281e-02
  6.4356662e-02
  1.3623457e-02
  6.7537630e-01
 -6.9514766e-02
  1.7210027e+00
  4.5924109e-01
 -9.6069002e-01
  7.0776510e-01
  2.8550258e-01
 -5.8153462e-01
  3.8378011e-02
  6.0720098e-01
  1.4111472e+00
  1.8262995e-02
 -8.6542882e-02
  4.0019467e-01
 -4.3115443e-01
  1.7009543e-01
  3.4414155e+00
  8.9687347e-02
  5.9302860e-01
 -7.9765844e-01
 -4.0541921e-02
 -3.5336363e-01
 -1.0659131e+00
 -5.5223867e-02
 -6.2939471e-01
 -1.7052281e-01
 -1.3325281e+00
 -3.4925386e-01
 -5.5989695e-01
  4.6011993e-01
 -3.7968183e-01
  3.5866013e-01
 -1.5008217e+00
  3.0634192e-01
 -1.1267836e+00
 -1.0655486e-01
 -3.1062703e+00
  2.2974639e-01
 -6.9524366e-01
  1.4740753e-03
  2.4653676e+00
 -2.4030192e+00
 -2.6352282e+00
 -3.7613733e+00
 -2.0711604e-01
 -2.5310161e+00
 -2.8185061e-01
  1.3405298e+00
 -8.3268665e-02
 -9.4165379e-01
 -4.9033058e-01
 -2.9656562e-01
 -4.3851674e-02
  1.2666166e+00
 -6.9734508e-01
 -6.1923397e-01
 -3.3820567e-01
 -4.6489993e-01
 -1.8852718e+00
  5.5341172e-01
  1.8342361e-01
  2.8022584e-01
 -1.3555129e+00
  2.4724753e+00
 -1.8575208e-02
  1.1898826e-02
 -1.0364791e+00
  5.9788978e-01
 -4.4851172e-01
  5.9224552e-01
  2.6901172e-02
 -6.7526624e-02
  4.5232425e+00
 -1.1785022e+00
  2.1915695e-01
  8.0081022e-01
  7.4637157e-01
 -8.9361179e-01
 -1.2803133e-01
 -8.0648792e-01
  1.4623230e+00
 -8.6535007e-01
  2.7591720e-01
 -1.2832823e+00
  4.5375800e-01
 -4.6664539e-01
 -7.3472685e-01
 -1.9050495e-01
 -1.7935039e-01
 -4.7963653e+00
 -1.5327841e+00
  6.2401718e-01
  8.4190428e-01
 -2.7790494e+00
 -4.3785065e-01
  1.3230325e-01
 -2.1537931e+00
 -1.1275713e+00
  2.3955095e-01
 -7.3607647e-01
 -2.7699760e-01
 -3.0425031e+00
  2.1246569e-01
 -1.0824958e+00
  1.8427466e+00
 -4.4615805e-01
  1.6544539e-01
 -3.9221819e-02
  1.1709812e+00
  1.6067468e-01
  1.3065293e+00
 -1.3125391e+00
 -1.4287125e+00
 -2.3334861e-01
 -9.1832513e-01
 -6.0941917e-01
  6.6147953e-01
  5.2396856e-02
 -3.0283964e-01
  4.6898700e-02
 -1.7476042e-01
  1.5651499e-01
 -1.6767658e-02
 -5.6061715e-01
  5.7828230e-01
 -6.7308217e-01
  5.0079141e-02
  1.8964733e-01
  4.4670638e-02
  1.7946093e-01
 -1.0758519e+00
 -3.6168867e-01
 -4.4518742e-01
  5.7606083e-01
  8.7044686e-01
 -8.4020203e-01
 -2.3081806e-01
 -3.0815333e-01
 -5.1445413e-01
  8.5483402e-02
 -3.8669538e-01
  2.0625317e+00
  9.5609593e-01
  1.5951189e+00
 -1.1608519e-01
 -6.9720559e-02
 -7.0013243e-01
 -5.7951093e-01
  2.4018985e-01
 -5.9722704e-01
 -5.3367966e-01
 -2.2787736e-01
  5.3540301e-01
 -1.7699859e-01
  2.4446431e-01
  6.3805491e-01
  7.1734108e-02
 -1.2861632e+00
 -8.1212211e-01
  1.3717295e-01
 -2.6889307e+00
  4.5905122e-01
  7.9546511e-02
  3.2484875e+00
  2.8390050e-01
 -9.2181814e-01
  6.6115212e-01
 -7.6061225e-01
  8.2461667e-01
  2.7442595e-01
 -3.4903404e-01
  1.4487290e-01
  1.5509026e-01
  3.9889550e-01
 -2.2671196e-01
 -1.4534526e+00
  1.5216175e-01
 -4.9366766e-01
 -2.1455529e+00
  3.1323720e-02
  1.7950977e-01
 -2.9594228e-01
  2.3174824e-02
 -4.5771316e-01
  2.9803053e-01
 -3.4495056e-01
  1.0650723e-03
  1.2988587e-02
  1.8050016e-01
  1.1522506e-02
 -1.4275283e-01
 -9.4497213e-03
 -1.2377728e-01
  1.9110233e-01
  2.2043323e-02
 -1.6675240e-01
 -6.2049735e-01
 -5.7016527e-03
 -7.6999152e-01
  1.2303046e-01
  2.5763622e-01
 -2.9258016e-01
 -5.4606616e-01
  2.7898300e-02
 -7.5037998e-01
  1.1684013e-01
  7.1073925e-01
 -3.6208838e-01
  8.9343643e-01
 -4.6970809e-01
 -3.1798583e-01
  2.7491292e-01
 -4.5302495e-02
 -3.8524568e-01
  1.2752227e-01
  4.3080747e-01
  6.1156284e-02
  3.1027195e-01
  4.0215951e-01
  1.1984107e+00
  1.3033025e+00
 -1.8912251e+00
 -9.2625672e-01
 -1.5102765e-01
  6.0818362e-01
 -2.4868226e+00
  2.3699796e+00
  3.8993910e-01
  1.4838892e+00
 -3.3865580e-01
  3.1942365e-01
  4.1823760e-01
 -7.6705217e-01
  1.5691676e+00
 -7.9148245e-01
  1.6162909e+00
  1.5989578e+00
 -4.3874341e-01
  8.1442893e-01
 -5.6734532e-01
  1.0810132e-01
  3.8941211e-01
 -3.9554495e-01
  2.3554640e-01
  9.6185255e-01
  5.6903604e-02
 -2.6680714e-02
  4.6969765e-01
  1.4001000e+00
 -1.4090301e-02
  7.1831185e-01
  1.3554618e+00
 -2.1472171e-02
  2.4685340e-01
  2.0463116e-01
 -1.0504900e+00
  3.8983333e-01
  9.3814749e-01
 -3.6543205e-01
  1.9512830e+00
  1.0686020e+00
 -1.8232791e-01
  3.3254316e-01
  1.6462007e-01
 -4.2953235e-01
 -1.3399035e+00
  1.3887017e+00
 -2.9593611e-01
 -4.1776839e-01
 -1.4370438e+00
 -1.0204015e+00
 -6.0831624e-01
  3.0831659e-01
  7.2869128e-01
  1.6614832e-01
  2.0899799e+00
 -2.0079527e+00
 -9.3636625e-02
  6.6727406e-01
  1.3812830e+00
 -4.3419984e-01
 -1.1153811e+00
  1.4842317e+00
  3.2023582e-01
  8.1614244e-01
  1.2021577e+00
 -2.1635575e+00
  5.2572775e-01
  9.1981834e-01
  7.1355987e-01
 -2.1065007e-01
  2.6911843e+00
 -3.0403572e-01
  3.3841707e-02
 -2.9283121e-01
  6.9157094e-01
  8.7219614e-01
  4.2317113e-01
 -2.8612630e+00
 -1.6367114e-01
 -8.1557983e-01
  2.0147850e-01
  1.1812722e-01
  1.2061317e-01
 -4.1051227e-01
 -4.5754179e-05
  2.2123333e-02
  4.3755388e-01
  1.1090367e-01
  2.2337499e-01
 -6.1640505e-02
  3.6973119e-01
  1.3470709e+00
  8.9560819e-01
  3.3584449e-01
 -4.6011114e-01
 -1.0195476e+00
 -5.1407421e-01
 -3.4269104e+00
 -8.1451690e-01
  3.5761920e-01
 -1.9850578e+00
 -1.0726408e-01
 -1.4663099e+00
  4.4739491e-01
  9.1229355e-01
 -6.7994988e-01
  4.3692309e-01
 -1.5377762e+00
  2.2785085e-01
  9.3349002e-02
  1.1462041e+00
  9.9519217e-01
  6.1973041e-01
  1.9921129e+00
 -2.7239788e-01
 -1.0052438e+00
  1.5781540e+00
 -3.5290715e-01
  9.8226905e-01
  7.1291608e-01
 -1.7509669e-01
 -3.5942988e+00
 -2.1713893e+00
 -9.5362377e-01
  2.3913777e+00
 -1.6185427e+00
  2.6803082e-01
  2.2565181e+00
  1.7320631e+00
 -1.6328589e+00
  1.1425959e+00
 -5.4885244e-01
  1.2513733e-01
  1.5528908e+00
 -9.5148124e-02
  1.2329823e-01
 -4.2569544e-03
 -6.5814996e-01
  8.1398243e-01
 -7.1059036e-01
  5.9370421e-02
  7.4812716e-01
 -7.8931957e-02
  1.8195094e+00
  3.7650627e-01
 -1.3781105e-01
 -1.4707386e-02
 -5.8893752e-01
  1.4591141e+00
 -5.1303810e-01
  2.8190118e-01
 -1.0970378e+00
 -8.2928413e-01
 -1.9947855e-01
 -7.9507542e-01
 -1.5097257e-01
  3.9593607e-01
 -7.2173524e-01
 -3.3764714e-01
  7.8051820e-02
 -9.6031690e-01
 -6.9898003e-01
 -9.5894897e-01
 -1.3586479e-03
 -1.6465329e-02
 -3.3330455e-01
  1.4153607e-02
  1.1049181e-01
  1.6248774e-02
 -1.1199774e-01
  3.8954416e-01
 -3.9132279e-01
  2.3779175e-01
 -1.6322063e-01
  1.5359378e+00
 -6.9227561e-02
 -1.6428510e+00
  9.0282649e-02
 -1.9101511e-01
 -2.3728229e-01
  3.4158814e-01
  2.2467771e-01
 -6.1859116e-03
  6.0805507e-02
  6.1120071e-02
 -3.7457043e-01
  9.7995538e-01
 -1.6623775e+00
  1.1545424e+00
 -7.3867869e-01
 -2.8271213e+00
 -4.1259151e+00
 -1.1493320e+00
 -3.8853866e-01
  8.8428956e-01
  4.5833856e-01
  5.0691187e-01
 -2.7477825e+00
  4.1210098e+00
  4.8066232e-01
  1.8477431e-01
  1.5835447e+00
  1.3361079e-01
  7.5062859e-01
 -4.3447092e-01
  1.3743209e+00
  4.5501611e-01
  1.6634619e-01
  3.2486972e-01
 -3.2882434e-01
 -2.0623820e+00
  1.0485530e+00
 -1.4080069e+00
 -5.4026097e-01
 -4.6846977e-01
 -1.3589054e-01
  4.5340635e-02
  1.0408217e-01
 -2.5763073e+00
  2.3964067e-01
  2.2845803e-01
  9.7730756e-02
 -8.3072472e-01
 -2.7741954e-02
 -2.6718187e-01
 -8.6879648e-02
 -1.6688605e-01
  6.3452953e-01
  4.7255579e-02
  6.9846612e-01
  1.4897121e+00
 -2.5551075e-01
 -1.0566069e+00
 -6.6370231e-01
 -2.5524182e-02
  1.1749398e+00
  4.0960500e-01
 -5.5351019e-01
  5.4935092e-01
  1.2315181e+00
 -6.3642156e-01
 -3.3377096e-02
 -1.7725385e+00
  1.6400323e+00
  8.2639897e-01
  3.4086472e-01
 -7.8596526e-01
 -1.9687852e+00
  1.8456788e-01
 -3.2004151e-01
  1.0125258e+00
 -1.9663978e+00
  1.6386594e+00
  1.5873152e+00
  4.6560606e-01
  1.0207444e-01
  8.9740616e-01
  2.1041863e-01
  1.1558748e+00
 -1.7825124e+00
 -5.8939505e-01
  1.5114361e-03
 -2.1485573e-01
  7.8885049e-01
  2.7003261e-01
 -1.9393018e-02
  2.4526140e-01
 -4.7785079e-01
 -2.5757504e-01
 -8.5441945e-03
  7.5581217e-01
  2.0844434e-01
 -4.3644756e-02
  1.4015954e-02
 -1.1033149e+00
 -1.4155827e+00
  5.4025477e-01
 -4.1814974e-01
 -8.6835707e-03
  6.8179257e-02
 -2.5824681e-01
 -1.2307795e-01
  1.2777368e+00
 -3.3737805e-01
  8.1458002e-02
 -3.2241747e-01
  7.5058013e-01
  3.7381262e-01
 -4.8280782e-03
  7.0949358e-01
  3.8453215e-01
  1.6344059e+00
 -2.5289953e-02
  1.5079418e-01
  5.6596404e-01
  8.0644988e-02
 -4.6633694e-02
 -1.5153636e-01
 -5.2282745e-01
  8.2069501e-02
 -3.2805294e-01
 -5.7319170e-01
 -7.3186111e-01
  6.0121715e-01
  2.7641650e-02
 -1.9391908e-01
  5.7203376e-01
 -7.4671783e-02
 -6.8997145e-02
 -3.5201395e-01
  3.1032929e-01
  4.4009116e-01
 -4.8221070e-02
  1.2134371e-01
 -3.6973080e-01
  7.5669773e-03
  9.2268415e-02
 -7.8449512e-01
  4.0825433e-01
 -7.9958871e-02
 -8.0164589e-02
 -9.1213453e-01
  5.5534323e-03
 -1.0672191e+00
 -2.9983458e-01
  8.4928203e-01
  5.7368040e-01
 -3.1947604e-01
 -8.6932868e-01
 -6.5171875e-02
  1.2275841e-01
  2.7617881e-01
  1.2166423e-01
  2.4595354e-01
 -1.9612333e-01
  3.0147141e-01
 -3.7322941e-01
  2.1517580e+00
  1.0290984e+00
  2.2065389e-01
  9.1835700e-02
  4.0639833e-01
  5.8709085e-01
  4.0773886e-01
  8.3236828e-02
 -5.6041354e-01
 -1.8500613e-01
  2.2711447e-01
 -2.0318979e-02
 -5.8851874e-01
 -3.0907124e-01
  8.9815062e-01
 -4.1914266e-01
 -1.5595660e+00
  1.6172590e-02
  1.7426986e-01
 -2.2276813e-01
  7.5747365e-01
  4.6133858e-01
 -1.4154348e-01
 -6.7318201e-01
 -1.3206640e-01
 -1.4301363e-01
 -1.3212466e+00
 -1.7568499e-02
 -6.6289186e-01
 -1.3031837e-02
  4.2747542e-01
 -3.2789748e-02
 -1.1156730e-01
 -1.0714306e-01
  5.1289785e-01
 -6.1376650e-02
 -1.1826501e+00
  7.8412616e-01
  2.5115471e+00
  1.7630061e+00
 -2.2851664e-01
  5.8399206e-03
  6.7892766e-01
 -5.1053959e-01
  1.9361919e+00
  6.7770076e-01
 -5.2249235e-01
  7.3600280e-01
 -1.1530221e-01
  4.3355486e-01
  3.8055431e-02
 -6.7879915e-01
 -6.4454295e-02
 -2.5803437e+00
  9.1622867e-02
 -1.2671043e-01
  1.3461753e+00
 -8.2506531e-01
 -2.4324560e+00
  6.5293419e-01
 -2.5413796e-01
 -3.3884604e+00
 -7.2137755e-01
  3.1475859e+00
 -1.7994356e-01
 -5.5204570e-01
  1.1728003e+00
 -1.9524124e+00
 -1.0517272e+00
 -3.7612617e-01
  4.9808419e-01
 -2.3902087e+00
  6.6251677e-01
  1.0779431e-01
 -3.1131807e-01
 -8.7016284e-02
 -1.0574588e-01
  3.2730147e-01
 -5.8304501e-01
  4.0189305e-01
 -1.4392921e-01
  3.3069320e-02
 -1.6899550e+00
  1.2110093e+00
  3.1012386e-01
 -3.5828072e-01
 -9.2688507e-01
 -1.6658765e+00
  6.8371582e-01
  5.4079044e-01
 -7.3842603e-01
 -4.0710645e+00
 -4.3921271e-01
  6.5514505e-01
  1.8796355e+00
  9.9630874e-01
 -2.8149435e-01
 -7.8507744e-02
 -9.4051182e-02
 -4.2835993e-01
  8.7189800e-01
 -7.7036947e-02
 -2.8026280e+00
  8.6614799e-01
  8.1542820e-01
 -1.9626807e+00
 -1.4307719e+00
 -2.9199765e+00
 -1.9598334e+00
  1.4693272e+00
  2.4080029e+00
  8.2994884e-01
  4.4048491e-01
 -3.4549292e-02
  9.8126453e-01
  1.4395331e+00
  1.8465942e+00
 -2.2491994e-03
  5.4805654e-01
 -1.0458175e+00
 -1.0994827e-01
  2.2039030e-01
  9.4369799e-01
 -5.8386171e-01
 -5.6839430e-01
 -1.2111478e-01
  4.6245095e-01
  1.9077086e-01
 -3.9178473e-01
  1.1261710e+00
 -1.2015083e+00
  8.9948410e-01
  5.0525284e-01
  6.7288443e-02
  6.5311611e-01
  1.0709028e+00
  2.5754428e+00
  2.4036388e+00
  1.9201448e+00
  2.0866594e+00
 -1.5054591e+00
  1.4834970e+00
  6.4148831e-01
  4.5419317e-02
 -3.8833943e-01
  5.5968380e-01
  2.3896921e+00
 -1.1115859e+00
 -1.4027521e-01
  5.2298081e-01
 -7.6359145e-02
  1.1047783e+00
  8.2333577e-01
  1.2431179e+00
  7.9212970e-01
 -1.4852318e-01
 -4.5305990e-02
  5.8842862e-01
  1.7471242e+00
  4.3658936e-01
 -5.0022703e-01
  1.5946019e+00
 -5.2409977e-01
  1.2229387e+00
 -1.4636337e-02
 -3.9998084e-02
 -1.0833267e+00
 -7.5538647e-01
  5.7164613e-02
  7.9727523e-02
  3.2364479e-01
  1.7248251e-01
  8.7841161e-02
 -3.5987899e-01
  8.3165877e-02
  5.2519596e-01
 -7.7249992e-01
  5.0505841e-01
  1.0850907e-01
 -5.4941022e-01
  2.7562276e-01
 -3.1432280e-01
 -1.4714884e+00
  1.6457812e-01
 -4.4740751e-02
  4.8081234e-01
  5.8321808e-02
  2.2222355e-01
  3.0437893e-01
  9.0388626e-02
  4.2648929e-01
  4.6417084e-02
 -5.6003157e-02
 -2.3086897e-01
 -1.2084830e-01
  3.0045658e-01
 -2.0423722e-01
 -1.2504883e-01
 -1.5163972e+00
  9.9483117e-02
  7.9105550e-01
  1.0797493e-01
  2.2767073e-02
 -2.5428700e-01
 -1.6593748e-01
  1.3311175e-01
 -1.5226293e+00
  1.1035130e-01
 -6.1047745e-01
  5.7018935e-03
 -6.7040938e-01
 -2.9862902e-01
  9.4231315e-02
  5.9417218e-01
 -3.8320148e-01
 -5.7246006e-01
  3.0835688e-01
 -4.0769178e-02
  1.2799077e-01
 -1.2887937e-01
 -2.4313626e-01
  2.0684963e-01
  2.2361617e-01
  3.7721798e-01
 -1.9669946e-01
 -7.8745580e-01
  5.5645800e-01
  1.6389263e+00
  9.3419772e-01
  8.0884248e-01
  2.9616782e-01
 -1.9118617e-01
 -1.0515113e+00
 -9.8314238e-01
 -1.8755219e+00
  1.9976889e+00
 -7.8646612e-01
 -2.4551862e-01
 -3.9650393e-01
 -1.4789975e-03
  1.7330343e-01
 -2.7160171e-01
 -2.6648982e+00
 -1.2354323e+00
  3.8559195e-01
  4.7818303e-01
 -2.1573939e+00
 -2.2403016e+00
  1.9278827e+00
  1.8586918e+00
  6.3460231e-02
  3.0698524e+00
  4.8797110e-01
  8.6454290e-01
 -6.9271976e-01
 -1.4421237e+00
 -2.3943901e+00
  1.7681289e+00
 -1.0628831e+00
 -2.2383109e-01
  7.5603169e-01
 -6.2025946e-02
 -6.1098780e-02
  3.0558792e-01
  1.4177373e-01
  1.3638587e-01
 -1.2584455e-01
 -5.1665944e-01
  2.2272703e-01
  4.5054084e-01
 -2.7900296e-01
 -1.1676304e+00
  1.6655123e+00
 -1.4563707e+00
 -1.7328966e-02
 -4.0186357e-01
  9.1112947e-01
 -3.0351527e+00
  6.5205950e-01
  1.4500369e-01
  4.4927177e-01
  2.7676609e-01
  2.6426023e-01
 -8.4822994e-01
  2.7224123e+00
 -4.8274512e+00
 -1.3309178e+00
 -5.0994581e-01
 -7.7397913e-01
 -2.4058242e+00
 -2.6409677e-01
  5.4315075e-02
 -1.9151007e+00
 -9.2499387e-01
 -2.1262841e+00
  1.5620785e+00
  2.0361354e+00
  1.6105815e+00
 -8.0043119e-01
 -5.2199221e-01
 -4.7904643e-01
  1.7562878e+00
  7.5778341e-01
  4.7487608e-01
  1.8356339e+00
 -5.5940604e-01
 -6.5486312e-01
 -5.4201357e-02
  5.2666080e-01
 -2.1806841e+00
  4.2552194e-01
  2.6416522e-01
 -4.6174213e-01
 -1.1391403e-01
 -1.2135729e+00
  8.7011531e-03
 -1.5123206e-01
  2.9985276e-01
  1.1093787e+00
  7.7467036e-01
  4.2515028e-01
 -6.7327768e-01
 -7.4026513e-01
 -1.9204142e+00
  1.5564597e+00
 -2.5745121e-01
  2.2376831e+00
 -1.5055262e+00
 -1.8406688e+00
 -4.8844403e-01
 -3.0201957e-01
 -1.8645675e-01
  4.9976200e-01
 -1.3635730e+00
 -2.3725157e+00
 -1.0490464e+00
  1.1621354e-01
  2.4251644e-01
  2.1595521e+00
 -1.1682926e+00
 -7.2959280e-01
 -8.7217510e-01
 -3.1510210e+00
  2.5360078e-01
  6.8574309e-01
  1.8062478e+00
  3.8761055e-01
 -2.5418147e-01
  5.3963900e-01
  1.2288396e+00
  1.3408385e-01
 -1.9203950e-01
 -5.7614028e-02
 -1.8738809e+00
 -4.1999689e-01
 -7.6295251e-01
  1.5920705e+00
 -1.6132222e+00
 -2.4237791e-01
 -3.2710022e-01
  1.8801130e+00
 -3.2409213e-02
  2.0285758e-01
  1.1878835e-01
 -3.4626985e-01
  1.2650365e+00
  5.3423584e-01
 -6.0814053e-01
 -6.4932458e-02
 -1.6997548e+00
  8.3371371e-01
 -3.7821093e-01
 -3.2134232e-01
 -7.5230515e-01
  1.0176911e+00
  6.5577972e-01
 -1.1878397e-01
 -1.3841147e+00
  1.3077165e+00
 -3.0385888e-01
 -6.1378181e-02
 -1.9982341e-01
 -8.3975363e-01
 -2.4289742e+00
 -4.0572143e-01
  4.5932585e-01
  1.1061593e+00
 -5.5102688e-01
  1.0807618e+00
 -6.4038014e-01
 -3.0767846e-01
 -4.7609916e-01
 -2.1134861e+00
  2.7544980e+00
  4.6671283e-01
 -3.9532110e-01
 -5.7271755e-01
 -1.3687479e+00
 -6.1988894e-02
 -1.4758880e-01
  2.4031771e-02
  1.0586092e+00
  6.4095460e-02
 -3.9165008e-01
 -2.9050028e-01
  1.0965730e-01
  2.1866236e-02
 -1.1070028e-01
 -7.3422104e-01
 -1.6358022e-01
  2.7055207e-01
 -1.4084503e-01
  7.9055212e-02
 -1.5648295e+00
  5.6325579e-01
  2.2528383e-03
  5.2206409e-01
 -2.6457551e-01
 -4.9212998e-01
  3.1625462e-01
  3.6106446e-01
  2.4138258e+00
  3.8861066e-02
 -3.0644378e-01
  1.7137784e-01
 -3.0197340e-01
  1.3283788e-01
 -6.9176799e-01
 -8.6457664e-01
 -3.4595576e-01
  1.6289586e-01
 -2.0053518e-01
 -9.5780445e-03
 -1.7586434e-02
 -4.3386698e-01
  4.0761045e-01
 -2.3892291e+00
 -5.1041532e-01
  1.2237894e-01
  4.0131092e-01
 -1.0553080e+00
 -4.6995369e-01
  1.5730877e+00
  5.8383029e-02
 -2.2431675e-01
  1.4666554e-01
  6.3890761e-01
  1.8235801e-02
 -3.8759702e-01
  5.1005621e-02
 -6.3622683e-01
 -3.1560931e-01
 -4.2721692e-01
  1.9585864e-01
 -2.4943425e-01
  1.1008774e-01
  2.3203041e-01
  1.6219433e-02
  2.6417375e-01
  8.2864803e-01
 -2.8987360e-01
  1.4904632e-01
  6.8762869e-02
  1.7124021e+00
  9.5774278e-02
  3.2031724e-01
  1.0646164e-01
  1.8025932e-01
 -7.5101778e-02
  3.3720449e-02
  3.8946220e-01
  2.0436886e-01
 -1.1967072e+00
  4.5029491e-01
  1.8720144e-01
 -8.0731027e-02
 -2.8450841e-01
  8.2813811e-01
  1.2914100e+00
 -1.5551412e-01
 -2.2239581e-01
  4.4297656e-01
  1.0053574e-01
  6.1082286e-01
  1.0269389e+00
 -1.1424195e+00
 -8.5333723e-01
 -1.9619414e-01
  1.1162987e-01
 -7.8233558e-01
 -9.5881969e-01
  3.4518704e-02
 -3.6191985e-01
  5.1215868e-02
 -3.1963426e-01
 -6.5924890e-02
 -8.6976856e-02
  2.4372214e-01
  4.1961852e-01
 -2.6185581e-01
  1.9547029e-01
  2.0641781e-01
  1.7814285e-01
 -6.8971747e-01
  9.1668621e-02
  8.2018543e-03
 -4.7127679e-02
 -1.5167001e+00
 -3.3407131e-01
  3.0160773e-01
 -2.2381131e-01
 -1.2864938e-05
 -7.0220046e-02
 -1.8040328e-01
 -2.0532744e+00
  2.4545899e-01
  2.7827045e-02
 -1.5659032e+00
 -1.4453791e-01
 -2.8387865e-02
 -3.6682785e-02
 -4.6934485e-01
 -8.7905788e-01
  1.1811345e+00
 -7.9316944e-01
 -8.0336773e-01
  1.9187019e+00
 -6.1834568e-01
 -5.0957388e-01
 -4.0916407e-01
 -6.6530503e-02
 -1.2721319e-01
 -6.4291626e-01
  6.1201520e-02
  2.7183798e-01
 -1.5795064e+00
  2.8047445e-01
 -1.5404003e+00
 -2.0200362e+00
 -1.9995116e-01
  5.1540174e-02
  1.1927624e-02
  2.0468791e+00
  3.2829008e-01
 -2.7717113e-01
  5.5470884e-02
 -5.3246218e-01
  2.9394788e-01
 -6.8099111e-01
 -1.0561516e+00
 -3.8302293e-01
 -2.1441349e-01
 -2.2004610e-02
 -3.0307665e-01
 -3.0539014e+00
 -3.5979841e-03
 -2.1890850e-01
  6.9173700e-01
 -5.0350076e-01
  7.2706825e-01
  1.4160840e-01
 -3.1882897e-01
 -1.5557965e+00
 -2.6893497e-01
 -1.5753386e+00
 -2.5400469e-01
 -9.7381309e-02
  3.0346043e+00
 -2.3678498e-01
  1.6140718e+00
  3.0262983e-01
 -2.4520876e+00
  4.1256395e-01
 -1.9787394e+00
 -4.2387158e-01
  2.0244755e-01
 -6.8340892e-01
 -5.4871982e-01
 -3.4841391e-01
 -1.9400809e-02
 -7.5315779e-01
  8.4881079e-01
 -1.1564510e+00
 -1.5080373e+00
  3.4860444e-01
 -9.8290038e-01
 -2.8959164e-01
  2.3096648e-01
 -1.1906198e+00
  1.1994009e+00
  7.0774591e-01
  4.9048522e-01
 -1.1967137e-01
 -2.2033520e-01
 -1.0845046e-01
  4.7612053e-01
  7.8895837e-01
  7.4720341e-01
 -1.4933780e-01
 -3.7619669e-02
 -4.2324007e-02
 -3.9185336e-01
 -3.0264199e+00
  6.3467050e-01
 -7.5445795e-01
  1.7464268e+00
 -4.0537891e-01
 -1.0233782e-01
  2.0241332e+00
  1.1784589e+00
 -1.5162386e+00
  4.1274431e-01
 -1.2182770e+00
 -9.6375287e-01
  4.1623816e-01
  1.2261462e+00
  2.6788396e-01
  9.9952674e-01
 -4.9123704e-01
  7.0671582e-01
 -3.3882889e-01
  3.1385124e-02
 -2.0993094e+00
  7.1106724e-02
 -5.2574605e-01
 -2.4124055e+00
 -5.3536510e-01
  4.1257259e-01
  1.2934206e+00
  1.0611205e+00
 -9.1692939e-02
  2.0743647e+00
 -2.0833654e+00
  3.3914657e+00
 -2.7549046e-01
  1.3900788e+00
  3.8370516e-02
  3.4478343e+00
 -3.6506743e+00
 -4.9139103e-01
 -2.2605953e-01
  3.6245534e-01
  3.1204602e-01
 -1.3401656e+00
  6.7060381e-01
 -2.9419789e-01
 -1.4562454e+00
  1.3187024e-01
  6.6010195e-01
  1.9865969e-01
  1.0001125e+00
  3.9838898e-01
 -1.4100923e-01
  1.8110386e-01
 -2.1591903e-01
 -3.8666151e-02
  2.3235921e-02
 -9.8941863e-01
  6.9241062e-02
  2.1015789e-01
  5.9411490e-01
 -9.0633854e-02
  1.3124657e-02
  6.0421562e-01
  1.9815372e-01
  1.2979387e-01
 -5.8560365e-01
  7.6872975e-02
 -3.3925176e-01
  6.3818544e-01
 -2.6869658e-01
  5.0491910e-02
  2.6305771e-01
 -2.2712870e-01
 -2.6551762e-01
 -5.3214800e-01
  1.0077392e-01
 -6.2355924e-02
  6.0586655e-01
 -1.2132891e-03
 -1.0758279e-01
  1.6651495e-01
 -1.5059511e-01
 -1.9706262e-02
  3.9380029e-01
  1.2953329e-01
  1.2917429e+00
  3.9183861e-01
  8.5085946e-01
 -1.7637652e-01
  6.0885012e-01
  5.8480883e-01
  1.0763356e-02
 -1.2288179e-01
 -2.2560310e-01
 -1.0271248e-01
 -1.2032067e+00
  1.3760464e+00
  1.0851153e+00
 -4.2336892e-02
  9.2412627e-01
  1.8782800e+00
  4.4948071e-01
  4.8142126e-01
 -7.1756655e-01
 -2.1685169e+00
 -1.0288185e+00
  2.8232697e-01
 -6.6939569e-01
  1.7691378e-01
 -2.3598642e+00
  1.6187002e-01
  2.3906678e-01
  4.5996703e-02
 -4.3796420e-01
  2.4474993e+00
  2.4206650e+00
  5.6539221e+00
  1.8940250e+00
  1.9297382e+00
  3.0439413e-01
  1.7581996e-01
  1.8036846e+00
 -9.4183022e-01
  2.1194918e+00
 -2.2518923e+00
  3.5512946e+00
 -1.1536551e+00
  4.9406923e-02
 -3.7301335e-02
 -1.7173842e+00
  1.6794795e-03
  1.5196694e+00
 -1.4567835e+00
  2.8374395e-01
 -2.0731080e-01
 -8.4952801e-02
  5.3727591e-01
  4.9046564e-01
 -7.0068246e-01
  5.9643343e-02
  1.3863671e-01
  8.8693060e-02
  6.2395829e-01
 -9.7306150e-01
  1.0963048e-01
 -2.8346482e-01
 -1.6813741e+00
  7.5527221e-01
  4.6407604e-01
 -1.8423952e+00
 -4.8787528e-01
 -3.3149055e-01
 -2.1770334e+00
  6.0262448e-01
  1.2650623e+00
  1.4307081e+00
 -7.2698116e-01
  6.7835349e-01
 -1.0268486e+00
  4.2932266e-01
  9.6067029e-01
  1.8672379e+00
 -1.6249909e-01
 -5.0639284e-01
  8.8188440e-01
  1.2135172e+00
  5.7604343e-01
  8.4456486e-01
  9.2404312e-01
  1.0487034e+00
  2.5223336e-01
  4.7626248e-01
  2.3339830e-01
 -8.7369144e-02
 -2.8781396e-01
  6.7179106e-02
  1.3004280e+00
  2.8045833e-01
 -2.1258141e-01
 -1.2493172e-01
 -8.9570373e-02
  5.6987803e-02
  5.9248034e-02
 -9.8267949e-01
  9.0861484e-02
 -4.3733525e-01
  5.3462642e-01
  2.4301638e-01
 -1.1749769e+00
  7.6772481e-01
  5.3874835e-02
  7.8349715e-01
  3.0000350e-01
 -4.5799166e-02
  1.0961595e+00
  3.9043310e-01
 -7.7982731e-02
  1.0629979e+00
 -5.3054613e-01
 -4.3642911e-01
 -3.5021067e-01
 -9.0105042e-02
 -5.9492711e-02
 -1.4868200e-01
  1.7729664e-01
  2.9901937e-01
 -9.0112060e-01
  1.4089830e-01
 -2.7145344e-01
 -4.0132666e-01
 -8.4302807e-01
 -9.6293914e-01
  2.3601338e-02
  2.5486651e-01
  5.3664905e-01
 -8.4769987e-02
 -8.1231672e-01
  7.5580490e-01
 -3.5878587e-01
 -1.2089079e-02
 -3.8008967e-01
  2.2864862e-01
 -7.1294129e-01
  1.1642827e+00
  2.8848296e-01
 -5.3583091e-01
  3.1490487e-01
 -1.5858406e-01
 -5.6762469e-01
  7.8129523e-02
 -3.1119365e-01
  6.1103708e-01
  2.5289750e-01
  5.8624476e-01
  4.1201324e+00
 -4.2598091e-02
 -1.6119403e-01
 -3.8994217e-01
  1.5715276e+00
 -1.2768738e-01
  8.3537264e+00
 -2.1944273e+00
  6.4854503e-01
  1.8557632e+00
 -1.2437589e+00
  1.4737059e+00
 -1.0734479e+00
 -6.9227010e-02
  1.9256214e+00
  3.1379979e+00
 -9.3958592e-01
 -6.4253831e-01
 -2.6964903e+00
 -1.3242203e+00
  1.1192889e+00
 -3.8126266e+00
 -3.9303502e-01
  3.1361613e+00
  1.0824442e+00
  1.7926404e+00
 -8.1297368e-02
 -1.9985119e-01
  1.1480912e+00
 -6.7282963e-01
  4.4563204e-01
  2.5250456e-01
 -6.5095001e-01
 -2.5529583e+00
  1.9756050e-01
 -2.4187984e+00
  4.4665460e-02
 -3.5246068e-01
  1.9295873e-01
 -4.2728534e+00
  2.8233035e-02
  5.3396635e-02
 -1.7366204e-01
  1.1958234e+00
  8.5174002e-02
  1.6367008e-01
  6.4654428e-01
 -1.5214133e-01
 -1.7195044e-01
 -3.7819514e-01
  1.0239040e+00
  1.7263463e-01
  1.7080602e-01
 -1.5836143e-01
 -6.8656826e-01
 -1.4819436e-01
  4.7661763e-01
  3.5510051e-01
 -6.0855661e-02
 -1.3348242e+00
  2.5611350e-01
  4.7260490e-01
 -1.7572512e-01
 -7.0432626e-02
  1.2895909e-01
 -1.5578396e+00
  7.2261298e-01
 -2.1550533e-01
 -1.7163679e-01
 -3.4458524e-01
 -7.2519505e-01
 -1.0040352e-01
 -2.9503185e-01
 -9.6411981e-02
  2.7842316e-01
 -1.8755187e+00
  1.3669665e+00
  2.5811963e+00
 -1.0504171e+00
  6.2106276e-01
  4.5597691e-02
 -5.8715177e-01
  1.2335868e-01
  2.4191749e-01
  1.5503705e-01
  7.9481614e-01
  1.0862392e+00
  4.8260778e-02
  3.9788693e-01
  3.8861135e-01
  8.9223343e-01
  5.9701432e-02
  1.6813500e-01
 -1.1861961e-01
 -6.4706868e-01
  4.3458414e-01
  2.1357766e-01
 -2.8955725e-01
 -2.1215808e-01
 -6.0633212e-01
 -3.2916695e-01
 -5.7647461e-01
 -2.6036706e+00
 -6.0170668e-01
  8.9932084e-01
 -3.6255273e-01
 -1.3244872e+00
  3.8559060e+00
  3.3917296e+00
  2.6273563e+00
  9.2224342e-01
  2.4687186e-01
  1.1328015e+00
 -2.1124484e-02
  1.4721437e+00
  2.1262963e+00
  1.1811781e+00
 -1.6993350e+00
  2.2154760e-01
  8.7552719e-02
  1.0561371e+00
 -1.2541993e+00
  8.0234182e-01
  1.1866260e+00
  4.6115384e-01
  1.8663323e-01
 -9.9424064e-01
  3.9172605e-01
 -1.1886694e-01
  2.3984563e+00
 -1.4237222e-01
  1.2908807e-01
 -2.9829264e-01
  1.5448158e+00
 -9.0150990e-02
 -1.2888469e+00
  6.1470616e-01
  5.2833486e-01
 -9.5523916e-02
  7.0539147e-01
 -2.8096780e-03
  4.2024231e-01
 -7.2319949e-01
 -1.4447945e+00
 -4.1019711e-01
  1.1136961e+00
 -1.8767664e+00
 -6.5285242e-01
 -3.2264403e-01
  1.2081047e-01
  6.6167986e-01
 -1.4466207e-01
  7.1611039e-02
 -9.5679313e-01
  2.3696804e-01
 -1.5863727e+00
  2.7272698e-01
  7.6140517e-01
  6.4368361e-01
  6.6667962e-01
 -1.8144975e+00
 -2.5462227e+00
 -3.7987918e-01
 -1.2032093e+00
  1.9646372e+00
  7.3228024e-02
 -1.1610037e+00
  1.3094772e+00
  1.0851597e+00
 -3.5127556e-01
  1.0281168e+00
  3.9457448e-02
  1.8426816e+00
  2.8362945e-01
 -2.1540034e+00
 -6.1846513e-01
  2.4652371e-01
  7.0255500e-01
  2.3365648e-01
  9.8730177e-02
  5.0816631e-01
  9.2666574e-02
 -6.3628018e-02
 -1.6622569e-01
 -8.9148611e-02
  1.3742328e+00
 -1.0242276e-01
  1.5708619e-01
 -1.9088606e+00
 -3.6403194e-01
 -9.0192062e-01
  2.1577886e-01
 -1.8480255e-01
  1.5134132e+00
 -1.3579192e+00
  3.1147039e-01
 -1.5022594e-01
  9.7257257e-02
 -1.0477476e+00
  3.6319194e+00
 -7.4858874e-02
  9.4354355e-01
 -2.1584775e+00
 -4.4597641e-01
 -2.1228889e-01
 -2.4604287e+00
  2.2040591e+00
  1.3294137e+00
 -1.1144446e+00
 -2.9691195e-01
 -2.2928243e+00
 -2.2345834e+00
  5.2187979e-01
 -6.5397370e-01
  2.3564591e-01
 -9.2326671e-01
  4.4539697e-02
 -6.9654435e-02
 -4.1624641e-01
  7.2273380e-01
  4.1889828e-01
  2.5358670e+00
 -2.5088280e-02
 -2.1367913e-01
  1.5977082e-01
  1.0500357e+00
 -8.6783148e-02
  1.0956264e-01
  8.4278774e-01
  6.3189989e-01
 -2.6124695e-01
 -1.4713936e+00
  4.1457735e-02
  1.7696221e-01
  1.7454484e-01
 -1.6217999e-01
  2.2409253e-01
  2.5048968e-01
  1.8873033e-01
  3.9376405e-01
  1.2277436e-01
  2.4507879e-01
  1.0458312e+00
  2.9804908e-02
  2.1964826e-01
 -2.9589277e-02
 -5.8069322e-02
 -6.6582376e-01
 -1.7609903e-01
  8.3508775e-02
 -2.8064044e-02
  1.1995838e-02
  9.5592523e-03
 -5.3041782e-02
 -1.1490309e-01
 -5.7472724e-01
  3.5364103e-01
 -8.4767389e-01
 -6.0735036e-02
  8.9837378e-01
  1.3746651e-01
 -7.1565259e-01
  2.0761473e-01
 -1.7379242e-01
 -5.1164668e-02
  1.2832123e-01
 -2.4955097e-01
 -6.8367936e-02
  1.9434762e-01
  2.1432504e-01
  8.6430334e-02
 -2.5223894e-02
  5.6941282e-02
 -2.2166254e-01
  2.9457508e-02
 -1.3958487e-01
 -2.3229855e-01
  8.4124553e-01
  5.8509994e-01
 -4.3144545e-01
  1.4450227e-01
 -5.2088022e-01
  8.7507673e-02
  7.3131943e-01
  1.5089805e-01
  8.6216384e-01
  8.1781989e-01
  2.6694828e-01
 -8.7871295e-01
 -1.5515008e+00
 -7.9191059e-02
 -7.5454563e-01
  2.8256323e+00
  2.7746609e-01
 -1.6244277e+00
 -2.2713409e-01
  4.6119115e-01
  3.3561988e+00
 -3.2598895e-01
  1.1926703e-01
  1.5278357e+00
  8.5625130e-01
  1.6269540e+00
 -1.2011119e+00
  8.6885500e-01
 -1.9558722e+00
  1.1057483e+00
  8.4857292e-02
  3.2054454e-01
  5.3729337e-01
 -2.3224714e-01
 -6.3853353e-01
  1.2752314e+00
 -1.2637628e+00
  1.5086879e+00
 -1.9550723e+00
  2.0159833e+00
  1.8830770e+00
 -1.7499661e+00
 -1.0755118e+00
 -3.4146037e+00
  8.5334182e-02
 -1.1412649e+00
  4.5105103e-01
  1.7383755e+00
  4.7306973e-01
  5.4194564e-01
 -6.1990905e-01
  5.4486197e-01
  2.2888231e+00
 -7.5439483e-01
  7.2155124e-01
  5.0390601e-01
  4.8084965e-01
  1.9119185e-01
  2.8670689e-01
 -9.1797483e-01
 -1.0399208e+00
 -2.3328245e+00
  1.7804939e-01
 -2.0209898e-01
 -5.3030741e-01
 -6.7979062e-01
 -1.4840852e+00
  3.4006968e-02
 -1.0192546e-01
 -2.1120355e-01
  7.8601801e-01
 -2.6026326e-01
  3.9700478e-01
 -5.9941596e-01
 -1.8582317e+00
 -1.4871949e+00
 -2.2036900e-01
  2.0601456e+00
  1.0006619e-01
  1.6349550e+00
  8.5648268e-02
  1.1451549e-01
 -3.6368266e-01
 -6.5481490e-01
  2.1943128e-01
 -5.6576616e-01
  2.7581432e-01
 -1.7485262e-01
  2.4068512e-01
 -4.7511601e-01
  1.8142876e-01
  1.2506410e+00
  5.8389738e-02
  3.6501354e-01
  2.9823351e-01
  3.5915050e-01
 -1.0817898e-01
  1.0367135e+00
  4.0401021e-01
 -8.9142877e-01
 -3.5617068e-01
  6.8519825e-01
  2.4857798e-01
  5.9451479e-01
 -1.0511832e+00
 -3.3247232e-01
 -1.7820317e-01
  2.1297345e-01
  1.0944531e-01
  6.1326462e-01
  5.6662276e-02
 -5.7570529e-01
  1.2733173e-01
  8.0036193e-02
 -1.7404072e-02
  1.5885119e-01
  3.5042271e-02
  3.5535654e-01
  5.5606806e-01
 -3.7053296e-01
  1.4229651e-01
 -7.3019707e-01
 -3.9426622e-01
 -6.7963010e-01
  3.3958685e-01
  1.3978867e-01
  2.3483510e+00
 -2.3874749e-01
  6.7009157e-01
  1.0352912e-01
 -1.9268563e-01
  6.5620041e-01
  3.3988237e-01
  3.4380752e-01
 -2.1297817e-01
  1.9820738e-01
 -5.3564757e-01
 -5.4711062e-01
  2.0372324e-02
  6.0272690e-02
 -4.2611200e-01
  1.7714061e-01
 -1.2601693e-01
 -2.4108917e-01
 -1.8354683e-01
  2.1591668e-01
  9.6370852e-01
  8.0980337e-01
  2.0965996e-01
 -4.8191682e-01
 -5.1600218e-01
 -1.3421291e-01
  9.3676955e-01
 -6.2127715e-01
 -7.3846406e-01
 -3.8944629e-01
  1.2998471e+00
  4.4218865e-01
 -3.3898473e+00
 -1.1326696e+00
 -1.4109925e+00
 -1.7865582e+00
 -9.5190138e-01
 -4.0594995e-01
  7.1066290e-01
  1.1095499e+00
 -1.6312078e+00
 -9.8575383e-01
 -5.8904730e-02
 -9.5544696e-02
 -3.9098695e-01
 -8.7117755e-01
  2.0328026e-01
 -2.1260016e+00
 -1.2335325e+00
  1.6416924e-01
  1.2240912e+00
  7.3936909e-01
  2.7804582e+00
  8.5708016e-01
 -1.2622236e-01
 -1.0846810e-02
  1.6899236e-01
  3.7831753e-01
 -7.1341193e-01
 -5.6900389e-02
 -2.4260491e-01
 -1.2728323e-01
  1.2453060e+00
 -5.2647179e-01
 -7.1481544e-01
  2.1229899e-01
  1.1163893e+00
  4.0055451e-01
  4.6813512e-01
 -1.0227103e-01
  8.4713089e-01
  1.5122817e+00
  2.1296267e-01
 -2.8035367e-01
  2.0959318e-02
  4.8606265e-01
 -7.9638964e-01
 -2.3626265e-01
  1.3409282e+00
  5.4491474e-03
 -3.2652304e-01
 -6.7928934e-01
 -1.1303358e-01
 -2.8307101e-01
 -1.0043538e+00
 -6.3032821e-02
  8.6696112e-01
  2.3023868e+00
  2.6608467e-01
  5.3280628e-01
 -1.3754958e+00
  1.7690329e-02
  2.5651639e+00
  2.5042927e-01
 -2.8286657e-01
 -1.0888638e+00
  3.1242406e+00
 -1.0853183e-01
  4.1610888e-01
  2.9994932e-01
  1.5171716e-01
  1.1228934e-01
  5.4648203e-01
  3.2457945e-01
  1.9395456e-01
 -3.6250874e-01
  1.5983847e-01
  1.2608176e-02
 -5.3931825e-02
  6.7356765e-02
  8.6698616e-01
  4.7788780e-02
 -4.0637101e-03
  2.7876678e-01
  3.8418055e-01
 -1.2205636e-01
 -5.5064738e-01
  5.5472630e-01
  6.4555514e-01
 -7.0107549e-02
 -6.5901709e-01
  1.4369242e-01
  9.4785787e-02
  5.2601260e-01
  1.3306742e+00
 -4.8094921e-02
 -5.2241522e-01
  8.7473609e-02
 -5.0093621e-02
 -8.2222432e-01
  3.4410587e-01
  4.6512239e-02
  8.8204660e-02
 -3.1010914e-01
 -2.5208232e-01
  4.8955658e-01
  2.5619432e-02
 -1.5170484e+00
 -2.7051973e-01
  9.0189505e-01
 -1.6107243e-01
 -2.4080618e-01
  2.9129422e-01
  1.9182060e-02
  3.3548528e-01
 -8.5474700e-02
  2.0449330e-01
  2.6833498e-01
  1.0320370e+00
 -6.4752275e-01
  1.5495661e+00
  1.9518168e+00
 -2.6447743e-01
  1.4401666e+00
  3.0199775e-01
  4.2961374e-01
  5.0237217e+00
  1.4301709e+00
 -3.8143882e-01
  1.0688584e-01
  1.3621135e-01
 -5.4370564e-01
 -4.6773058e-01
  1.2355198e+00
 -1.9470058e-01
 -9.8315734e-01
  5.8243346e-01
  2.1460423e+00
 -2.3253320e-01
 -2.7091579e+00
 -7.5295954e+00
 -2.1387835e+00
 -2.3528546e-01
  1.2457342e+00
 -2.8073406e-01
 -8.7047803e-01
  6.2442943e-02
 -5.1805937e-01
  1.0642671e-01
 -2.6228696e-01
 -1.2583266e+00
 -1.8275241e+00
 -7.2967924e-02
  1.3573837e-01
  1.3215783e+00
 -2.3026252e+00
 -1.0648903e+00
  3.2493514e-01
  8.9037561e-01
 -6.6615038e-02
  1.9423836e-01
 -4.7305722e+00
 -4.1321030e-01
  8.8537389e-01
  4.8735819e+00
  1.1764350e-01
 -3.7360799e-02
  2.5048823e+00
  3.3558371e+00
 -5.8466289e-02
 -1.5903923e-01
 -9.9173583e-02
  1.1108138e-01
  1.1373743e+00
  1.2706138e-01
 -2.1192075e-01
  4.4180802e-01
  2.1189570e+00
 -4.4855076e-01
 -7.1150050e-02
 -2.0710581e-03
  2.6964498e+00
 -3.8306719e-01
  1.1674006e-01
  6.7551053e-01
 -6.4677554e-01
 -1.3805584e+00
 -5.5139375e-01
 -8.5328662e-01
  9.2439616e-01
 -5.6067479e-01
  2.6814890e-01
 -6.0035783e-01
 -1.1179551e+00
  1.6681830e+00
 -2.2724020e+00
 -1.1268866e+00
 -8.0897018e-02
 -2.0306296e+00
  7.3689058e-02
 -1.2172076e+00
 -7.0221341e-01
 -2.5279357e+00
 -7.6603913e-01
 -1.7337643e-01
 -3.9335838e-01
  2.4325712e-02
  2.2143833e-01
 -2.0663372e-01
 -6.1364532e-01
 -9.0756506e-02
  8.3295047e-01
  4.7602090e-01
  1.5803002e-02
  1.7241087e+00
  6.0116535e-01
 -5.3732538e-01
 -2.4358824e-01
  1.0013548e-01
  3.6714029e-01
 -2.0804214e-01
 -1.3237987e-01
 -3.4955361e-01
 -3.4112597e-01
 -7.7222802e-02
  1.2823151e+00
 -2.3478003e-01
  1.6210784e-01
  1.2794413e-01
  6.9080546e-02
  4.7225150e-01
 -2.2980826e-01
  1.1230355e-01
 -5.1766372e-01
  8.5132802e-03
  6.7336446e-01
 -3.2305381e-01
  2.0504671e-01
  2.3263323e+00
 -3.3572093e-01
  1.2243164e+00
 -7.2641104e-01
  3.6761780e+00
  8.7530565e-01
 -4.3998942e-01
 -3.7542188e-01
 -7.5304288e-01
 -4.1703147e-01
 -2.1874195e-02
  5.9779829e-01
  1.4085888e+00
 -1.1831573e+00
 -3.0587518e-01
 -1.1510146e-01
 -1.0196469e+00
 -3.1459785e-01
 -9.6602537e-02
  1.4920004e-01
  4.1210514e-02
  5.6723082e-01
 -7.8319198e-01
  2.9371276e-01
 -1.7650345e-01
  1.4634869e+00
  6.2544775e-01
 -8.1983030e-01
 -1.5056729e-01
  8.1713609e-02
 -3.4148657e-01
 -6.5694782e-03
 -9.5026344e-02
  5.2641764e-02
  8.4673232e-01
  1.3711833e+00
  5.0711179e-01
  6.4794576e-01
 -4.3082397e-02
 -6.1890662e-01
  7.0241570e-02
 -3.4858673e+00
  2.2986297e-01
 -2.5130470e+00
  7.4113153e-02
 -2.9252279e+00
  3.0629796e-01
 -8.1587547e-01
 -1.3753311e-01
  8.0794685e-02
 -2.1309998e+00
 -3.1179950e-01
  2.4058186e-01
  2.4689898e-01
 -3.7656913e+00
  1.8793077e+00
  3.7079830e+00
  4.3908873e-01
 -6.0348344e-01
  5.4631096e-01
 -1.6435798e-01
 -8.3418298e-01
 -1.5560820e+00
 -1.2620344e+00
  3.0857863e+00
 -7.6942250e-02
  2.1099210e+00
 -7.8834856e-01
 -3.4021348e-01
 -1.5867976e+00
 -2.9774824e-01
 -1.0169423e+00
  1.6925107e-01
 -1.5901115e+00
  1.0437158e-01
 -5.4800290e-01
 -9.2701292e-01
  3.8759261e-01
 -3.3849829e-01
  2.5937307e-01
  1.1432867e+00
  7.7546859e-01
  8.5338074e-01
  7.7692783e-01
 -9.3308382e-02
  1.9562772e-01
  2.3810124e+00
 -5.5558924e-02
 -3.2065922e-01
  1.9820850e-01
  7.7230543e-01
 -2.6825826e+00
 -3.6469254e-01
  2.2923880e+00
 -3.2886996e+00
 -1.8218374e+00
 -2.6220965e+00
 -2.4585988e-01
 -6.0295683e-01
 -2.4607401e+00
 -1.8410156e+00
 -2.7159071e-01
  2.2470670e+00
  1.4361298e-01
 -1.1695266e+00
 -3.4130177e+00
  4.3559855e-01
  8.8516641e-01
  5.1306778e-01
  2.1479099e+00
 -2.7733403e-01
 -1.0225059e+00
  2.2885649e+00
  3.8559550e-01
  1.0363405e+00
 -3.7255120e-01
  2.2514182e-01
  1.1071622e+00
 -1.3519257e-01
 -2.2085052e-02
 -2.8728209e+00
 -4.6339408e-01
 -2.6779735e-01
 -5.2953392e-01
  9.9587929e-01
 -1.9212812e-01
 -3.0063823e-01
 -1.2467810e-02
  2.0720378e-01
  4.3716851e-01
 -1.3377455e-01
 -1.2189240e+00
 -8.8814497e-01
  5.2375931e-01
  1.4538701e+00
 -1.8500201e-01
  3.6088580e-01
  4.8958975e-01
  1.5431943e+00
  1.1225423e+00
  1.1669477e+00
  6.8714021e-04
  9.6348041e-01
 -1.1850442e-02
  2.0813479e+00
 -1.0053719e-01
 -1.9521610e-01
  2.5587526e-01
  1.3753135e+00
  2.4299061e+00
 -2.4749631e-01
  5.8092868e-01
  2.0307209e-01
 -6.9285262e-01
  4.9476359e-02
  9.4624412e-01
  9.4829333e-01
 -1.4222590e+00
 -2.7945578e-01
 -3.1476103e-02
 -1.1227295e+00
 -9.3135722e-03
 -5.8933932e-01
  3.0212195e-03
  1.9088068e+00
 -4.4159740e-01
  2.7526933e-01
  9.8224193e-01
 -5.3951776e-01
  2.2529991e-01
  4.5685296e+00
  1.5926945e+00
 -2.2833863e-01
 -1.0665880e-01
  8.9886630e-01
  4.8470050e-01
 -8.1864625e-02
 -1.1017914e+00
 -1.4575682e+00
 -1.3286442e-01
 -3.2322355e-02
  2.7932272e+00
  1.4663143e-01
 -5.6342632e-01
 -2.4867402e-01
 -3.8938513e-01
 -6.5245342e-01
  1.1447635e-01
 -1.2021321e-01
  1.1959664e+00
  7.7980530e-01
 -7.0319951e-01
 -1.9211382e-02
 -5.1195967e-01
  6.1542135e-01
  9.5444071e-01
  1.0258669e+00
  6.0875463e-01
 -3.0138603e-01
  9.9155080e-01
  6.0600221e-01
 -4.1951752e-01
  1.6516848e-01
 -3.5556719e-02
  2.0779490e+00
  2.9863247e-01
  3.0940810e-01
  4.5014599e-01
 -8.6573377e-02
 -1.1243892e-01
  8.7643459e-02
 -1.3119289e-01
 -1.4592073e+00
 -2.1150136e-02
  2.6306627e+00
 -2.0934467e-01
 -3.3958125e-01
 -3.3175103e-02
  1.0677338e-01
 -2.6331356e-01
 -7.7349955e-01
 -1.6033664e-01
  1.1123167e+00
  8.4585285e-01
 -1.8490684e+00
  2.9094243e-01
 -5.6714487e-01
 -3.7539780e+00
 -9.1948444e-01
 -3.0205262e-01
 -6.6443706e-01
  2.5853831e-01
 -1.1427301e+00
 -2.4658813e-01
  1.5855480e+00
  3.6601124e+00
 -3.3670845e+00
  2.2069893e+00
 -2.8593954e-01
  1.0494530e+00
 -6.3982654e-01
  1.2680629e+00
 -7.4162203e-01
 -6.0724266e-02
 -3.1774721e-01
 -7.3499091e-02
 -1.4718941e-01
  7.7433437e-01
  1.3871357e-01
 -3.0485396e+00
  1.1914369e+00
 -1.6849537e-01
  1.7993145e+00
 -1.2068853e-01
  5.8443028e-01
  4.6918961e-01
 -8.0558866e-01
  4.6358922e-01
 -1.2436913e+00
  4.2214227e+00
  9.5435262e-01
  5.2727002e-01
 -1.9636954e-01
 -2.2979569e-01
  4.2503538e+00
  1.4027037e-01
 -4.5069671e-01
  1.0068179e+00
 -2.5480301e+00
  1.0684196e+00
  1.2585838e+00
  2.4414837e+00
  6.3711542e-01
 -1.3005617e+00
  5.0523702e-02
  1.9632615e+00
 -1.5470957e+00
 -4.2971568e+00
  1.5596927e+00
  3.8699651e-01
  3.5574269e+00
  3.5939524e+00
  5.1383585e-01
 -4.9535298e-01
 -2.9539931e-01
 -2.6581186e-01
 -3.8543558e+00
  3.2725275e-02
  5.5985755e-01
 -3.8892150e-01
  7.0227003e-01
 -1.0109842e+00
  6.1105734e-01
  1.1831785e+00
 -2.7163547e-01
  7.3333032e-02
  1.4923276e+00
 -1.2920761e-01
  9.1509074e-01
  2.2156086e+00
  5.3516293e-01
 -2.2673197e+00
  2.1232720e-01
  3.2983533e-01
 -4.6629471e-01
  2.0663352e+00
  2.8214306e-01
  2.2074873e+00
 -8.2046264e-01
  4.2902172e-01
 -3.1378558e-01
 -1.7914318e+00
 -2.1206875e+00
  2.3112628e+00
 -5.3765826e-02
 -8.7284213e-01
  8.7360334e-01
 -2.9641867e-01
  1.4140608e+00
 -1.4300779e-02
  1.0346696e+00
  3.1911900e+00
 -1.4257002e+00
  9.7590566e-02
  1.8562615e+00
 -2.1433880e+00
 -6.2941128e-01
 -6.3431889e-01
  1.7715228e+00
  1.3276073e-01
 -3.7991014e+00
  4.8068446e-01
 -3.6532444e-01
 -9.1651118e-01
  1.0713789e+00
  7.9124606e-01
  4.2585154e+00
  8.0323247e-03
  1.2043635e+00
 -1.1356862e+00
 -1.7476696e+00
 -1.1388632e+00
 -4.9931234e-01
  9.8828092e-02
 -1.6370854e+00
 -1.9589169e+00
  2.2336011e+00
 -6.4776647e-01
  2.8603866e+00
  5.6165141e-01
  5.6628525e-02
 -1.0385020e-01
 -2.3082621e-01
  9.5109269e-03
  6.3517350e-01
 -6.4421916e-01
 -5.6693010e-02
  1.3576910e-01
  2.4180582e-02
  1.1137344e-01
  2.5544456e-01
 -3.6808308e-02
 -6.1564970e-01
  4.8609412e-01
 -2.0011098e+00
  3.8285384e+00
  7.9912192e-01
  1.8552295e+00
 -6.9599324e-01
 -3.2059872e-01
  1.2917258e+00
 -4.9672428e-01
 -8.8676088e-02
 -1.2659875e+00
 -4.1076285e-01
  3.8684275e+00
  7.9344064e-02
  8.9458388e-01
  1.8487816e+00
  1.4314144e+00
  3.6544284e-01
 -1.3871839e+00
 -1.0311038e+00
 -2.1305227e+00
  1.8069160e+00
  1.5248802e+00
  9.9346572e-01
 -3.1355453e-01
 -1.1545377e+00
  2.4461663e-01
 -1.2519909e+00
 -1.9692490e+00
  7.5437409e-01
 -8.1218588e-01
 -7.6559943e-01
 -6.9054800e-01
 -3.5483253e-01
  1.5108404e-01
 -4.9632639e-01
  9.3520302e-01
  3.9786157e-01
  1.6484903e+00
  2.2757843e-01
  4.3096714e-02
  4.5418199e-02
 -1.2795579e+00
  4.2181036e-01
 -5.0724399e-01
 -1.7935003e-01
  9.8783515e-02
  2.5391221e-01
 -4.4459841e-01
  5.3685731e-01
  6.9342661e-01
 -1.7410882e-01
  2.4422076e+00
  1.8285483e-01
 -3.4380271e+00
 -2.3661213e-01
  1.5072950e+00
 -2.6010334e+00
  2.6336377e+00
  4.8186794e-01
  6.5691900e-01
 -9.1808163e-02
  3.2931643e+00
 -1.4634018e+00
 -1.7287188e+00
 -7.7301967e-01
 -1.7669252e+00
  1.7194082e-01
 -2.1128206e+00
  6.4879879e-02
 -2.8912738e-01
  2.3887815e+00
 -5.7032037e-01
 -3.2655782e-01
 -1.0863811e+00
 -1.2185748e-01
 -7.6898986e-01
 -1.3958845e-01
  1.1382655e+00
 -1.9477071e+00
  8.4016509e-02
  2.9893410e-01
 -3.3202556e-01
 -1.0287379e-01
  1.1391208e-01
 -6.0047451e-02
 -3.5175577e-01
  6.0761068e-03
 -2.4763713e-02
 -1.5212504e+00
 -4.2621160e-01
 -2.8436954e+00
 -7.9605110e-02
 -1.0569971e-01
  5.1886785e-01
 -2.3807699e-02
 -2.7001739e-01
  8.1368399e-01
  1.4831260e+00
  6.2540394e-01
  5.4296654e-01
 -4.9326119e-01
  1.6430018e+00
  1.2492049e+00
 -2.4214377e+00
  6.7329720e-02
 -2.0865364e+00
 -2.1385925e+00
  4.9640989e-01
  6.2390220e-01
 -2.9590075e+00
 -1.1605378e-01
  3.6331776e-01
 -2.3301361e+00
 -8.1633323e-01
 -6.8246704e-01
  6.2718451e-01
  9.4423753e-01
 -2.8912541e-01
  5.6001014e-01
  5.3423792e-01
  3.1176829e-01
 -2.0948908e-01
  1.9743164e-01
  6.2245613e-01
  2.8052679e-01
  2.5388317e+00
 -2.4923902e+00
  2.9746023e-01
  2.1890701e-01
 -2.4154162e+00
 -9.5602429e-01
  2.4460122e-01
 -8.7469298e-01
 -4.1273803e-01
  2.5148728e-01
  5.0514366e-02
  6.3735211e-01
 -2.7320610e-02
 -4.7946644e-01
  6.0358363e-01
 -1.7725002e+00
 -7.3385966e-01
  5.3894806e-01
  1.3793004e+00
 -8.0861664e-01
 -3.2691982e-01
 -8.4163767e-01
 -3.1137285e+00
 -9.6772683e-01
  7.4170923e-01
  9.8907357e-01
 -1.3614167e-01
 -7.2224230e-02
 -2.2629495e+00
 -4.2188868e-01
  5.2305633e-01
 -1.2548578e+00
  2.6759946e-01
  3.8129878e-01
 -2.4155514e+00
 -5.9982193e-01
  3.4459916e-01
  1.2938187e+00
 -1.7044243e+00
 -7.6732033e-01
 -8.0010515e-01
 -7.1511590e-01
 -1.0406861e+00
 -2.1743509e-01
 -6.3658804e-01
 -6.3812840e-01
  1.4631185e-01
  1.7527487e+00
 -1.8799861e-01
 -1.9490214e-01
 -8.5502304e-02
  3.3687404e-01
 -2.4927084e+00
 -2.5644989e+00
 -1.6644734e+00
 -3.6834317e-01
  1.6887277e-02
 -3.4213971e-02
 -1.6856916e+00
 -5.4704767e-01
 -2.2205849e+00
 -9.8794419e-01
  2.9269090e-01
 -3.9074111e-01
 -8.8658893e-01
 -3.2979223e-01
 -8.7998524e-02
 -7.3149848e-01
  2.5783980e+00
 -1.3396677e+00
 -6.6105026e-01
  8.0830492e-02
  1.3535106e+00
 -1.6709335e+00
 -1.2182387e+00
 -5.2580142e-01
 -8.3054185e-01
 -1.2531606e+00
 -5.2499163e-01
  1.4730656e+00
  2.1860824e+00
  1.5167376e+00
  2.8174179e+00
 -8.1331044e-01
  6.4638406e-02
  4.9276784e-02
  4.6303439e-01
 -4.4010531e-02
 -4.4681883e-01
  1.3060397e+00
  1.3053300e+00
  3.2661855e-01
 -1.9027977e+00
 -8.2197541e-01
 -1.0421145e+00
  7.5743955e-01
 -1.0830959e+00
 -1.4250715e+00
 -4.9183574e-01
 -6.4345241e-01
  2.4980040e-02
 -1.7220695e+00
 -2.7654827e-01
 -1.1541778e+00
  2.2851424e+00
 -1.7250911e+00
 -1.6583471e-01
 -7.2788459e-01
 -2.7903727e-01
  6.3767284e-01
 -9.7570404e-02
  2.7783696e-02
  7.2347045e-01
  1.0440013e+00
  1.8508575e+00
 -2.8556919e+00
  1.2131541e-03
  6.2705052e-01
  1.9782236e+00
 -3.9085870e+00
  1.4507673e+00
 -3.9619717e-01
 -2.0525122e-01
 -4.4219556e-01
 -2.8385827e-01
 -1.7335747e+00
 -8.3880389e-01
  5.3765917e-01
  5.0311893e-01
 -5.6168890e-01
 -1.0287650e+00
  5.9558630e-01
 -1.1727880e+00
  5.4802990e+00
  1.2978443e+00
  1.4962877e+00
 -5.1737654e-01
 -1.8317047e+00
 -9.7889565e-02
  1.7399113e-01
  2.6440012e+00
 -3.4412929e-01
 -2.0701623e+00
  5.3836745e-01
 -3.0546875e+00
 -5.7670730e-01
  1.4347650e+00
  4.2441344e-01
 -1.8353400e+00
 -5.5647659e-01
  7.0827723e-01
 -1.3621221e+00
  2.0880239e-01
  4.2172134e-02
 -4.6847710e-01
  2.0879899e-01
 -2.7729487e-01
  7.4162954e-01
  3.6783966e-01
  5.7230973e-01
  1.0079750e+00
 -6.9149399e-01
 -1.4860834e+00
 -2.7647543e+00
  1.1525940e+00
  2.1796656e+00
 -1.7470935e-02
  1.0056618e+00
  3.8543633e-01
 -8.7068152e-01
  2.0226250e+00
 -1.1266509e+00
  2.9243782e-01
  1.8143743e+00
  6.0528308e-01
 -9.8506111e-01
 -5.1148790e-01
  2.9150076e+00
 -2.5077391e+00
 -1.0513961e+00
  1.8807666e+00
  3.4096301e+00
  3.1149665e-01
 -1.2691660e+00
  3.7830749e-01
 -1.5704212e-01
 -2.0990691e+00
  1.3254009e+00
  9.8565727e-01
 -5.4653788e-01
  7.2757900e-02
  1.6972510e+00
  2.4236782e-01
  7.6600897e-01
 -1.3163046e+00
  3.5424845e+00
  6.9549263e-01
 -2.1295801e-01
  3.9375722e-01
  8.3638251e-01
  1.3583561e+00
  1.1092675e-01
  4.1154036e-01
 -1.7734393e-02
 -1.0628792e+00
  8.2426077e-01
  1.5314072e-01
 -3.0972434e-02
 -1.0788168e-02
  7.8896117e-01
 -6.5655857e-01
 -2.8072293e+00
  7.3716342e-02
  3.2557499e-01
  1.1003600e+00
 -2.6817769e-01
  6.0260981e-01
  2.1142718e-01
  1.8178191e-02
  1.0351776e+00
 -9.2640221e-01
  2.7921823e-01
 -1.4722839e-01
  4.4866759e-01
 -4.8871228e-01
 -3.1712118e-01
  7.8398567e-01
  9.9572772e-01
 -8.4961897e-01
 -2.5341943e-01
 -1.6063218e-01
  2.1679702e-01
 -5.4956187e-02
 -1.1160362e+00
  1.1418240e+00
  1.9573511e+00
  8.3551854e-02
  1.3915123e-01
 -1.9264470e-01
 -3.0398127e-01
  2.1402832e-02
 -8.6045718e-01
 -4.6830812e-01
 -1.1505704e-01
  4.7317252e-01
  9.0641785e-01
 -1.8137168e-02
 -9.3401879e-02
 -2.8574109e-02
 -1.2159675e-02
 -1.3552179e+00
 -4.1042314e+00
  1.6044030e+00
 -2.0063508e+00
 -8.1116641e-01
 -1.2427329e+00
 -7.8532273e-01
  5.3968530e+00
 -1.6131827e+00
  2.3639882e+00
 -5.2622706e-01
 -2.7239554e+00
  7.9744232e-01
 -2.3188729e+00
  1.4920990e-01
 -2.6135788e+00
 -1.5101707e+00
 -1.9763131e+00
  5.7136834e-01
  3.0092362e-01
  1.1792427e+00
  1.4566567e+00
  8.1652439e-01
 -8.2170975e-01
  2.2269043e-01
 -1.1929928e+00
  1.1077276e+00
  1.2251831e+00
  3.4868187e-01
 -4.2921858e+00
  5.7996970e-01
 -5.8369267e-01
  1.0900697e+00
 -1.9950410e+00
  4.6617737e-01
  4.6725210e-02
  4.7667533e-01
 -2.7627027e-01
  4.0087074e-01
 -1.6371645e+00
 -6.9723859e-02
  4.5682245e-01
  1.4300941e-01
 -6.4033794e-01
 -7.9956692e-01
  2.8369596e-02
  6.4652964e-02
  7.9527014e-01
  6.3024163e-01
 -7.6645768e-01
  5.2360547e-01
  1.1218646e+00
  6.5181291e-01
  2.1667933e+00
  1.3627970e+00
  1.2722282e+00
  2.1830256e-01
 -7.8402740e-01
  2.7804103e-01
 -8.2431822e+00
 -5.4286921e-01
 -1.5869308e+00
  1.7644181e+00
  2.0654898e+00
 -2.9722261e+00
  5.8902055e-01
  1.1778512e+00
 -2.3800772e-01
  1.0540712e+00
 -1.4189245e+00
 -8.6125654e-01
  1.6729541e+00
  1.6218717e+00
 -1.1298247e-01
  2.0338588e+00
 -1.8241585e+00
  8.8824147e-01
  2.5732571e-01
  3.7723804e-01
  8.5001391e-01
  7.6282692e-01
 -3.0093184e-02
 -6.0342252e-01
 -2.1481578e+00
  3.1658800e+00
 -2.5242810e+00
  1.1218503e+00
  4.5298257e-01
  7.4767381e-01
  1.0966761e+00
 -6.2332969e-02
  4.6828768e-01
  6.6523743e-01
  1.4616773e+00
  2.7103016e+00
  5.8364743e-01
 -4.9413380e-01
 -8.8422638e-01
  6.6717660e-01
  5.8942431e-01
  8.4912682e-01
 -9.4311886e-02
 -1.0201458e+00
 -2.2086681e-01
 -2.6836619e+00
  1.4748331e+00
  6.8913728e-01
  1.1851661e+00
  3.3230442e-01
  2.0042923e-01
 -1.4858807e+00
 -1.1678917e+00
  9.1123961e-02
 -7.2894067e-01
  5.8298230e-01
  2.8512662e-02
  2.0927041e+00
  6.0676926e-01
  2.8397765e-02
  2.4430023e-01
 -1.3532861e-01
 -2.6417905e-01
 -1.3056843e-01
  6.9499761e-01
  1.8748116e-01
 -9.4091403e-01
 -6.8841539e-03
 -1.0330098e-01
  2.0273419e-01
 -7.3772234e-01
 -4.3583223e-01
  1.2708179e+00
 -1.8451478e-01
 -2.8363940e-01
 -5.5336367e-02
  1.8639413e-01
 -3.9639241e-01
 -1.9352978e+00
  1.5828323e-01
  1.5621366e-01
 -1.0013418e+00
 -6.7257106e-01
  2.8830490e-01
 -1.9892031e-01
 -3.7647980e-01
 -6.8604451e-01
 -2.6994536e-02
 -3.4399305e-02
 -1.5659639e+00
  1.4870653e-01
 -1.4088968e-02
  1.1548086e-01
  7.4892260e-02
  9.5195562e-01
  3.2907940e-02
 -7.1036601e-01
  6.4108646e-01
 -1.2657358e-01
  4.3717615e-04
  9.0363555e-02
 -5.1411939e-01
  5.2344758e-02
 -1.2100589e-01
  2.5801086e-01
 -2.9941790e-02
 -2.0615739e-01
 -4.9434513e-01
 -2.4918877e-01
  3.1770658e-02
  6.4780079e-02
 -2.3588762e-01
 -1.3453553e+00
  3.3576688e-01
 -1.9122976e-01
 -1.8591517e-01
 -1.1602982e-01
  2.4158912e-02
  1.0049185e-01
 -2.3648979e-03
  8.8028699e-02
  6.0417637e-02
  6.8841711e-02
  3.1061041e-01
  6.1292171e-01
 -1.8483479e-02
  3.4120858e-01
  2.4722295e-01
 -3.0192198e-02
  6.8102735e-01
  5.1088119e-01
  1.0577001e-01
 -1.6836160e-01
 -5.5475795e-01
  2.0641282e-01
 -1.0170294e-01
  8.9967322e-01
 -4.8867437e-01
  3.0973071e-01
 -9.9399817e-01
 -3.4328634e-01
 -2.0917478e-01
  9.8590828e-02
  9.7749978e-02
  2.5506333e-01
  5.1479781e-01
 -3.7738483e-02
 -8.4967023e-01
 -1.1654562e+00
 -1.1914483e-01
  4.9825907e-01
 -5.0486393e-02
 -1.6806817e-01
 -8.2692659e-01
 -2.2196934e-01
 -5.9705690e-02
 -5.9280759e-01
  1.4536041e+00
 -1.0007828e-01
 -3.7257376e-01
 -1.0373800e-02
  2.5419718e-01
 -6.5083319e-01
  6.5945417e-01
 -3.6210918e-01
  8.1732452e-02
 -9.6887141e-02
  1.3289440e+00
 -1.0595669e-02
  2.6190084e-01
  4.5356858e-01
  1.0175574e-01
 -1.3087589e-01
 -1.0742929e+00
  4.3024518e-02
  2.7287909e-01
 -7.8298479e-01
  6.9596136e-01
 -9.3525875e-01
 -9.5850028e-02
  4.6975795e-02
  4.0218577e-02
 -1.9181926e-02
  1.5764034e-01
 -3.8346189e-01
 -5.1399440e-01
 -7.5973862e-01
 -4.5863664e-01
 -2.5586724e-01
  2.6493610e-03
  1.2214717e-01
 -1.7607551e-02
  3.7246126e-01
  5.9028871e-02
  3.1050935e-01
  1.5564184e+00
 -6.4605868e-01
  1.7823073e+00
  5.0759397e-02
  1.3981323e-01
 -3.4368908e-01
 -4.9216482e-01
 -4.6228647e-01
 -3.4809035e-01
 -1.4032452e-01
 -1.1254143e+00
  1.8393399e-01
 -9.9041336e-04
  8.8015103e-01
  2.3661827e-01
 -6.2299620e-02
  1.8631339e-02
 -5.0225794e-01
  1.9024636e-01
  1.3661572e-02
  1.5947889e-01
 -4.9444880e-02
 -1.8154056e-01
  6.9737941e-01
 -2.9261023e-01
  5.0336897e-01
  3.0610282e-03
 -3.1816766e-02
  4.6601078e-01
  1.4916764e+00
 -1.9677021e-02
 -9.0732068e-01
 -1.9031236e-01
 -4.4736215e-03
 -1.2812452e+00
  9.2199415e-01
  4.3287194e-01
  2.9652333e-01
  1.5611819e-02
  1.6435853e-01
 -4.5634148e-01
 -9.6432501e-01
  2.1680528e-01
  2.2082481e-01
 -3.6111709e-01
 -2.0440024e-01
 -1.9105768e+00
 -1.8882959e-01
 -2.5044188e-02
  2.2807833e-02
  2.0144904e-01
  4.2277813e-01
  5.1806802e-01
 -1.2976550e-01
  1.1030265e+00
 -1.3923433e+00
  5.0508392e-01
  6.5512621e-01
  1.2133434e-01
  1.8191816e-01
  5.2554971e-01
 -4.4039086e-02
 -5.8424506e-02
  7.7042803e-03
  5.1644796e-01
 -5.3926045e-01
  4.3103868e-01
 -1.1293300e+00
  3.5208416e-01
 -1.4939207e-01
  2.9302043e-01
  3.6190838e-01
 -1.8266410e-02
 -3.8203705e-02
 -1.0895458e+00
 -4.0686589e-01
 -3.9053604e-01
  5.5231112e-01
  7.9389405e-01
 -2.6025829e-01
  3.6916915e-01
  4.0652594e-01
 -8.1829870e-01
  1.2076526e+00
  2.1930537e-01
  4.8993137e-02
  7.2428858e-01
 -1.4961970e-01
  9.0854281e-01
  1.5263231e+00
  6.9905472e-01
 -4.3469959e-01
 -9.2387778e-01
 -5.8960491e-01
  8.5246217e-01
 -9.9739021e-01
 -1.6541835e+00
  2.0554486e-01
  1.0282290e+00
 -3.6922818e-01
 -5.4471201e-01
 -1.8679142e+00
  8.9081979e-01
  2.7528742e-01
  3.7105131e-01
 -6.4202890e+00
 -5.9927422e-01
 -5.6042641e-01
  2.2853017e+00
 -5.2976346e-01
 -6.9215780e-01
 -1.3323084e+00
 -8.3550054e-01
  9.8041224e-01
 -7.9950672e-01
 -3.1594497e-01
 -5.1639533e-01
 -1.1108069e+00
 -1.0327673e+00
  3.0046096e-01
 -2.4550183e-01
 -4.8154686e-02
 -4.7192836e-01
  1.6610707e+00
  1.1709679e+00
  4.7827217e-01
  1.0513091e+00
 -4.4067436e-01
  7.9226065e-01
 -7.0390260e-01
  2.4480470e-02
 -1.9405597e-01
 -1.3194096e-01
  7.8949295e-02
 -2.6044148e-01
 -4.8046795e-01
 -2.1306303e-01
 -5.4409009e-01
  3.4217498e-01
 -3.0240428e+00
  5.3962592e-02
 -1.8330015e+00
  5.5064302e-02
 -3.1958798e-01
  2.1651687e-01
 -5.0795865e-01
 -8.1626371e-02
  4.2799166e-01
 -4.1892427e-01
 -7.6446265e-02
 -1.0980041e+00
 -4.1346993e-02
 -6.9633371e-01
 -3.4572642e-02
 -4.8703826e-03
  3.3476213e-01
  2.3458318e-01
 -8.1421919e-02
 -4.0809769e-02
  2.9640380e-01
 -1.7824620e-02
 -7.6346695e-01
 -5.1425713e-01
  1.5507619e-01
  9.7819306e-02
 -1.6326401e-01
 -1.2839742e+00
 -7.8759164e-02
 -3.7999573e-01
  1.9633200e+00
 -2.5590992e-01
  3.3260646e-01
 -3.2745514e-02
 -1.7543156e-01
 -9.0737712e-01
 -1.4699137e+00
  1.1432866e+00
 -3.2588422e-01
  2.2450294e+00
 -3.0902734e-01
  3.1262705e-01
 -2.6343088e+00
  3.8846949e-01
 -3.8073981e-01
 -2.4727969e+00
 -9.1709757e-01
 -5.0325751e-01
 -1.3399944e-01
 -1.5035032e+00
  1.9951509e-01
 -9.9545732e-02
  8.4554863e-01
  1.3393360e+00
 -1.0359714e+00
  2.6935095e-01
  6.7165828e-01
 -1.0617699e-01
  4.1921875e-01
 -2.7579665e-01
  3.4432335e+00
  5.9995103e-01
 -8.7571239e-01
 -4.6803585e-01
  9.8449057e-01
  4.8172456e-01
  1.4047702e-01
 -7.0650347e-02
  4.2595056e-01
 -3.7167582e-01
 -3.1640884e-01
  1.9710347e-01
  2.6626518e-01
  7.8669912e-01
 -3.2731888e-01
  6.2069040e-02
 -9.3255341e-02
 -2.7421479e+00
 -7.3869467e-01
  2.2398897e-01
  1.1719738e+00
  1.9364667e+00
 -2.5213438e-01
 -1.0029017e+00
 -1.9981891e+00
 -3.2295898e-01
  6.0251224e-01
  3.9328128e-01
 -1.7328322e-01
 -9.3137479e-01
  1.7275840e-01
  3.8112190e+00
 -1.5705819e+00
 -1.1597311e+00
 -8.3197749e-01
 -2.2845383e+00
  1.8353659e+00
  6.6739452e-01
  2.3384478e+00
  7.1595079e-01
 -1.6264095e+00
  9.1591620e-01
 -2.9704423e+00
  1.3351283e+00
  9.8366195e-01
  1.2252146e+00
  1.2999514e+00
  1.5128503e+00
  2.4488180e+00
  2.0097566e+00
 -3.8663483e-01
 -2.7816278e-01
 -4.7715789e-01
  6.6919488e-01
 -2.1292204e-01
 -2.1154431e-01
  6.9849961e-02
  5.6968385e-01
 -2.2693782e-01
  5.8312142e-01
  3.0626461e-01
  5.1450182e-02
 -1.2198467e+00
 -3.0493336e-02
 -9.8959571e-01
  7.2177947e-01
  2.9363471e-01
 -4.6847567e-01
 -5.1193219e-01
 -3.9717323e-01
 -4.1566752e-02
 -4.7804540e-01
  1.5418853e+00
  1.2448320e+00
  2.9200759e+00
  4.4444647e-01
 -8.5295749e-01
 -1.8503879e+00
  4.5572996e-02
 -1.4532963e+00
  4.6060237e-01
 -1.2822472e+00
  1.0030148e-02
  1.0836637e+00
  3.0680805e-01
  2.9433310e-01
  4.7568011e-01
 -2.1158098e-01
 -4.2883417e-01
  1.1692173e+00
  1.2750328e+00
  8.3540988e-01
 -5.9353274e-01
 -8.5837871e-01
 -4.3730831e-01
 -7.6452374e-01
  1.4066496e-01
 -2.0417520e-01
 -1.5598401e+00
 -1.5192579e+00
 -7.6735300e-01
  2.8287899e-01
 -2.6101353e+00
  3.0450556e+00
  2.5631055e-01
 -2.4056710e-01
  1.3227280e+00
 -1.1558204e-01
 -1.4305046e+00
  2.1064566e-02
 -1.1542331e+00
 -7.5064376e-02
 -9.9385756e-01
 -1.8141508e+00
  1.6677853e+00
  3.4723023e-01
 -8.4067637e-01
  1.0451121e+00
 -7.0232147e-01
 -2.1313918e+00
 -3.0311050e+00
 -5.0089586e-01
 -2.2184124e-02
 -5.5025882e-01
  9.9884254e-01
  8.3986416e-02
  6.4987189e-01
  7.5904596e-01
 -7.7925479e-01
  2.9244991e-02
 -2.3120316e-02
 -2.8402486e-01
  4.7320428e-01
 -8.3674270e-01
  3.4693494e-01
 -9.3684053e-01
 -2.2625042e-01
 -1.8726227e-01
  3.7419620e-01
  2.3436643e-01
 -2.2310585e-02
  4.0070131e-01
 -1.0799385e-01
 -2.5455356e+00
  8.2310110e-01
 -3.1831074e-01
 -2.2126729e+00
 -1.0205454e+00
 -1.1119089e+00
 -2.8430283e-01
  2.3557441e-01
 -1.5050155e-01
  7.5750041e-01
  8.2013482e-01
 -4.9999192e-02
 -2.8424728e-01
  7.3262148e-02
  1.2121792e+00
  1.6317996e-01
  1.4975232e-01
  1.1082288e-01
 -1.2242709e-01
  6.1837023e-01
  2.9287465e+00
  8.1404161e-01
  3.2546780e-01
  3.5462621e-01
  2.4295092e-01
  4.9763939e-01
 -7.1696085e-01
  1.2537177e-01
 -3.9991793e-01
  1.4885774e-01
 -7.0652860e-01
  2.3847888e-01
 -1.1584762e+00
  8.0553448e-01
 -1.2554699e-01
 -3.2016499e+00
 -5.8376919e-02
  1.1264396e-01
  7.3769164e-01
 -3.9307919e-01
  6.2975466e-01
 -3.3099896e-01
 -1.5633993e-02
  6.2564772e-01
  1.3623722e-01
 -9.4856632e-01
 -8.7471354e-01
 -2.3224659e-01
  8.1931883e-01
  5.5655539e-01
  1.1025105e+00
  9.8854965e-01
  8.5924393e-01
  5.6054628e-01
 -1.4767314e-01
  8.3857620e-01
 -4.9380207e-01
  3.0646107e-01
 -7.9524621e-02
  4.7313161e-02
  1.6794316e-02
 -4.4173661e-01
 -4.2047304e-01
  9.7130340e-01
 -1.0921371e+00
  1.3245526e-01
 -5.6448221e-01
  8.1711274e-01
  9.3544257e-01
 -2.6791499e-03
 -2.6396522e-01
  1.1724713e-01
  1.6375809e+00
 -2.8967291e-01
 -4.6707854e-02
 -1.8390678e-01
  4.2374671e-01
 -1.0712667e+00
 -1.9834280e+00
 -3.7517640e-01
 -7.1208745e-02
  1.4896862e-01
  4.3775100e-01
 -6.1170936e-02
 -1.0688745e+00
  9.8285103e-01
  7.4423236e-01
 -5.1273566e-01
  3.2481752e-02
  1.1475018e+00
  3.7532273e-01
 -1.3463847e-01
  1.2594938e+00
 -5.9436697e-01
 -2.2068417e-01
 -1.9223431e-01
 -1.5987372e-02
  5.4727566e-01
  1.5287485e+00
 -7.3871568e-02
 -1.2163763e+00
  1.0699453e+00
  6.0755289e-01
 -3.2838991e-01
  3.9118904e-01
  4.7497805e-02
 -4.9780983e-01
  1.4375386e-02
  1.3163085e-01
  1.1452209e+00
  2.0868266e-01
  9.8298512e-02
 -1.0115616e+00
  7.5052273e-01
  2.3959813e-01
  2.1884510e-02
 -6.1591578e-01
  7.2563685e-02
 -1.0828729e+00
  1.2123572e-01
 -1.0209679e-01
  1.1408077e-02
 -5.5518901e-01
  2.7355063e+00
  2.6183796e+00
  2.0225792e+00
 -4.1373104e-02
 -3.3081915e-02
  6.2748134e-01
  9.3501079e-01
 -1.2706764e+00
  2.1367149e+00
 -5.1091254e-01
 -4.3435311e-01
 -2.1519089e-01
 -9.7289717e-01
  4.8139849e-01
  9.0899998e-01
 -3.4137499e-01
 -1.0902072e+00
  2.7013974e+00
 -6.9181740e-01
  9.0491474e-01
 -4.1266266e-01
  3.9750630e-01
 -1.5016336e+00
  2.5880620e+00
  3.2106823e-01
 -6.4731336e-01
 -1.6404369e-01
  2.9788417e-01
 -3.1784631e-02
  1.1374365e+00
 -4.2879984e-02
  8.0704696e-02
  2.3845866e+00
 -1.3180965e+00
  6.8954766e-01
 -1.4411039e+00
  3.6942372e+00
  1.0583065e+00
  3.3681303e-01
  8.2689691e-01
  1.2858066e-02
 -1.8826881e-02
 -4.0593905e+00
 -1.0490003e+00
 -1.2146664e+00
  1.2103535e+00
 -1.6876568e+00
 -4.8920223e-01
  2.0444833e-01
 -1.0040796e+00
 -1.6120838e+00
  3.9263084e+00
 -7.3293132e-01
 -3.1909555e-01
  5.8246657e-02
  7.2208679e-01
 -2.3604907e-01
  1.8097225e+00
  5.0205338e-01
 -1.0988780e+00
 -1.4078543e+00
  2.0792622e-02
 -2.1021380e-01
  1.1089355e+00
  1.6219369e-01
  2.4395621e+00
 -3.8918123e-01
  1.4864781e-02
 -4.8909461e-01
 -1.7160075e+00
  1.4025216e-01
 -4.6140373e-01
 -9.9752143e-02
 -9.3481354e-02
  7.9307967e-01
 -2.8812248e-01
 -2.0021641e-01
  1.7057049e-01
 -3.6350256e-01
  5.4937463e-02
 -1.7561597e-01
 -2.1392567e-01
 -1.0436583e+00
  9.9027306e-01
 -4.1749248e-01
 -8.7917596e-01
  1.4383984e-03
  3.7988734e-02
 -2.5981167e-01
  5.5897343e-01
 -1.0796603e-01
  2.0616282e-02
  5.7340300e-01
  9.9300826e-01
 -1.5331246e-01
  1.9976120e-01
 -1.7717882e-01
 -4.0963840e-01
 -7.1463299e-01
 -2.1605976e+00
  2.2932701e-01
  6.9910932e-01
  1.1500852e-01
  8.4723425e-01
  7.0703435e-01
  3.3575803e-02
 -6.3666284e-01
 -1.3855240e-01
 -3.7588254e-02
  1.8286172e-01
  9.9290580e-01
 -1.5627928e-01
 -1.4071325e+00
 -1.3791240e+00
 -7.2335914e-02
 -2.5403792e-01
  1.7941203e+00
  9.3995295e-02
 -4.1321248e-02
  4.9733851e-02
  8.3253987e-02
  1.8646464e-01
  4.8139760e-01
 -6.3237023e-01
  1.5731914e-01
  2.0176415e-01
 -3.4557104e-01
  5.3377140e-01
 -6.9745493e-01
 -4.8687803e-03
  1.2865366e-02
  1.3620076e+00
 -5.8068782e-01
 -9.9084042e-02
  1.6717722e-01
  4.8164139e-03
 -1.2985572e+00
 -3.9883384e-01
 -4.3628183e-01
 -6.2641360e-02
 -8.5436944e-03
  5.7763362e-01
 -1.2315433e-02
  6.8923019e-02
  5.4673052e-01
 -4.5432946e-01
  1.3677918e+00
 -5.1679105e-01
  7.6288015e-01
  6.4865983e-01
  2.6816834e-02
  2.0372137e-01
 -8.4667987e-01
  1.3005841e-01
  4.8384853e-02
 -1.3865979e-01
 -2.7394411e-01
  4.1739893e-01
 -5.5001336e-01
 -2.4541281e-01
  2.4162801e-01
 -6.7449367e-01
 -3.0863488e-01
 -5.8810376e-02
 -7.6643549e-02
 -5.7633156e-01
  2.8958809e-01
  8.2965147e-01
  1.1553206e-01
 -4.3651086e-01
 -1.6722488e-01
 -4.0778145e-01
 -2.4893145e-01
 -2.2142000e-02
 -1.3395579e+00
 -3.1892380e-01
 -1.6148153e-01
 -1.2221875e+00
 -2.5256440e-01
  5.5333432e-02
 -1.6961336e-01
  1.3015692e-01
  1.1248363e+00
  5.4779720e-01
 -1.8937423e+00
 -1.5022337e-01
  4.2654067e-01
 -8.5083053e-02
  5.4622519e-01
 -2.6874844e-02
 -8.5722640e-02
 -2.7060158e+00
 -4.8372287e-01
 -1.1720133e+00
 -3.3966133e-01
  1.0965332e-01
  2.4272238e-01
  3.5399362e-01
 -4.2000195e-01
 -7.3236096e-01
  6.0015905e-01
  1.1633006e-01
 -2.1080801e-01
 -8.7272692e-01
  5.7986432e-01
 -2.5184447e-01
 -7.5401306e-02
 -1.2509739e+00
 -1.5859364e-01
  4.4039840e-01
 -9.4369745e-01
  1.3574113e+00
  2.9217678e-01
 -8.4586227e-01
  1.0967610e-01
 -1.0181961e-01
 -1.9089841e+00
 -1.3556911e-01
 -4.5692317e-02
 -3.3865494e-01
  8.9122230e-01
 -8.5156620e-02
  8.8937238e-02
 -2.4833038e-01
  5.5294853e-01
 -5.3784496e-01
  6.4419717e-02
  1.6684170e-01
 -2.2854156e+00
 -1.9259285e+00
  4.7894320e-01
 -7.4301076e-01
 -6.7419183e-01
  3.7261796e-01
  2.9423239e+00
 -2.8789394e+00
  1.8346652e+00
 -9.5313805e-01
 -1.6109018e+00
 -1.0831170e+00
  4.3286756e-03
 -1.6608720e+00
 -3.2101307e+00
  8.7012962e-02
 -1.7096038e+00
  4.3343391e+00
  2.4367886e+00
 -4.0800223e-01
  1.4144886e+00
 -1.5077519e+00
 -7.0565218e-01
  7.8137225e-01
  8.0883995e-02
  3.3541083e-02
 -5.9078521e-01
  1.2917601e+00
 -1.5167739e+00
  3.5569489e+00
 -2.8812575e-01
 -6.8844095e-02
 -1.3738891e+00
 -2.3876326e-01
 -3.4265000e-02
 -1.7328095e+00
  2.3411117e+00
 -2.8977001e-02
 -5.2152075e-02
 -6.7741442e-01
 -9.7682655e-01
 -1.8132332e-01
  8.9936769e-01
 -1.0118886e+00
  6.9212031e-01
 -3.7966976e-01
 -3.8405621e-01
  7.7116205e-03
 -2.9142540e+00
  1.3897128e+00
 -3.6525005e-01
 -2.0200393e+00
 -6.5814453e-01
 -2.0326080e+00
 -5.5580258e-01
  1.0222299e+00
  1.3935231e+00
 -5.6215596e-01
  6.2287707e-02
 -8.1199938e-01
  2.2123394e+00
 -2.4646788e+00
 -1.0018240e+00
  1.8658586e+00
  1.5550257e+00
 -3.6652455e+00
  1.8100028e+00
 -2.1206965e-01
  1.2729322e+00
 -1.0626748e+00
  1.7634634e+00
 -3.2648247e-01
  3.4816095e-01
  3.7296858e-01
  8.2159340e-02
 -1.1465281e+00
 -3.8048391e+00
 -5.2211404e-01
 -3.5403666e-01
 -1.1263869e+00
  2.6427901e-01
 -4.4498008e-02
  7.3978764e-01
 -2.3013923e+00
  6.0016000e-01
  2.1669939e-01
  2.5194481e-01
  7.9240076e-02
  3.7659499e-01
 -1.5412923e+00
  6.7721421e-01
 -2.0361350e-01
  1.2413934e+00
 -2.4335268e+00
  2.2278234e-01
 -1.2704927e+00
  3.0465012e+00
 -3.2783575e+00
  1.2315264e-01
 -1.7829517e-01
 -1.8402224e+00
  1.8375304e-01
  3.0213735e-01
 -3.6133105e-01
 -1.4163780e+00
 -2.0330560e+00
  4.1348777e+00
 -1.3900025e+00
  9.5217314e+00
  1.7798256e+00
 -4.2266434e-01
 -8.6216801e-01
 -8.0231136e-01
 -1.5026410e+00
 -1.2341058e+00
  8.6329556e-01
  8.0520129e-03
 -1.6340036e+00
 -1.5804744e+00
  3.2134190e-02
  9.1240335e-01
 -1.7029765e+00
  1.1918257e+00
  3.7337530e+00
  1.8341146e-02
  1.5540643e-01
 -1.3622755e-01
 -9.1637766e-01
  6.7114335e-01
 -1.7460383e-01
 -9.3485093e-01
  1.6242421e-01
  5.5335313e-01
  2.2248328e+00
 -1.5071234e+00
  5.1955795e-01
  5.6995228e-03
  7.9199409e-01
  8.7860696e-02
  7.6771237e-02
  3.0117410e-01
 -5.1072031e-01
 -5.4458063e-02
  3.7485325e-01
  1.2069786e+00
 -1.8027701e+00
 -3.2494967e-03
  7.2827685e-01
  2.2817087e-01
  2.2510099e+00
  1.5825197e+00
 -3.5003054e-01
 -3.0616391e-01
  3.3287880e-01
 -3.3927456e-01
 -1.3178110e+00
  6.8037376e-02
  1.0495747e+00
 -1.2474139e-02
 -4.6747977e-01
  1.0854651e-02
 -3.7794277e-01
  8.1913471e-01
  1.9434878e-01
  1.8785151e+00
  7.7220482e-01
  5.1004565e-01
 -1.8183457e+00
 -8.6520007e-03
 -1.7522535e-01
 -8.4327000e-01
 -1.5971265e+00
  3.7560228e-01
 -9.6555430e-01
 -1.8961124e-01
 -9.8246798e-02
  4.9545828e-02
 -5.0088918e-01
 -3.1024805e-01
 -5.1878743e-02
  7.9113793e-01
 -1.3512206e+00
 -2.3645966e-01
 -1.2405469e+00
  7.2157550e-01
  1.7284222e-01
  1.1243052e+00
  4.8408735e-01
  2.7121389e+00
 -1.3954706e-01
  2.1224214e-01
 -4.9673432e-01
  2.8048715e-02
  1.6761001e+00
 -4.8399025e-01
  2.2078687e-01
  2.6617518e-01
 -4.3725227e-03
  2.9062372e-01
 -1.5577236e-01
 -8.7261009e-01
  3.0223551e+00
  9.5226800e-01
 -1.5186003e+00
  1.3884810e-01
  3.2671683e-02
 -1.2857462e-01
 -7.1221933e-02
 -1.6799470e+00
  1.9186140e+00
 -1.9482602e-01
 -1.3184172e+00
 -2.5189638e+00
 -2.9740724e-01
 -1.3208522e-01
 -3.2000411e-02
 -6.5202171e-01
 -2.6147813e-01
  3.4978929e-01
 -1.4894037e-02
  3.7067372e-01
 -3.2705310e-01
  1.4740179e-01
 -2.3158364e-01
 -3.3108351e-01
  3.1441545e-01
 -8.4690474e-02
  2.6647875e-01
 -3.1870961e-01
  1.2175455e+00
  2.2293188e-01
  1.1816858e+00
  9.2977054e-02
 -9.2517543e-01
 -8.5433847e-01
 -2.6889384e+00
  2.7308999e-02
 -2.0934191e+00
  7.7015924e-01
  4.9015132e-01
  2.7405879e+00
  9.2781675e-01
  8.4282243e-01
  4.3895248e-01
 -9.8674911e-01
  8.9706784e-01
  1.2702575e+00
  1.2186106e-01
 -2.3004737e+00
  9.8478562e-01
 -1.9211589e+00
  2.1454866e+00
 -7.6014096e-01
 -3.8323990e-01
 -9.8485661e-01
  1.2977685e+00
  5.4061294e-01
  1.0104467e+00
  1.7928885e-01
  6.7612064e-01
 -4.6624160e-01
 -3.1266832e-01
  2.9610577e-01
 -1.2666475e+00
 -1.3799005e+00
  4.3619111e-02
 -8.6989284e-02
  1.1630169e+00
  3.5536939e-01
 -2.9693556e-01
  6.2012893e-01
  4.0610203e-01
  2.7878952e-01
  7.2051696e-02
 -3.1264976e-02
  1.4398416e+00
  4.3064243e-01
 -7.4438500e-01
  3.3368707e+00
 -5.1286198e-02
  1.6320213e+00
 -2.0089267e-01
  7.5420982e-01
 -1.1877436e-01
  3.6532983e-01
  3.3952460e-01
 -3.4150943e-01
  5.8279258e-01
 -8.8904369e-01
 -3.8648021e-01
  1.2428869e+00
 -1.6732010e-01
 -2.3085098e-01
 -1.9584270e-01
  4.5650193e-01
  2.0914313e-01
 -2.8695217e-01
  7.1612388e-02
 -1.2415534e-02
  1.2884893e-01
  1.0985121e-01
  2.2164163e-01
 -2.8861165e-01
 -5.3234056e-02
  7.4409902e-02
 -2.8923852e-02
 -1.1703159e-01
  1.5080638e-01
 -5.3949195e-01
  7.4271694e-02
 -3.2085952e-01
  3.9950449e-02
 -1.6523664e-01
  3.1947359e-01
  6.9720751e-01
  5.7290292e-01
  1.6134338e-01
  5.5812180e-02
  1.2013926e-01
 -1.7838907e+00
  2.5040117e-01
  6.8907328e-02
  1.4061385e+00
 -6.8555790e-01
 -2.0008275e-01
 -7.6497459e-01
  1.1439503e+00
 -2.7384217e+00
 -2.0394490e+00
  1.7768587e+00
  4.6127465e-01
  2.6560788e+00
  1.6279740e+00
  2.4758399e+00
  8.8945705e-01
 -1.6695808e+00
  9.1178083e-01
 -7.9458171e-01
 -1.3287364e-01
 -2.2821146e-01
 -3.0715781e-01
  2.9130640e+00
  2.1461680e+00
 -2.3032817e-01
 -4.6144089e-01
 -5.3896719e-01
 -2.4401982e-01
 -2.2503006e+00
  4.5973018e-01
  3.9933577e+00
 -2.1647449e+00
  2.7955565e-01
  2.7164263e-01
 -2.8049378e+00
  1.3400857e+00
  1.0722957e+00
 -4.2566898e-01
 -2.2302828e+00
  1.4526573e+00
  4.0653089e-01
 -1.1993811e+00
 -1.2067114e+00
  1.4029156e-01
 -4.4592109e-01
  1.0824433e-01
 -6.5784889e-01
  2.1596009e-02
 -3.3073810e-01
 -1.1849301e-01
  4.8822060e-01
 -5.2703452e-01
  5.7975715e-01
  9.3406588e-01
 -3.5085508e-01
  8.0478495e-01
 -3.2294083e-01
  1.4092741e+00
 -4.8727831e-01
 -1.4608641e-02
 -2.2216587e+00
 -8.7054443e-01
 -1.4721421e+00
 -7.2009534e-01
  2.2795393e-01
  1.5580131e+00
 -3.5975506e+00
 -1.8236159e+00
 -3.1932912e+00
 -7.1487093e-01
  3.4806108e-01
  8.6974239e-01
 -4.6625847e-01
  1.9650069e+00
  1.7778873e-01
 -2.8681982e+00
 -1.2748212e+00
 -2.7133498e+00
  3.6566186e-01
 -2.3577104e+00
 -4.7441748e-01
  7.4090314e-01
  1.2764906e+00
  3.7546616e+00
  5.0311647e-02
  1.0360071e-01
  9.9575716e-01
 -2.7426217e+00
 -5.2616185e-01
 -1.4081877e+00
  1.1308295e-01
 -6.5023941e-01
  1.8175593e-01
  1.3662920e+00
 -3.7549338e-01
  2.0112479e-02
  2.1573088e+00
 -2.8777442e+00
 -7.1784306e-01
 -9.8759139e-01
 -4.1048926e-01
 -2.9908034e-01
  5.3924602e-01
 -1.0874449e-01
  2.4288626e-01
  4.6384163e-02
  6.6543531e-01
  8.3016509e-01
 -1.0828542e+00
  1.2081232e+00
  1.0204054e-01
 -2.7419016e-02
  9.5921040e-01
 -3.9618927e-01
  1.8646394e+00
  1.3535237e+00
  5.3505582e-01
 -6.5017879e-02
 -3.4417048e-01
  2.5385847e+00
  4.1547798e-02
  6.2086606e-01
 -3.9710799e-01
 -1.4643831e+00
 -4.0635496e-02
  2.7273855e-01
  5.7159275e-01
  8.0795127e-01
  8.7546688e-01
  1.2120978e+00
 -2.5151789e+00
 -4.5515615e-01
  4.2628023e-01
 -9.1046351e-01
  7.2947401e-01
  2.1211941e+00
  6.5241084e-02
  1.1175591e+00
 -9.5187247e-01
 -1.8482318e+00
  5.5855191e-01
  1.6026214e-01
  2.0796993e-01
  1.0278313e+00
 -9.7062945e-01
 -1.6417931e-01
  1.2135564e+00
  1.5803237e+00
  3.2386774e-01
 -3.1220764e-01
 -5.6309777e-01
  9.2831624e-01
 -9.9425858e-01
 -1.9742434e+00
  1.1507829e-01
  1.8928568e+00
 -7.2049558e-01
  4.0133181e+00
  5.9099662e-01
 -1.3369195e+00
 -2.1085820e+00
 -6.9909197e-01
  2.1413115e-01
 -3.2849824e-01
 -7.7038944e-01
 -5.8920790e-02
  2.9836929e+00
 -3.7243640e-01
 -1.0919726e+00
  8.2898045e-01
  1.7607205e+00
 -3.6273906e-01
  1.5387263e+00
  5.1345038e-01
 -4.2907611e-01
  2.5994155e-01
 -2.1758790e+00
  2.6458445e+00
  1.6339327e-01
 -4.4233194e-01
  3.4328663e-01
  1.6012099e+00
  3.8647056e-01
  9.3053615e-01
  4.4363403e-01
  5.0903237e-01
  6.5679872e-01
  4.3608758e-01
  2.4094161e-01
 -9.8555654e-02
  1.1614716e+00
  1.8207365e-01
  6.4806223e-01
 -3.0970535e-01
 -1.8277159e+00
  9.1090739e-01
 -2.5862256e-02
 -5.3948587e-01
 -1.3321760e-01
 -2.1799299e-01
 -7.0764488e-03
  3.9380774e-01
 -5.3585631e-01
  4.7756621e-01
  6.4425319e-01
 -1.0951397e-01
 -9.0180144e-02
 -6.1615460e-02
  3.6979163e-01
 -9.2114210e-01
  5.4028094e-01
 -1.0014833e-01
 -3.2025285e-02
 -5.1922256e-01
 -8.5111983e-02
  7.2881973e-01
  7.3518187e-02
 -1.0261316e-01
 -1.1946430e-01
 -3.4787664e-01
  2.9045662e-01
 -1.5046999e-01
 -9.8498315e-02
  5.3131020e-01
  5.8763456e-01
  2.3761742e-01
 -2.2519050e-02
 -6.0257763e-03
 -1.2947780e+00
 -8.4903651e-01
  8.2219966e-02
 -2.7961457e-01
 -8.4819878e-03
 -4.7698528e-01
 -1.6907112e-01
  2.6418182e-01
  4.2792952e-01
  1.5590550e-01
 -4.5716113e-01
  1.3053837e-01
 -5.5533618e-01
  1.5047580e+00
 -4.7268891e-01
  4.3863964e-01
 -1.3668478e+00
  3.1274796e-02
 -1.5972825e+00
  9.7304273e-01
  4.6466780e-01
  1.5049566e-01
  1.0697390e-01
 -2.5782692e-01
 -1.4700505e-01
  3.2653981e-01
  2.2896214e-01
  9.1274619e-02
  1.4065144e+00
 -1.5059894e-01
  1.4412569e-01
 -6.4767343e-01
 -5.7458812e-01
  2.0243751e-01
 -2.4884115e-01
  1.7736653e+00
 -1.4514443e+00
  4.2225188e-01
  4.5530099e-01
  8.5754842e-02
 -2.1633382e-01
 -1.3804901e-01
  6.3607240e-01
  2.5341645e-01
  5.4035389e-01
  1.3271781e+00
  2.7715114e-01
 -1.0965015e+00
 -2.6458955e+00
  4.3236479e-02
 -5.0013101e-01
 -1.0345680e+00
 -1.0535463e+00
 -8.5925005e-02
 -5.6151009e-01
  1.5186146e-01
 -4.1542760e-01
 -1.7277908e-01
  3.0451548e-01
 -1.0957636e+00
 -3.4546599e-01
  1.0814151e+00
 -1.3178540e+00
 -7.1817034e-01
 -2.4738434e-01
  7.5866848e-01
  1.3858502e+00
  1.5628074e+00
  4.3578446e-01
  6.0149032e-01
  5.9591949e-01
  1.2913395e+00
  2.4628967e-01
  4.3370351e-01
  1.2984027e-01
 -2.6703700e-01
 -2.8498621e+00
  7.6469344e-01
  9.0518451e-01
 -2.0946115e-01
 -7.7179626e-02
 -1.7692021e-01
 -2.4191824e-01
 -8.5053787e-02
 -1.2049352e-01
  5.5140346e-01
 -9.6349490e-01
 -5.3216577e-01
  1.9933343e-01
 -8.1747538e-01
  9.9171156e-01
  3.7282974e-01
  6.0888130e-02
  5.7636902e-02
 -3.0800426e-01
 -1.4863177e-01
 -2.0056398e-01
 -5.3312379e-01
  2.4174233e-01
 -1.9853079e+00
  7.7167666e-01
  1.4101636e+00
 -7.6656288e-01
  7.3638596e-02
  4.9475487e-02
  1.6688559e+00
 -6.2160361e-01
  1.3467127e+00
 -6.3883498e-02
 -1.5356395e+00
 -2.2712467e+00
 -7.1660000e-01
  7.0843732e-01
 -2.3625532e-01
  1.2149569e+00
  3.5374835e-01
  9.1049039e-01
 -3.1154278e-01
  1.1390669e+00
 -4.6110520e-01
  7.0740342e-01
 -6.2099910e-01
 -2.9966125e-02
 -2.4190209e+00
 -2.1036267e-01
 -7.9763812e-01
 -7.2998250e-01
 -5.8965206e-01
  4.3280563e-01
  1.0904696e-01
  8.6220853e-02
 -8.9738643e-01
  1.4511724e-01
 -6.1135602e-01
 -3.2988798e-03
  2.8554761e-01
 -5.8731288e-01
  8.4856993e-01
 -5.0376987e-01
 -1.7381391e-01
  3.6845893e-02
  2.4792080e-01
  7.3165649e-01
  4.4219275e+00
  5.6634679e-02
  3.5017177e-01
  2.2395970e-01
 -2.3996374e-01
  2.1997106e+00
 -4.1756424e-01
 -7.4201584e-01
 -5.6281334e-01
  2.8224820e-01
 -3.8957600e-02
 -1.4442608e+00
 -2.7762914e-01
 -2.6851963e-02
 -3.8261634e-01
  8.9540645e-02
 -1.3162167e+00
 -1.1255314e+00
 -8.6869031e-01
 -1.8106805e+00
  2.4664989e-01
  1.0799489e+00
 -6.4589059e-01
  5.0354230e-01
 -1.4621632e+00
  1.5435005e+00
  2.2117028e-01
  2.5251445e-01
  3.6905769e-01
 -5.5778915e-01
  1.8914993e+00
 -1.3317894e+00
  2.6319757e-01
 -3.0221614e-01
  1.0019255e-01
 -2.1777365e+00
 -9.1533345e-01
  4.3611631e-01
  1.1261678e-02
  3.9362568e-02
  7.8116886e-02
  2.4126139e+00
  7.5155908e-01
  1.2318728e+00
 -3.7742701e-01
  2.1959186e-01
 -7.4363893e-01
 -5.7731909e-01
  1.7056972e+00
 -1.8173766e-01
 -6.0183358e-01
  1.0023645e+00
  4.4168097e-01
 -3.2228641e-02
  4.2320055e-01
  3.6644912e-01
  3.3872706e-01
 -6.9493741e-01
  9.9008220e-01
  6.1455306e-02
 -1.0674871e+00
  7.6479025e-02
  2.3806868e+00
 -2.5455534e+00
  7.3809445e-01
 -2.1876497e+00
 -2.7448216e-01
 -5.2875853e+00
  1.6270439e-01
 -1.0087923e+00
  4.4791874e-01
  1.1384231e+00
 -7.4807030e-01
 -3.6261842e-01
  6.4212143e-01
  8.3281440e-01
 -1.6918679e-01
 -1.1171647e+00
  2.5378355e-01
 -6.0425282e-01
 -1.2553275e-03
 -1.1767467e+00
 -2.9834273e-01
 -7.2710478e-01
  8.6942536e-01
  6.9256020e-01
  3.1896627e-01
 -8.9614779e-01
  6.6686141e-01
 -8.4534115e-01
  9.3757486e-01
 -4.1584539e-01
 -3.2669997e-01
  9.0494223e-02
 -3.0794936e-01
 -1.4669335e-01
  1.4149800e-01
 -2.2239377e-01
 -7.1061003e-01
 -3.8406700e-01
  1.3496411e-01
  6.4818543e-01
 -2.7250350e-01
  4.6208683e-01
  4.5615891e-01
 -3.4954169e-01
  4.3943629e-01
  9.8729575e-01
  3.9691284e-01
 -9.0579057e-01
  2.0850761e-01
 -8.0531085e-01
 -5.8836037e-01
  1.0824838e+00
  1.4957552e+00
  1.6414282e-01
 -8.7465215e-01
 -1.2593745e+00
  2.9705977e-01
  5.1098949e-01
  2.4411772e-01
 -9.0666443e-01
 -9.6217102e-01
 -2.6524296e-02
 -2.3015948e-01
 -2.9541223e+00
  8.6074626e-01
  1.0537491e+00
 -1.2546736e+00
 -3.2140869e-01
  9.2270422e-01
  7.8101683e-01
  9.9803621e-01
 -1.2550728e+00
  3.1600425e+00
 -8.9131810e-02
 -7.8867716e-01
 -7.5765294e-01
 -3.7071893e-01
 -1.1544280e+00
  7.0385683e-01
 -1.1321592e+00
 -9.0394378e-02
  1.9751778e+00
  5.5199528e-01
 -7.2373289e-01
  2.0634070e-01
 -5.5840701e-01
  2.5796466e+00
  2.1216479e-01
 -6.1195469e-01
  2.0361826e-01
  1.1885004e-01
 -4.7667673e-01
  1.9006424e-01
  4.1921037e-01
 -3.6956996e-01
 -1.2518260e+00
 -8.5216320e-01
 -9.2906035e-02
 -3.2319617e-01
 -1.4474254e+00
 -2.8150946e-01
 -6.8742722e-01
  7.7696002e-01
 -6.9788027e-01
 -5.7788181e-01
  7.5090277e-01
 -2.1064864e-01
  4.2713913e-01
 -1.9006752e+00
  5.6491312e-02
  1.9591674e+00
  1.5080252e+00
 -9.6747166e-01
 -1.6707942e-01
 -2.8940690e-01
 -2.9208273e-01
  4.8954910e-01
 -4.2575252e-01
  6.4196005e-02
 -9.8981899e-01
  5.5717528e-01
 -3.2997277e-01
  1.2264678e+00
  1.6146255e+00
  5.8244254e-02
  5.8244254e-02
  5.8244254e-02
  5.8244254e-02
  5.8244254e-02
  7.2771415e-02
  7.2771415e-02
  7.2771415e-02
  7.2771415e-02
  7.2771415e-02
  7.2771415e-02
  7.2771415e-02
  3.0430373e-02
  3.0430373e-02
  3.0430373e-02
  3.0430373e-02
  3.0430373e-02
  3.0430373e-02
  3.0430373e-02
  3.0382140e-02
  3.0382140e-02
  3.0382140e-02
  3.0382140e-02
  3.0382140e-02
  3.0382140e-02
  3.0382140e-02
  4.1350033e-02
  4.1350033e-02
  4.1350033e-02
  4.1350033e-02
  4.1350033e-02
  4.1350033e-02
  4.1350033e-02
  1.5638281e-02
  1.5638281e-02
  1.5638281e-02
  1.5638281e-02
  1.5638281e-02
  1.5638281e-02
  1.5638281e-02
  7.4903481e-03
  7.4903481e-03
  7.4903481e-03
  7.4903481e-03
  7.4903481e-03
  7.4903481e-03
  7.4903481e-03
