nep3 1 C 
cutoff 8 4 59 21
n_max 4 6
basis_size 10 8
l_max 4 2 1
ANN 100 0
  2.5615332e-01
  4.5233586e-01
 -3.8648316e-01
  4.5020003e-02
 -8.9850181e-01
 -8.9807294e-02
  3.5309717e-03
 -1.1176714e-01
  9.4553238e-01
 -4.3807942e-02
  1.2587382e-01
  7.0830114e-02
  1.0884167e+00
 -1.5993859e-01
 -2.0274252e-01
 -3.0653324e-02
  3.2148886e-01
 -1.5258595e-01
  7.4936844e-02
 -5.1913932e-03
 -2.9613802e-01
  1.2079040e+00
  1.6256410e+00
  2.4756159e-01
  2.8898215e-01
  2.4952661e-01
 -1.0449563e-01
  2.3287983e-01
 -3.0893463e-01
  8.4207237e-01
 -2.4521568e+00
  7.2254717e-01
 -1.3004891e-02
 -1.7353742e-01
  1.9894381e-01
 -5.6436405e-02
  1.3208424e-01
 -1.7143006e-02
 -3.3251584e-01
 -2.4952945e-01
 -2.4300221e-01
  9.0109211e-01
  1.3274907e-01
  4.5322073e-03
  2.9303488e-01
  8.0708504e-02
 -1.5438268e-01
 -3.0847981e+00
 -5.0558472e+00
  1.4281410e+00
 -5.8402383e-01
 -1.4910171e+00
 -4.2052972e-01
  2.6007572e-01
  1.0347710e+00
 -5.7736856e-01
 -7.0987207e-01
 -1.3403410e+00
 -2.9327362e+00
  1.0066254e-01
  1.2604033e+00
 -1.6826854e+00
 -3.2391319e-01
 -1.3073301e-01
  1.7452624e+00
 -6.1362538e+00
  1.7805113e+00
  6.6845173e-01
  9.7120563e-03
 -3.1710476e-01
  2.6690083e+00
 -8.4331371e-02
 -2.5672382e-01
  2.2852793e+00
  4.8006198e-01
 -5.7382975e-02
 -1.4256933e+00
  1.3457891e+00
 -1.9301265e-01
 -1.1888837e-01
 -2.9872017e-02
 -1.3575249e+00
 -4.8983105e-02
  1.3441704e-01
 -6.8747282e-01
  2.5141288e-02
  2.2339170e-04
  1.6533184e-01
  3.2853819e-02
  1.9767055e-02
  8.1452318e-03
  3.9025463e-02
 -9.0486996e-02
 -1.0103558e-01
 -1.0562896e+00
  5.4223257e-01
 -9.1131437e-01
  1.0333204e+00
 -1.7890679e+00
 -6.1430287e-01
  2.6588637e-01
 -1.4541401e-01
  8.7160043e-02
 -1.6729763e-01
  1.0468639e+00
  5.7558566e-01
 -3.9374909e-01
  1.1707149e-01
  4.6324074e-02
  1.2234902e-01
  2.0978692e-01
  1.2873827e-01
  1.9223167e-01
  1.4304717e-01
 -4.1803870e-01
  1.2678896e-01
 -1.7240715e-01
  1.4911200e+00
  1.6665053e+00
 -1.6002242e-02
 -7.6557791e-01
  6.4748995e-02
 -6.5744406e-01
  2.2976918e+00
 -2.3780201e-01
  1.0918778e+00
  3.2820269e-01
 -3.2527722e-02
  1.2990330e-01
  4.3876091e-01
  1.4322710e+00
 -2.9753205e-01
 -2.7584505e-01
 -1.0044381e-01
 -8.4953129e-02
 -8.7263942e-02
  8.2121402e-02
  5.2597427e-01
 -4.8973760e-01
  1.3620901e-01
  3.3160868e-01
  5.9512144e-01
  1.1631827e+00
  1.0841787e-02
 -2.0149718e-01
  8.7797612e-02
 -9.9491470e-02
  7.8037873e-02
 -1.4649096e+00
  1.1190263e+00
  9.2584968e-02
 -3.5960801e-02
 -1.6680446e-01
 -7.4728477e-01
 -7.1186411e-01
 -3.2839660e-02
  8.8183933e-01
  1.1276273e+00
 -4.3996119e-01
  4.0121165e-01
  8.6929560e-02
 -3.3052799e-01
  6.4659202e-01
  1.2012756e+00
 -6.0523623e-01
  1.1331400e-01
  6.6571730e-01
 -4.4251469e-01
 -1.7473321e+00
  6.0399848e-01
  6.8540303e-03
 -2.0709690e-01
  2.0906216e-01
  6.0969603e-01
  1.0424668e-01
 -2.9597347e+00
  8.5571073e-02
 -1.8939848e-01
 -8.3286506e-01
 -7.2860205e-01
  4.5115504e-01
  3.2295433e-01
  3.3609307e-01
  2.1266399e-01
 -1.3634124e-03
  7.8245997e-01
 -5.7754826e-02
  5.9780282e-01
 -3.1784114e-01
 -1.0197592e+00
  8.0350101e-02
 -5.1300567e-01
 -1.6886584e+00
 -8.3879602e-01
  4.5075288e-01
  3.0519083e+00
  1.5978178e+00
  2.4257243e+00
 -1.4997602e+00
  3.2592435e+00
  1.3256481e+00
  6.0284835e-01
  1.8331827e+00
  4.2254469e-01
  1.4207362e-01
  5.3952742e+00
  2.7046099e+00
 -1.9274083e+00
  8.3030868e-01
  6.2868083e-01
  9.1658749e-02
 -5.7482100e-01
 -1.0704712e+00
 -3.4134746e-01
  2.6096592e+00
  2.0832810e-01
  2.2112643e-02
  8.2904649e-01
 -3.0268755e+00
 -2.2478244e+00
 -2.0249863e+00
 -1.0949041e+01
  1.8438942e+00
  1.5665165e+00
 -3.0782874e+00
 -4.6916456e+00
  7.9922670e-01
 -1.8676589e-01
  1.5511340e-01
  2.6883602e+00
 -4.5220859e-02
  1.9413188e-01
 -3.7189388e-01
 -6.6557360e-01
  4.4173694e-01
  5.3525501e-01
 -2.0322315e-01
  3.4002808e-01
 -2.8932828e-01
  6.4330316e-01
  3.2862488e-02
 -2.0580621e+00
 -9.6824920e-01
  1.9466637e-02
  8.8528270e-01
 -2.3895617e+00
 -3.9662483e-01
  4.2050090e-01
 -9.9670732e-01
 -3.1185916e-01
  1.5159857e+00
 -4.7205958e-01
 -4.3882766e+00
 -2.1083570e+00
 -5.7475793e-01
 -1.3034338e-01
  2.3947563e+00
 -5.9516817e-01
  3.3017874e-01
 -1.7528210e+00
  8.4096611e-01
 -3.7637326e-01
 -1.5119611e+00
 -1.4457442e+00
 -4.6476383e-02
 -9.7105704e-02
  2.5335736e+00
  1.9880017e+00
  1.3649178e+00
 -1.1286416e+00
  5.0144953e-01
 -7.1915221e-01
 -2.0502307e+00
 -6.2976396e-01
  3.5674012e+00
  1.2920845e+00
  1.0265716e+00
 -2.2422692e-01
 -1.0241294e+00
 -3.8310912e-01
 -2.1868911e+00
 -1.5265507e-01
 -5.3646719e-01
 -2.4920602e-01
  2.2553343e-01
  3.4124371e-02
 -8.4682427e-02
  1.1639870e-01
 -4.7774300e-02
  9.8217309e-02
  6.2119920e-02
  2.0082045e-02
 -4.3634436e-01
  3.7011576e-01
 -4.8019797e-02
  7.1770974e-02
  2.1843834e-02
  6.9877899e-01
  5.7007214e-03
  8.7779805e-02
 -6.5216199e-02
 -1.0042562e-01
  1.5089111e+00
 -1.8375081e-01
  4.9857372e-01
 -4.7196252e-03
  9.3508162e-02
 -1.7131543e-01
 -1.3597073e-01
 -8.1380385e-01
 -6.5767370e-02
 -1.7028801e-01
  2.1413904e-01
 -4.1967940e-02
 -2.3892835e-02
  1.1431977e+00
 -1.7399412e-02
 -4.9600273e-02
 -1.5856002e-01
  2.7658600e-02
 -8.6947098e-02
 -7.1315177e-02
 -2.7569517e-01
  1.0225192e-01
 -6.6806898e-02
  1.7838120e-01
 -3.9332336e-01
  1.7972006e-01
  2.8905278e-01
 -5.5620480e-02
  3.1146926e-01
 -2.5345528e-01
  1.0359672e+00
  2.6134479e-01
  1.0006771e-01
 -2.8563640e+00
 -7.0211822e-01
 -4.8941851e-01
  7.6198560e-01
  1.4305019e+00
 -1.0231725e+00
 -1.3727750e-01
  3.7296098e-01
 -2.1893215e+00
  1.0612479e+00
  1.0502032e+00
  9.2798263e-01
 -1.6370612e+00
 -1.3273520e+00
 -4.5787734e-01
  6.9753224e-01
  1.3146658e+00
 -2.8434056e-01
  1.4784420e+00
  1.7127770e-01
  3.6285330e-02
 -4.9673788e-02
  6.5446740e-01
  4.0100950e-01
 -1.0804523e+00
 -4.1635796e-01
  2.5334084e-01
  5.3867501e-01
  3.1015572e-01
 -2.7843916e+00
 -6.2801811e-04
 -5.6448758e-01
  4.4493198e-02
 -1.6317369e+00
  1.4657567e-01
  2.4903219e+00
 -2.2096410e+00
 -2.0745307e-01
  1.5606189e-01
  2.1623619e-01
 -3.9752382e-01
 -2.2413613e-01
  1.3110341e-01
  1.6769649e-02
  1.0852160e-01
 -1.2534161e-02
 -1.8779740e-01
 -1.4913589e-01
  2.2866120e+00
  9.4336264e-02
  2.7232689e-01
 -3.0055094e-01
  8.7577438e-01
  2.7204970e-01
  2.8680518e-01
 -5.3183937e-01
 -3.7657861e-02
 -3.6705998e-01
  6.3533837e-01
 -1.8035432e+00
  2.6783692e-02
 -1.3369015e-01
 -1.3399640e-01
  1.5075447e-01
 -2.3859623e-01
  8.9906853e-01
 -1.1111029e+00
 -3.8681015e-01
  1.5150268e-01
 -1.4566708e-01
  2.2187732e-01
  7.2081941e-01
 -6.4137250e-01
 -2.2817717e+00
  8.7265080e-01
  5.4314595e-01
  2.4185656e-01
 -2.3512521e-01
  5.6920987e-01
 -1.0363901e-01
  8.1941479e-01
  1.9155854e-01
  2.2940257e-01
  1.5996356e-01
 -2.9182902e-01
  2.5956383e-02
 -4.7780413e-02
 -1.0591200e-01
 -2.7824467e-02
  1.1725926e-02
 -2.1544588e-03
  6.0123954e-02
  2.2931790e-01
  2.4868929e-01
  2.2029350e-02
 -1.5745066e-01
  2.1257620e-01
  5.1943447e-02
  3.5737097e-01
  7.1478896e-02
  3.8011420e-01
 -1.9196732e-01
 -1.1853926e-01
 -5.2537084e-01
 -2.0121625e-01
 -1.4134570e+00
 -7.4839972e-02
  1.0208131e-01
  2.8861988e-01
  1.6810052e-02
  1.9857397e-02
 -8.9401770e-01
 -3.0574653e-01
 -5.7910895e-01
 -4.0560302e-01
 -5.8591968e-01
 -1.4300913e-01
 -9.3499772e-02
  2.0310591e-01
  1.1515535e-01
 -4.1195714e-01
  3.4984219e-01
  3.3888423e-01
  2.7495340e-01
  1.3103049e-01
 -5.7263190e-01
 -7.4920379e-02
 -5.0270373e-01
 -5.8567309e-01
  1.5453669e-01
 -2.5614139e-01
  1.4001103e-01
  2.2939217e-01
  2.7694437e-01
  2.3869926e-01
 -5.9228259e-01
  1.5510484e+00
  8.7318420e-02
  5.1735613e-02
 -1.4832277e+00
  1.0704216e+00
 -3.5467017e-01
  6.9018030e-01
  4.1007802e-01
  5.6641477e-01
  2.7734029e+00
 -4.4406455e-02
  5.2727336e-01
  1.4979002e+00
  1.2419582e-01
  1.0748893e+00
  4.3368179e-02
  5.5962586e-01
  2.9558462e-01
 -1.0353851e-01
 -2.4714228e-04
 -1.6023442e+00
 -1.5596066e+00
  3.2124621e-01
  1.4780147e+00
 -2.4092318e-01
 -3.3173436e-01
 -6.4698830e-03
 -2.8387797e-01
 -6.5427119e-01
  1.1450884e+00
  5.1944667e-01
  9.9094945e-01
 -8.1087232e-02
  1.9787045e-01
 -6.1943799e-02
 -1.1647365e-01
 -4.0632388e-01
  6.7627653e-02
  5.9436653e-02
  7.1934289e-01
 -1.4147834e-02
 -1.0672931e-01
  8.4209464e-02
 -2.3778941e-01
 -1.9354606e-02
 -3.6631194e-01
  1.1694285e-01
  1.4038119e-01
  1.3025229e+00
  6.6590160e-01
 -2.0949116e-01
  2.5324765e-01
 -1.6257441e-01
  1.5121792e-01
 -4.1070987e-02
 -2.6219255e-01
 -3.2818311e-01
 -5.9634432e-02
  3.7342176e-01
  3.5345045e-01
 -1.4817421e-01
 -9.1789342e-02
  2.8697082e-01
 -1.2289467e-01
 -2.9629305e-01
 -2.1855831e-01
  1.8392977e-01
 -6.4345375e-02
 -8.5552752e-02
  1.0362428e-01
 -3.5785213e-01
 -2.1975260e-02
 -5.3520773e-02
 -7.1713768e-02
 -9.0810008e-02
 -7.7419221e-01
  6.7990667e-01
 -5.2574523e-02
 -7.8486815e-02
 -2.6779911e-01
  9.8938870e-01
  6.2711962e-02
 -6.7831606e-02
 -5.1165033e-02
 -1.9577293e-01
  1.0615551e-01
  6.8350948e-02
 -5.9313286e-02
  4.3858169e-03
  2.5939536e-01
 -1.8871816e-02
 -4.3043679e-01
 -8.0000561e-01
 -2.0201497e-01
 -1.2656796e-01
  5.6937821e-02
 -8.1241643e-01
 -6.7930025e-01
  1.9363080e+00
 -4.8820050e-03
 -2.6053336e+00
 -5.9240367e-02
 -3.2473722e-01
 -4.5242560e-01
 -1.0098029e+00
  1.7535411e+00
  4.7696400e-01
  1.4631201e-01
  4.4030018e-02
  1.2515790e+01
 -6.1447299e-01
 -2.5740367e-01
  1.8644771e-01
 -1.3158643e+00
 -1.7129312e+00
 -4.8833215e-01
 -3.8112104e-01
 -3.2161278e-01
  2.1978791e+00
  7.7601767e-01
 -6.6824398e+00
 -8.2727921e-01
  7.4995440e-01
 -7.9831135e-01
 -1.1822779e+00
 -7.9571247e-01
 -2.2503061e+00
 -5.4228503e-01
  5.0025523e-01
 -2.8560516e-01
 -1.7796582e-01
 -1.0803487e+00
  4.2798284e-02
  7.9098448e-02
 -9.4428474e-01
 -5.0377458e-01
  5.0748950e-01
  2.9366896e-01
 -5.4101235e-01
  6.3956701e-03
  4.2425528e-01
  6.9853449e-01
 -3.5483915e-02
 -3.6442682e-01
 -1.8952856e+00
  1.7365156e-01
 -2.4904266e-01
  1.3549933e+00
  6.6784686e-01
 -8.2353067e-01
  1.0026178e+00
 -1.9579123e+00
  2.4204928e-01
  1.8249493e+00
  1.6838038e+00
 -7.9781614e-02
  1.2818679e+00
  4.6215072e-01
 -9.7940886e-01
  5.9157532e-01
  3.4255570e-01
  3.2056129e-01
 -2.6158181e-03
  4.4475916e-01
  1.1764864e-01
 -3.7650594e-01
  4.1904829e-02
 -1.0065223e-01
 -1.0262350e+00
 -8.9079392e-01
  2.0340722e+00
  2.2601495e+00
 -4.1987184e-01
  3.9658901e-01
  6.3211274e-01
  1.0573319e+00
  1.0932299e+00
  1.0836924e+00
 -5.9005415e-01
  1.1722348e+00
 -7.1184438e-01
 -3.4810278e-01
  6.4909625e-01
  1.1437532e-01
 -6.1264217e-02
  2.4380093e+00
 -1.3617355e-01
  1.6564997e+00
 -2.7842360e+00
 -1.1022326e-01
 -4.8439828e-01
  8.7554222e-01
  6.5388560e-02
 -1.6467916e+00
  3.1279671e-01
 -2.9072252e-01
  1.0868840e+00
 -2.2839284e-01
 -1.1186520e-01
  8.2207650e-01
 -6.7041612e-01
 -6.8769658e-01
 -1.7371572e+00
 -2.5081614e-01
 -9.2974323e-01
 -3.0573252e-01
 -2.8168204e-01
 -1.0192410e+00
 -8.6545533e-01
  3.2325643e-01
 -2.3842922e-01
 -4.0620440e-01
 -1.0615107e+00
  3.9143169e-01
 -3.1840464e-01
  5.4329467e-01
 -3.2684922e+00
 -5.5503696e-01
  7.8345615e-01
 -1.9952603e-01
 -5.1290828e-01
 -1.9103894e-01
  1.3100418e+00
 -1.4391033e-01
 -1.2208039e+00
 -1.1558903e+00
  2.1821678e+00
  4.7525036e-01
  5.9349579e-01
 -1.3233089e-01
 -1.0698153e+00
 -1.1184005e-01
 -1.8254594e+00
 -5.5227313e-02
  7.9368949e-01
 -2.5963238e-01
  1.2858070e+00
 -4.8583290e-01
  2.0117576e+00
 -2.3123457e-01
 -3.1097487e-02
  2.1519661e-01
 -3.1813505e-01
 -2.8021362e+00
 -3.8574457e-01
 -3.6774311e-02
 -3.2140309e-01
 -6.1694568e-01
 -7.2767687e-01
 -5.7362628e-01
 -6.3305479e-01
 -4.5124793e-01
 -1.0858157e+00
 -1.5780486e-01
 -1.1827590e+00
 -3.0322698e-01
 -1.5279753e+00
 -3.1959087e-01
 -7.6999053e-02
 -1.1414960e-03
  6.0468268e-01
 -6.4215630e-01
 -2.5863597e-01
 -1.2548758e-01
  1.2185282e-02
  3.0780745e-01
 -1.1726423e-01
  1.3768638e+00
 -1.8471637e+00
  1.3869970e-02
  8.9341223e-02
 -7.6315171e-01
  1.0125332e+00
 -8.7629527e-02
  1.4313847e+00
 -3.2226000e-02
 -9.8547727e-02
 -1.5997862e-02
 -4.1320655e-01
 -3.8666898e-01
 -7.4789576e-02
 -1.8184502e-02
 -5.5701703e-01
  2.9034859e-01
 -1.9500355e-01
 -1.1241206e-01
  2.3314206e-01
  1.2400110e+00
  1.5148200e-01
  3.7827751e-01
 -2.5162146e+00
  2.2653325e+00
  3.4990568e+00
 -1.1826675e+00
  1.3402900e+00
  5.0474340e-01
 -9.1152810e-02
 -2.7161496e+00
  1.0526270e+00
 -2.3040693e+00
  1.0311643e+00
 -3.5082810e+00
 -2.1485078e+00
 -2.4325566e+00
  2.8850260e-01
  1.7121539e+00
  7.4566919e-01
  1.1357435e+00
 -7.8326911e-01
 -1.0011580e+00
  2.0118277e-01
 -2.2423375e-01
  1.2931859e-02
  1.2354383e+00
  1.2789215e+00
 -1.0540679e+00
 -1.0170138e+00
  7.5697458e-01
 -9.9645650e-01
  7.2327830e-02
 -5.1862019e-01
 -2.5948161e-01
  9.2248601e-01
  1.3845715e-01
  1.2399298e-01
  2.4481604e-01
  1.7345891e+00
 -4.4966459e-01
 -1.6367052e+00
  7.4755043e-01
 -6.8541408e-02
  6.1789894e-01
  3.6950189e-01
 -9.9842584e-01
 -6.2719023e-01
 -2.6312408e-01
  9.9387795e-02
  2.2358174e+00
  1.4216514e+00
 -4.2706790e+00
  8.0441397e-01
 -1.8323189e+00
  2.3100529e+00
 -1.5215669e+00
  3.3697119e+00
 -4.0157948e+00
  1.3798306e+00
  8.7563437e-01
 -2.7925932e+00
 -2.2946644e+00
 -1.2224962e-01
  5.3489727e-01
 -5.6052840e-01
 -5.1079494e-01
 -9.6164197e-01
  1.1434470e+00
 -2.0197837e-01
 -5.1987123e-01
 -2.0905797e+00
 -3.2861432e-01
  3.7275583e-01
 -1.6158189e+00
 -2.8356332e-01
  3.8899264e-01
  2.0223598e+00
 -1.0025000e-01
 -2.8803802e+00
 -2.5409930e+00
 -3.9164729e-02
  2.2391008e-01
  9.4609547e-01
 -7.3532671e-01
 -8.1690766e-02
  2.6501188e-01
  1.5496887e-01
 -1.8528923e-01
  4.4472587e-01
 -1.8806857e-01
 -2.5879964e-01
 -6.1211324e-01
  1.0711865e+00
  6.9982910e-01
  8.7153338e-02
  6.3910306e-01
 -1.2439279e-01
  1.8393254e+00
  2.6753831e+00
  6.5395421e-01
  2.1896324e-01
  2.7111810e-01
  4.3826882e-02
 -5.5536544e-01
  9.0468889e-01
  1.9101864e-01
  8.3168578e-01
 -3.5559975e-02
 -2.7173346e-01
  1.7868828e+00
 -5.5439746e-01
  4.6134120e-01
  4.5642981e-01
 -3.8474402e-01
  1.0046866e+00
  2.1026197e-01
  1.2640982e+00
 -7.9992151e-01
  4.0934500e-01
 -3.8672345e+00
 -8.3976108e-01
  2.7216718e-01
  1.2761666e+00
  6.9886021e-02
  2.7782905e-01
  7.6373662e-03
 -3.2015109e-01
  4.8703557e-01
  1.6367137e-03
 -4.4759050e-01
 -5.4415256e-01
  1.0589962e-01
 -2.7835044e-01
 -3.4303653e-01
  3.3791029e-01
 -5.5320096e-01
  7.7456892e-02
  1.5491927e+00
  6.5205479e-01
  9.9549510e-02
  3.5325891e-01
  8.2013565e-01
 -6.3579522e-02
 -2.0377281e-01
  5.1346654e-01
 -1.7130325e+00
 -3.7811470e-01
  1.4872441e-01
  7.4225485e-02
 -6.6145486e-01
  4.9820108e+00
 -1.2510660e+00
  3.2092950e+00
  8.1931897e-02
 -1.1669409e-01
 -1.4153577e-01
 -5.8777094e-01
  4.8026872e-01
 -4.7928590e-02
 -4.8008731e-01
  3.1639117e-01
 -7.1459270e-01
 -8.5251647e-01
 -1.7959782e+00
  2.9832378e-01
  4.2362726e-01
 -6.4305431e-01
 -2.1205190e-01
  1.3200730e+00
  2.0009077e+00
 -6.5169764e+00
  4.1451769e+00
  1.9067414e-01
 -1.4531218e+00
  1.2893459e-01
 -1.6593841e+00
 -6.2168330e-02
 -2.2713494e-01
 -1.0175034e-01
 -5.4347229e-01
 -6.8313122e-01
  3.5706946e-01
 -3.2081169e-01
 -1.1689814e+00
 -1.0964006e+00
 -4.3996698e-01
  1.5997230e+00
 -8.5794646e-01
 -3.4624647e-02
  3.5788518e-01
 -1.5127355e-01
  3.3347920e-01
  1.7319688e+00
 -2.6894155e+00
 -3.6959331e-02
  1.4454914e+00
  2.4350397e-01
 -5.0589099e+00
 -3.3073923e-01
  2.5482811e-02
  4.3953601e-01
 -1.0932105e+00
  3.6770162e-01
 -1.0204670e-01
 -1.0142598e+00
  2.9913628e-01
 -7.5974876e-01
 -1.1297096e-01
  2.9916907e-02
 -6.1050963e-01
 -5.4694903e-01
 -8.9400405e-01
  1.9034928e+00
  4.7193396e-01
  5.8289903e-01
  6.6815060e-01
  2.6751816e-01
 -4.3072373e-01
  1.6093539e+00
  6.7702693e-01
 -2.8459895e-01
 -1.9502650e-01
 -4.6628860e-01
 -6.6474818e-02
  4.9392107e-01
  5.3392714e-01
  2.6461175e-01
  1.0769758e-01
 -4.7124151e-02
  2.1110961e+00
  1.7908922e+00
  1.8844731e+00
  1.5066808e+00
  1.3026592e+00
  3.1496683e-01
  5.7833344e-02
  2.3340683e-02
  2.2872901e-01
 -1.2354870e+00
 -1.2820674e-01
  1.3546948e+00
  5.7183033e-01
 -2.8331301e-01
 -6.6870935e-02
 -1.7263675e+00
 -6.3683316e-02
 -7.2051400e-01
 -1.0115866e-01
 -5.7534295e-01
  1.5445264e-01
  9.2098546e-01
  5.8804739e-01
  1.2421293e+00
  1.3628192e+00
 -4.5939900e-02
 -2.3244100e+00
 -4.3930029e-03
 -1.5825826e+00
 -7.5360274e-01
  3.4653839e-02
  4.6013865e-01
  4.5630357e-01
 -5.4021549e-01
  3.5805756e-01
 -2.1491773e+00
 -4.8027453e+00
 -1.2250644e+00
  6.9919564e-02
 -3.2886329e-01
  2.9786339e-01
  1.4105755e+00
 -1.4453802e-01
  1.7506914e-01
  1.2796929e-01
  1.4397123e-01
  2.8204396e-01
  3.3222747e-01
 -2.8371820e-01
  3.9725608e-01
  9.9970877e-02
 -1.0816135e+00
 -5.3186178e-01
 -1.4923339e-01
  9.4974369e-01
  1.8360454e-01
 -1.3578586e-02
 -2.3116369e-02
  2.9986030e-01
 -4.7872755e-01
  7.7346236e-01
  8.9842401e-02
  1.8448254e-01
 -1.2311644e-01
  1.9062467e-01
  2.0500761e-02
  3.1956512e-01
  9.1422743e-01
  1.2410279e-02
 -4.4698757e-01
 -4.7231555e-02
 -5.7843540e-02
  1.8918231e-01
  1.2372914e-01
 -1.8897790e-01
 -2.7689338e-01
 -3.1943655e-01
  5.6864715e-01
 -2.2392477e-01
  5.9594929e-01
  2.5248227e-01
  9.2253827e-02
 -1.2762348e-01
  2.5300333e-01
  2.7711187e-02
  3.2680601e-02
  4.2762015e-02
 -2.7622616e-01
  2.2464404e-02
 -1.4616548e-01
 -5.1349204e-02
  1.1951881e-02
  7.3882967e-02
 -3.4689927e-01
  2.6734212e-01
 -2.7202909e+00
  9.9473846e-01
 -4.9735686e-01
 -1.4751871e+00
  5.2837031e-03
  3.7158185e-01
 -1.1292400e+00
 -5.7625395e-01
  6.1662018e-01
  1.5894186e-01
 -3.8861939e-01
  7.1326643e-02
 -1.4218275e-01
 -1.3561614e+00
  4.2465094e-01
 -2.1834034e-01
 -2.3864961e+00
  3.6630485e-02
 -2.1449590e-01
  1.6413675e-01
 -1.1345971e+00
 -1.3973325e+00
 -1.4286622e+00
  3.7246385e-01
 -1.3004448e-01
 -2.3411022e-01
 -1.2848153e+00
 -4.4393042e-01
 -9.9422073e-01
 -2.7224877e-01
  1.0680127e-02
 -8.2317746e-01
 -2.2544852e-01
  8.0865812e-01
  2.8317511e+00
  1.1762868e+00
 -4.7356316e-01
 -3.5732558e-01
  1.9201276e-01
 -1.7156610e+00
  5.3559166e-01
  1.4148469e-01
  6.8635798e-01
 -9.8062378e-01
  2.0795247e-02
 -8.2028493e-02
  7.0642263e-01
  1.0471710e+00
 -1.1761363e+00
 -6.8582362e-01
 -5.4261440e-01
  1.9937164e+00
 -4.3902880e-01
 -4.4664735e-01
 -7.7200282e-01
  4.1494805e-01
 -1.1267986e-01
  2.2888076e-01
  7.0854390e-01
  4.8816052e-01
 -3.2208616e-01
 -4.1408636e-02
  9.1934013e-01
  5.8297351e-02
  5.4705232e-01
  1.2377555e+00
  4.5838827e-01
  1.4525394e-01
  4.6603444e-01
  2.4464842e-02
  8.2995754e-01
 -6.7115799e-02
 -8.4470230e-01
 -6.1765850e-01
 -8.3525544e-01
  1.9836566e-01
 -2.9844785e-01
 -1.9270828e-01
 -6.1759097e-03
  3.3493435e-01
  4.7758439e-01
  3.2989380e-01
 -3.5106263e-01
  5.0426245e-01
  1.6593147e-03
 -1.5691547e-02
  8.6206011e-02
 -2.1897843e-01
  2.3395284e-01
  1.8242766e-01
 -8.1626810e-02
  5.0355650e-02
 -2.3853263e-02
 -9.2312127e-02
  1.0716702e+00
 -5.6418663e-01
 -4.6387661e-01
  7.6248847e-02
 -1.3084599e-01
  1.0115363e-01
  3.4781042e-01
 -4.0645534e-01
  2.2138993e-01
 -1.7556382e-02
  4.5588769e-02
  3.1276187e-01
  6.0392016e-01
 -6.8128765e-02
  2.0641726e-01
 -1.5813354e-01
 -6.5291084e-02
  1.3961466e-01
  7.8439921e-01
  2.7013558e-01
 -5.0676301e-02
  8.0169302e-01
 -6.3184935e-01
  1.5318334e-01
  6.1184990e-01
 -2.1424033e-01
 -5.3282845e-01
 -5.9032327e-01
  3.9810568e-02
 -7.6820689e-01
  3.6342883e-01
  2.7597722e-01
  1.7390333e-01
  1.6000280e-01
  1.8500146e-01
 -2.0805335e-01
  1.6026212e-01
 -9.6142524e-01
 -5.4036021e-01
 -1.0420917e-01
  4.0977257e-01
 -1.2436526e-01
 -1.8749414e-02
  1.2529099e-01
 -1.8245516e-03
 -7.4480873e-01
 -2.7078825e-01
  5.2373290e-01
 -2.0042610e-01
 -3.0211341e-01
 -5.1096368e-01
  5.2896506e-01
 -1.7115531e-02
  4.8861627e-02
 -5.4876935e-02
  1.3365130e-01
 -1.3657077e-01
 -2.6359496e-01
  4.1054317e-01
  5.5544746e-01
  2.6480140e-02
 -6.8817604e-03
 -1.5047126e-01
  8.8362038e-02
 -1.7897160e-01
  4.9636945e-02
  3.4168622e-01
 -1.5745476e+00
  3.7822622e-01
 -1.5823369e-01
 -1.1943422e-01
  5.5547446e-01
 -2.7993441e-01
 -5.5208504e-02
  5.5471245e-02
  3.0940187e-01
 -1.6157231e-01
  1.9164793e-01
 -1.2416346e-01
  4.5806788e-02
 -2.7303949e-01
 -2.2784233e-01
 -5.0946653e-01
 -5.2836731e-02
  6.2339883e-02
 -7.1137798e-01
  1.8642946e-01
 -1.6368702e-01
  9.1730654e-02
  3.3452815e-01
  4.5248330e-01
 -9.8646864e-02
  2.6555037e-01
  1.7645352e-01
 -1.1440467e+00
 -1.1579549e+00
 -5.4034710e-01
 -7.4828327e-02
 -8.6299098e-01
 -6.5444452e-01
 -1.9179287e+00
 -5.4981458e-01
 -2.4896742e-01
 -1.4233899e+00
 -5.2573526e-01
  5.5381745e-02
 -4.2809051e-01
  7.9238445e-02
 -8.9960879e-01
 -4.4702080e-01
  4.3125218e-01
 -2.3155069e-01
 -1.7966923e+00
 -1.5794605e+00
 -2.6058620e-01
  6.6573131e-01
  9.5502758e-01
 -2.3381700e-01
 -3.1445953e-01
 -9.9223799e-01
 -1.5202003e+00
 -4.7104555e-01
  1.6770989e-01
 -8.5102558e-01
 -4.4645110e-01
  3.0776646e+00
 -9.6516140e-02
  6.7614591e-01
  3.5723355e-01
 -2.7510378e-01
 -1.6163156e+00
 -1.5041310e-01
  2.9644963e-01
  7.0483649e-01
 -5.4465228e-01
 -3.2248590e+00
 -1.7988151e-01
 -9.1670114e-01
 -1.9367936e-01
 -9.6758753e-02
 -7.5191587e-01
 -4.5284981e-01
  8.3763653e-01
  6.7369407e-01
 -8.8051105e-01
 -1.4098343e+00
  1.5637740e+00
  1.4162735e+00
 -8.9811003e-01
  5.1589477e-01
 -1.9871967e+00
 -5.3554188e-02
  8.4224814e-01
  4.0370542e-01
 -1.8105817e+00
 -9.6821582e-01
  1.6049424e-01
  6.0366113e-02
  1.1942451e-01
 -9.5943582e-01
  9.1250531e-02
  8.9059448e-01
 -5.7509456e-02
 -2.8234980e-01
 -1.0784754e-01
 -4.4542664e-01
  7.5366634e-01
 -5.3928439e-02
  4.4431102e-01
 -1.2654042e+00
 -2.0674901e+00
  4.5722613e-01
 -2.3570201e-01
  5.3537798e-01
  3.4026158e-01
  3.1089869e+00
 -4.5672116e-01
 -1.7715205e-01
  1.8842250e-02
 -3.2244024e-01
 -5.0637567e-01
 -1.0905547e-01
 -5.8132283e-02
 -1.2671311e-01
  3.2111600e-01
 -3.0280846e-01
  1.1444517e+00
 -4.0436375e-01
 -3.9214826e-01
  2.9457572e-01
  5.6313932e-01
  3.7769267e-01
 -7.8305280e-01
 -9.1796243e-01
  4.2126173e-01
  3.9979142e-01
  3.1906283e-01
 -6.8728179e-01
 -6.2813944e-01
 -1.0042226e-01
  1.0113071e+00
 -3.8441223e-01
  5.9100330e-01
 -1.7016766e-03
 -9.0114325e-03
 -1.6526420e-01
  5.8918208e-01
 -4.2343673e-01
  1.9146577e-01
  8.7512034e-01
 -2.4162218e-01
 -8.6935145e-01
 -6.7140244e-02
  5.7113327e-02
  7.7792561e-01
 -6.7511153e-01
  5.0673068e-01
 -3.8974473e-01
  1.0727770e-02
  6.0515010e-01
  5.2167070e-01
 -7.6063231e-02
  2.5852194e-02
 -1.7981673e-02
  1.4810857e-01
  2.6344702e-01
  2.4006261e-01
 -3.2218856e-01
 -3.2068673e-01
  7.4717861e-01
  1.1001150e-01
  6.8179861e-02
 -3.0623558e-01
 -1.2605357e-01
 -6.6161148e-02
 -8.8679218e-01
  1.8359736e+00
  1.2189467e+00
 -1.2835056e-02
  1.2840114e+00
 -7.2234827e-01
  8.5531592e-01
  9.1476780e-01
 -7.7885300e-01
 -3.1706660e+00
 -8.6365008e-01
  1.0199905e-02
 -3.0503899e-01
 -1.3342818e+00
  9.7206223e-01
 -2.7041121e+00
 -7.4849337e-01
 -5.2825636e-01
  4.1869864e+00
  4.3432695e-01
  6.4917788e-02
  1.5352235e+00
 -3.1426486e-01
  4.0063646e-01
  1.3546782e+00
 -1.6138535e+00
 -6.6373423e-02
 -5.9482459e-02
  1.6242890e-01
  1.7745306e+00
  2.9540646e-01
 -1.2643954e+00
 -9.4723105e-01
 -2.7784505e-01
 -1.7259587e+00
  9.8619443e-01
 -8.6418968e-01
  3.3303723e-01
 -1.1640153e-01
  6.3164204e-01
  4.4323063e-01
  2.2376840e-01
 -4.2475011e-02
 -6.7438036e-01
  2.7976865e-02
 -4.3007091e-01
 -1.3566177e-01
  1.3490969e+00
  1.1267478e-01
  9.3912458e-01
  1.1303917e+00
 -1.3620144e-01
  9.9102962e-01
  5.0177559e-02
  5.9362525e-01
 -6.1889950e-02
 -2.7476273e-02
  6.7232564e-02
 -6.7789100e-02
  6.0519320e-01
 -1.1116793e-01
  1.1213343e+00
 -1.4155149e+00
  7.1259625e-03
 -7.1770074e-03
 -1.0916209e+00
 -1.5078795e+00
 -3.6284372e-01
  8.3295155e-01
  7.7889937e-01
  4.7185135e-01
  5.2865094e-01
  7.0076950e-02
  1.0388972e-01
  1.4476610e+00
  4.6435234e-01
 -4.4976521e-01
  8.7473613e-01
 -2.6000303e-01
 -2.1532036e-02
  1.1414817e-02
 -1.1030729e+00
 -1.9802622e-02
  4.1348487e-02
  4.5157086e-02
 -9.3064168e-03
  1.7868121e-01
  3.4993976e-02
  3.3916536e-01
  5.2794535e-02
 -2.4000846e-02
 -3.1800571e-01
 -4.9594872e-02
 -8.6971116e-01
 -3.1872210e-01
  5.2846197e-02
  1.0938486e+00
  1.6117825e-01
  1.5349187e-01
 -1.4289519e-01
 -6.0491168e-01
 -1.6512799e-01
 -3.9494693e-01
 -3.3397958e-02
 -7.6771897e-01
  2.2814007e-01
 -6.5256214e-01
  1.3122508e-01
  7.3648095e-02
 -1.3367862e-01
  4.2302203e-01
 -7.9639614e-01
  1.4297146e-02
  2.1020155e-01
 -4.2223293e-01
 -2.0450494e-01
 -5.3924650e-01
 -3.0062610e-01
 -4.2261136e-01
 -9.7498846e-01
 -2.8952850e-02
  2.4453667e-01
 -5.8799607e-01
 -1.0171634e-01
 -4.4859696e-02
 -3.8552603e-01
 -6.7337262e-03
  5.1521593e-01
 -1.2344939e-01
  9.9184906e-01
  1.3455425e-01
  1.8796669e-01
 -1.8898436e-01
 -2.7088288e-02
 -1.0810017e-01
  4.7072953e-01
 -4.0435683e-02
  4.9772520e-02
 -4.6560553e-01
 -1.7548682e-02
  3.5667732e+00
  2.4712548e+00
 -1.3888928e-01
 -1.1438653e+00
  1.6985797e+00
  1.9542234e+00
  6.3045281e-01
  8.9327687e-01
 -2.4467465e-01
  2.2306330e+00
 -3.1640920e-01
 -2.7093906e+00
 -1.2150261e+00
  8.5913032e-01
  2.5024557e-01
  1.6391796e-01
  1.8857177e-02
  1.2383778e+00
 -1.1287471e+00
 -1.2539586e+00
  2.0145373e+00
  2.4828219e+00
 -1.5556969e-01
 -1.0011530e+00
  8.5593098e-01
 -2.5372360e+00
 -1.6401141e+00
  2.2049895e-02
  1.4095836e+00
 -1.6442578e+00
 -2.5351954e+00
  1.4260576e+00
  1.2995197e-01
 -1.7527248e+00
 -1.5764952e-01
 -4.8455408e-01
 -4.6636190e-02
  9.2039645e-01
  4.8977628e-02
 -1.5931861e-02
  3.4437582e-01
  2.8819147e-01
  6.5428190e-02
 -5.1061356e-01
  2.1713606e-01
 -1.2543622e-01
  4.6727133e-01
 -3.0701416e+00
 -1.2431437e+00
  8.3516675e-01
 -3.8786611e-01
  4.3243661e+00
 -1.9697069e-01
  1.2879609e+00
 -2.5010031e-01
 -9.0489817e-01
  2.9263480e+00
  6.3167524e-01
 -3.8223279e+00
  2.0305359e-01
 -4.4333977e-01
 -1.3495639e-01
  6.7358869e-01
  2.9607189e-01
  3.1333063e+00
  9.5336151e-01
 -3.9650857e-01
  2.2932081e-01
 -8.7641239e-01
  1.0827371e+00
  3.2867700e-01
 -2.6366951e+00
 -1.1673318e+00
 -2.3285882e+00
 -4.8506014e-02
  1.4037378e+00
 -1.0638225e+00
  3.1592524e+00
 -1.5062215e+00
 -1.6541679e-01
 -3.4203771e-01
  2.5751104e+00
 -3.1908951e+00
  3.9923754e+00
  8.1899369e-01
 -4.5819265e-01
 -3.4409046e-02
 -1.2286321e+00
  4.9768172e-02
  5.1034871e-02
  3.6592674e-02
 -8.4244698e-02
 -9.5605798e-02
  1.3403402e-01
 -2.7616164e-01
 -2.5352538e-01
 -3.2095179e-01
 -1.3594863e-01
  1.2933874e-01
 -2.7205625e-01
 -4.5785388e-01
  1.9737687e-02
  4.9194106e-01
 -3.5970396e-01
  5.7319447e-02
 -2.7511278e-01
  1.4358713e-01
 -4.3920663e-01
 -7.2731480e-02
  8.5246101e-02
  4.8567787e-01
 -5.7506129e-02
 -2.8035238e-01
 -6.9156282e-02
  1.3068429e-01
  1.1647251e-01
 -7.8873441e-02
  1.5727243e-01
 -3.7772217e-01
  6.5734856e-02
 -4.4663984e-02
 -6.6166888e-03
  4.9799296e-01
 -1.1294723e-01
 -1.3801403e-01
  8.3096243e-02
 -4.7849572e-01
 -1.1980858e-02
  9.4685726e-02
 -1.7312847e-01
 -3.8388103e-02
  9.1585942e-02
 -3.2077941e-01
 -1.7489839e-01
  2.2799560e-01
  4.5120314e-01
 -8.0521744e-01
 -2.0086882e-01
  3.0025673e-01
  5.2561510e-02
 -2.4140669e-01
  9.1516741e-02
 -1.0570027e+00
  1.2622753e+00
  4.3557650e-01
 -9.6795994e-01
  2.1650269e+00
  4.5046802e+00
  2.0798987e-03
  3.8197079e-01
 -8.4038895e-01
  1.2855015e+00
  1.0945507e+00
 -2.0910873e+00
  2.0647179e-02
  7.9581660e-01
  1.5292344e+00
  2.4738009e+00
 -1.8598877e+00
 -2.3867130e+00
  5.1994449e-01
  7.7630097e-01
 -3.0788568e-01
 -1.4244293e-01
  6.0075611e-01
 -7.0409137e-01
 -1.8804486e+00
 -2.1998649e+00
  4.5324811e-01
  4.6857965e-01
  2.6774234e-01
 -5.0687158e-01
  2.3716480e-02
 -1.5185666e+00
 -1.4917095e+00
  8.3219893e-02
 -1.8292179e+00
 -1.2937301e-01
  1.0537876e+00
  1.3515027e-01
  1.2412368e-01
 -5.0363296e-01
 -1.3166838e+00
  2.6406273e-01
 -3.1152664e-02
  2.9074070e-01
 -6.8616033e-02
 -1.5104290e+00
  5.1301688e-01
  1.8954204e-01
  1.2797568e+00
  2.5596866e-01
 -1.0632644e+00
  9.0593505e-01
  2.4414983e-01
 -8.4416561e-02
  1.0134363e+00
 -9.0559202e-01
  6.3158190e-01
 -1.6819819e+00
 -3.5742566e-01
  5.6007624e-01
  7.0783371e-01
 -5.6663752e-01
 -5.0098544e-01
 -1.4660205e+00
 -3.0318120e-01
  4.1372165e-01
 -5.2357948e-01
 -5.1485431e-01
 -4.6354654e-01
 -2.8177521e-01
 -1.8996283e+00
  2.9586914e+00
  3.3029208e-01
  1.5399998e-02
  3.8700917e-01
  4.4695079e-01
  7.3016000e-01
 -1.4676181e+00
  1.1149720e+00
 -4.1188499e-01
 -1.1403024e+00
 -1.4767289e+00
  3.4499176e+00
 -4.4063193e-01
  2.0408938e+00
  2.1867740e-01
 -1.6101735e+00
  2.7224818e-01
 -2.2665069e-01
 -9.9715167e-01
 -2.0980537e+00
 -3.8996872e-02
 -1.7578676e+00
 -1.0445786e+00
 -3.9851694e+00
 -9.8731190e-01
 -3.0341456e+00
 -6.1815476e-01
  1.1647364e+00
 -4.6240434e-02
 -1.9809091e+00
 -1.1089776e-02
 -1.3762676e+00
  2.0992999e+00
  5.5172062e-01
 -3.5801724e-01
  6.2614697e-01
  2.0292544e+00
  2.0977060e-01
  1.0282460e-01
  3.2166736e+00
  4.8865867e-01
 -1.2423998e+00
 -1.4675697e+00
 -3.7415358e-01
  7.8049815e-01
 -7.9006881e-01
 -5.9789467e-01
 -3.1216803e+00
 -6.9896549e-01
 -1.0359490e-01
  4.8793161e-01
 -1.7586454e+00
 -2.4550908e+00
 -6.5855342e-01
  2.7038291e-01
  6.2470637e-02
  3.3330700e-01
 -4.8243399e+00
 -4.0131661e-01
  6.6058055e-02
 -9.7480589e-01
  1.1631511e+00
 -8.5161194e-02
 -3.5102332e-01
 -9.2113781e-01
 -5.3872198e-02
  1.4522862e+00
 -3.0857816e-02
  7.4403858e-01
  2.4124020e-01
  1.7770138e-01
  6.7876674e-02
  4.7192410e-01
  4.9723235e-01
  8.5271567e-01
 -9.6230048e-01
  5.9283578e-01
 -4.2207867e-01
 -2.5912926e-01
  1.3166146e-01
  1.7608240e-01
 -7.0567876e-02
 -7.0710719e-01
 -7.5471264e-01
  2.1370608e-01
 -8.9194667e-01
  3.4424675e-01
  4.7753012e-01
  5.7726914e-01
  1.2102280e+00
  4.0930372e-01
 -1.2815961e-01
  2.5953972e-01
 -3.3056709e-01
 -1.2668057e-01
 -2.4977057e-01
  8.7267911e-01
  8.4646130e-01
  3.5209307e-01
  2.3108543e-01
  3.9826836e-02
 -4.2631339e-02
 -1.2494735e-01
  9.7278938e-02
  3.6991966e-01
 -9.2193407e-01
 -7.7678895e-01
 -6.4618044e-02
 -7.4093263e-03
 -8.7415472e-02
 -1.0064057e-01
 -1.6872510e-02
 -3.5183229e-02
 -7.6469280e-02
 -1.8054181e-01
 -7.2362471e-01
  1.4805444e-01
 -9.8228282e-01
 -7.7624202e-01
 -1.4887469e+00
 -5.2866715e-01
  8.6566204e-01
  1.1326054e+00
 -2.0948260e+00
  1.3482867e-01
 -6.4149088e-01
  1.9115070e-01
 -2.2442842e-02
  4.5862287e-01
  4.4715887e-01
 -2.0472983e-01
 -3.1798103e+00
  2.9534242e-01
 -1.4625925e-01
 -1.1599890e+00
 -5.9657001e-01
  1.4074287e+00
 -5.1877528e-01
 -4.2500004e-02
  9.1461998e-01
  9.0679753e-01
 -6.4578407e-02
  1.4044303e+00
  2.5815383e-01
 -1.3017262e+00
 -1.6570723e-01
  5.2187288e-01
  4.8618650e-01
 -5.0297493e-01
  2.8998759e+00
 -2.4293451e-01
 -2.0981581e+00
  5.5732167e-01
  7.8924000e-01
  5.2264285e-01
 -4.0458837e-01
  3.4756544e-01
  1.4042085e-01
 -2.4575807e-01
  1.8768847e-01
  2.8781861e-03
 -5.6092430e-02
  6.7007869e-01
 -1.4840198e+00
 -3.1763095e-01
  1.5570806e+00
 -1.3800454e-01
 -1.3146622e+00
  1.6724746e+00
  1.7811000e+00
  5.6149546e-02
  3.0774680e-01
  3.5508945e+00
  5.8630377e-01
 -1.5121293e+00
 -3.2952290e+00
 -3.3701773e+00
 -5.7523280e-01
 -7.6717770e-01
  2.7243524e+00
 -9.7193897e-02
  4.9589041e-01
 -2.6155943e-01
 -6.1709023e-01
  9.4786108e-01
  1.9448990e-01
  3.2864448e-01
 -1.6807120e+00
 -1.1078351e+00
 -1.5173970e+00
 -1.0798886e+00
  4.5778212e-01
  2.0450895e+00
  1.0689178e+00
 -3.7769860e-01
  4.0218120e+00
 -9.7312862e-01
 -1.7409596e+00
  2.0764761e+00
  4.4654794e+00
 -8.2698750e-01
  8.7011701e-01
 -1.8715134e+00
  2.2517008e-01
 -4.5231399e-01
  1.5514879e+00
 -1.4059393e-01
 -2.9235667e-01
  2.5136015e-01
  8.6147928e-01
  3.1599906e-01
 -5.9793496e-01
  8.2532310e-01
  2.1230648e-03
  5.8195812e-01
 -1.8255095e-01
 -1.8532766e-01
  1.7574844e+00
  5.8474940e-01
 -2.6593670e-01
  3.3723345e-01
 -3.9151239e-01
 -3.9388466e-01
  2.2585301e-01
 -4.6051301e-02
  6.7859775e-01
 -6.5174794e-01
  3.6766583e-01
  1.4295956e+00
 -2.7488223e-01
  1.1126208e+00
 -6.7515421e-01
 -2.2454277e-01
  1.4543623e-01
 -4.5294169e-01
 -1.0390694e-01
 -7.1641177e-02
 -1.1097868e-01
 -6.8720639e-02
  4.9695268e-01
 -2.1994053e-01
 -2.2630010e-02
  3.0126032e-01
 -1.3243490e+00
 -5.0044483e-01
 -6.3591853e-02
 -4.9435475e-01
 -1.8155177e-01
  1.6432753e-01
  3.6572346e-01
 -9.4174123e-01
 -6.2851578e-01
 -1.2300395e-01
 -3.7076807e-01
  2.4683423e-01
  6.0330653e-01
  3.9199535e-02
 -3.8649848e-01
 -9.6002869e-02
  8.0306120e-02
  1.4899738e+00
 -7.2365993e-01
 -1.0429245e+00
  8.3721036e-01
 -3.1624532e-01
  1.6491546e-01
 -5.5609906e-01
  9.0917391e-01
  1.1561981e+00
  4.2107216e-01
 -7.2150755e-01
 -1.0196159e+00
  1.0472358e+00
  1.6058330e-01
 -4.7210237e-01
  4.3984103e+00
 -9.7863659e-02
 -9.0430826e-01
 -2.0300312e+00
 -5.6210738e-01
 -8.3172423e-01
 -2.0467903e-01
  2.6331556e+00
  1.5322946e-01
 -4.1200772e-01
 -2.1301021e-01
 -2.8325962e-02
  3.0995386e+00
 -7.6571661e-01
 -1.2627465e+00
  8.1212485e-01
  1.6316943e-01
  2.1616995e+00
 -1.1262705e+00
  7.5916052e-02
  1.1748527e-01
  2.2197729e-01
  1.3908174e+00
 -3.7248155e-01
 -1.7528509e-01
  3.5075530e-01
  3.6889096e-03
 -6.2138543e-02
 -6.3582104e-01
  4.9175286e-01
  6.2688820e-02
 -1.4922717e-01
 -1.1059463e+00
  1.4486553e-01
 -4.9700651e-01
  1.9087745e+00
  2.0990294e-01
 -1.0445718e-01
  1.5432990e-01
  3.7485716e+00
  8.5404927e-01
 -6.5115130e-01
 -9.5535779e-01
 -1.0538018e-01
 -1.5880589e+00
 -1.0604445e+00
  6.5987244e-02
 -2.2410595e-01
  9.7091150e-01
  1.2548703e+00
 -8.8474691e-01
  6.2371337e-01
  5.5126238e-01
 -1.1567461e+00
  2.6739672e-01
  1.3135861e+00
  8.1998566e-03
 -3.3259645e-02
  3.2961807e+00
  1.0825592e-01
  1.7957710e-01
  1.2424450e+00
 -2.2321596e+00
 -1.5534967e+00
 -1.1599201e+00
  2.6986253e+00
 -8.9073789e-01
 -2.4810009e-01
 -8.4437348e-02
 -1.4109319e-01
  3.3304816e-01
  6.8442023e-01
 -1.4951476e-01
 -6.3079721e-01
 -1.1205611e+00
 -4.7660545e-02
  8.5249647e-02
 -5.2425213e-02
  1.6907388e-02
 -5.2059221e-01
  1.0499446e-01
 -4.5622203e-01
  2.8634858e-01
 -2.7489579e-01
  8.5796364e-02
 -8.0611043e-02
  6.9340058e-02
 -1.0802206e+00
  1.0351147e-01
  1.9692294e-01
  5.0183825e-02
  5.3842004e-02
 -6.8636501e-01
 -1.6024068e-01
  5.9960198e-01
 -1.2965284e-01
 -4.6083010e-03
  9.9598162e-02
 -3.4337768e-01
 -1.7606474e-01
 -7.2128147e-02
  2.7454033e-01
  8.2019889e-01
 -7.7837330e-01
  2.7341431e-01
  2.2137108e+00
 -1.0132558e+00
  5.7026488e-01
  1.5319151e-01
 -1.9220263e-01
  1.3293914e-01
 -2.8389159e-01
 -2.2593871e-02
 -1.4864907e-01
 -5.6502080e-01
 -1.9519131e-01
  8.6276168e-01
  3.3474296e-01
  3.6342692e-01
  6.8203211e-02
  2.9662478e-01
 -3.2685991e-02
 -8.3090746e-01
 -1.3779330e+00
 -2.5329590e-01
  8.2265943e-01
  5.9407085e-01
 -2.4556901e-01
 -9.4620687e-01
  3.2289290e-01
 -6.9977689e-01
 -3.1295342e+00
 -1.6031933e+00
 -3.5956106e-01
  1.6883817e-01
  2.7247891e+00
 -9.1828871e-01
 -1.1955279e+00
 -2.9942402e-01
 -2.8764901e-01
  1.2019815e+00
  5.6678957e-01
  1.3123302e-01
  3.0847308e-01
 -6.0999453e-01
 -3.7321892e-02
  4.0649481e+00
 -2.0437278e-01
  1.1860456e-01
 -2.1343973e-01
 -7.0968741e-01
 -3.2887933e-01
 -1.8761803e-01
  1.0069509e+00
 -9.3680364e-01
  1.6156135e+00
  4.1762900e+00
  1.6062902e+00
 -4.9204278e-01
 -2.7159603e+00
  1.9863857e+00
 -2.1741253e-01
 -6.1296797e-01
  7.2356439e-01
 -1.3291696e+00
 -7.8780448e-01
 -6.2160414e-01
  3.1640390e-01
  3.0285001e-01
 -5.5970270e-02
 -3.2086649e+00
 -2.4765384e-01
  8.8892871e-01
 -8.5322398e-01
  1.6200769e+00
  1.8750718e-01
  2.6220089e-01
  9.3172055e-01
 -1.0762661e-01
  1.3804795e+00
  9.9101520e-01
 -9.5584208e-01
  5.9927072e-02
  6.7174762e-01
  2.6073077e-01
 -8.8285786e-01
 -2.5087205e-01
  3.2869309e-01
 -3.0877632e-01
  5.1775062e-01
 -1.2344143e+00
  2.5398999e-01
  3.3025834e-01
  6.6825427e-02
 -8.4254706e-01
  1.8473797e-01
 -7.3665143e-03
  1.4779581e-01
 -6.6512221e-01
  1.7482704e+00
 -4.9087542e-01
  1.0306438e-01
 -3.5554510e-01
  1.7350493e-01
 -1.3845887e+00
  5.4447937e-01
  1.2448622e-01
 -1.4586066e-02
  1.2911506e-01
  2.3369846e-01
 -3.9854705e-01
  9.4595623e-01
  7.3778522e-03
 -6.0846198e-01
 -5.1559883e-01
 -1.0440200e-01
 -1.1963336e+00
  3.1112209e-01
  3.2947549e-01
 -1.3580614e+00
 -5.7381922e-01
 -5.0867093e-01
 -1.9231031e+00
 -2.3759017e+00
  1.6203131e-01
 -2.5434234e+00
 -2.1148653e+00
 -6.3946354e-01
 -1.3469972e-01
  9.6038230e-02
  9.0095842e-01
 -6.3310975e-01
 -1.3378637e+00
 -6.9485509e-01
 -6.5456647e-01
 -2.0551450e+00
  1.3042151e+00
 -7.7986741e-01
 -9.3446910e-02
  4.6109781e+00
 -1.5475842e+00
  1.8532757e+00
 -1.2612748e-01
  1.1670824e+00
 -7.6392412e-01
  7.7352542e-01
  8.5153466e-01
  4.6047822e-01
 -2.6329436e+00
  9.5944680e-02
  1.7680137e+00
  5.0288024e+00
  7.1260113e-01
  2.7613595e+00
 -5.3767204e-01
 -3.3384643e-02
  1.6417441e-01
 -1.2121426e-01
 -2.1129337e-01
  1.1718335e-02
 -3.3484455e-02
 -1.8633987e+00
 -7.2542131e-02
  2.2416529e-01
 -1.5717044e+00
 -6.0985422e-01
  5.7797545e-01
 -7.3566598e-01
 -7.2034756e-03
  2.7813978e+00
 -2.5488400e-01
  6.8923879e-01
  1.0141124e+00
  8.0463284e-01
 -1.3365668e-01
 -1.5687223e-01
 -1.1311194e+00
 -9.3340653e-01
 -2.3368792e-01
  1.7025355e+00
 -2.6605513e+00
  5.7298630e-01
  1.7896241e-01
  1.7964472e+00
  1.5126050e+00
  2.7581964e+00
  4.7875768e-01
  4.4921520e-01
 -4.7187725e-01
  1.2898984e+00
 -4.7039992e-01
 -5.8757514e-01
 -4.7952765e-01
 -3.9934777e-02
  2.1226124e-01
  2.6177910e-01
  8.2673758e-02
  5.4640174e-02
 -1.5072156e-01
 -2.9544170e+00
 -9.8408349e-02
  7.2551623e-02
  7.2182320e-02
  1.0220645e-02
 -2.4002616e-01
  5.0708896e-01
  2.2485793e-01
  2.6550075e-01
 -1.8684202e-01
 -6.4284995e-02
 -1.0717880e-03
  4.4888261e-01
  2.7267069e-01
 -2.2311161e-01
 -1.3867679e+00
  1.0211625e-01
  1.4059721e+00
 -6.2980431e-01
  2.0059926e-02
  8.7867981e-01
  1.9402082e+00
 -9.4777429e-01
 -1.3201416e+00
 -1.3293993e+00
 -4.5097387e-01
  2.0875055e-01
  4.0960860e+00
  6.7586493e-01
  1.7440506e+00
  1.6470032e+00
 -5.9392817e-02
  6.7802912e-01
  3.6127490e-01
  1.0321261e-01
  7.1898520e-01
  1.3120557e+00
  2.9935107e-01
 -2.4774888e-01
  2.1400766e-01
 -1.6770226e-01
  1.0389008e-01
  1.3022125e+00
  2.9295298e-01
 -1.1759316e+00
 -1.4647527e+00
  2.1910388e+00
 -3.0064864e+00
  4.9914490e-02
  5.1974970e-01
 -1.3386552e+00
  4.1319039e-01
  5.5250324e-02
  1.9408550e-02
 -2.1072203e-01
 -5.3725386e-01
 -1.4797808e-01
  2.3909342e+00
  5.3208238e-01
  5.9399289e-01
 -1.5696195e+00
  8.6579034e-03
 -1.1844997e-02
 -3.8289553e-01
  2.0643073e-01
 -5.6105876e-01
 -4.5669797e-01
  1.1409137e+00
 -2.0694494e+00
  6.3809931e-01
  2.7338621e-01
 -5.4904854e-01
  2.8733471e-01
  4.7622019e-01
  1.0497739e-01
  4.0929589e-01
 -3.9157793e-02
 -9.2876589e-01
 -7.5810081e-01
 -1.5060558e+00
 -1.3471469e+00
 -7.9784095e-01
  9.7941846e-01
  1.1837528e+00
 -1.0300952e+00
  7.0240659e-01
  2.2417553e-01
  1.3514295e+00
  8.4753521e-03
  3.3542165e-01
 -2.8886197e+00
 -8.6097175e-01
  1.3277140e+00
 -2.3948803e+00
 -2.4711184e-01
  2.7651286e+00
 -1.5253527e+00
  8.7619758e-01
 -1.5969429e+00
  1.3819891e+00
 -2.2804371e-01
  6.5023017e-01
  6.7957741e-01
 -2.5377184e-01
  1.4391632e-01
 -3.1719163e-02
  2.4218261e-01
  7.1650334e-02
  1.2343915e+00
  9.5013779e-01
 -1.1154000e-01
  2.4032046e-01
 -2.2927219e-01
  3.2795408e-01
 -2.2956993e-01
  2.1025181e-01
 -1.2033353e-02
 -9.7621106e-02
  7.3193170e-02
  1.0630617e-01
 -2.9526508e-01
  2.8361326e-01
  7.1526277e-01
  6.5363073e-01
  5.3665423e-01
  1.6644000e-01
  3.9592758e-02
  1.0079496e-01
  3.9441311e-01
  1.2126751e+00
 -1.1858549e+00
 -2.8914696e-01
  8.5323542e-01
 -6.6579849e-01
  3.0897078e-01
 -4.5700538e-01
 -4.0376502e-01
 -8.3804733e-01
  7.0900381e-02
  6.3955534e-01
  2.8276080e-01
 -2.2639371e-01
  1.1424658e+00
  2.1901418e-01
  6.0545611e-01
  4.4479787e-02
 -5.2801138e-01
  1.2440202e-01
 -5.2144140e-01
  5.0983155e-01
 -6.7149341e-02
  4.7570372e-01
  1.9463331e-02
 -3.0445905e-02
  1.0520080e+00
  6.9666177e-01
  1.0947154e+00
 -6.8056101e-01
  5.7371241e-01
 -2.2137511e+00
  2.5844593e+00
  2.0599103e-01
  7.8349531e-01
 -2.2468839e+00
  1.7708744e-03
  6.8527359e-01
 -7.2809505e-01
  7.8559387e-01
 -6.7168587e-01
 -3.0133755e+00
  8.7838924e-01
  7.0877612e-01
 -3.5636345e-01
  1.5435516e+00
 -3.7048960e-01
 -6.6904068e-02
  1.1681030e+00
 -1.4176575e+00
  2.2423904e-02
 -9.6612483e-01
  1.3044178e+00
 -6.0163110e-01
 -1.0945333e+00
 -1.1537973e+00
 -7.1491319e-01
  4.3260884e-02
 -1.0525084e-01
  2.5766604e+00
 -3.1862619e+00
 -6.2320930e-01
  9.9773568e-01
 -1.9340870e-01
  8.7136173e-01
 -6.5470791e-01
 -6.1181450e-01
 -1.0521068e-01
 -4.0779144e-01
  6.0356963e-01
  4.1092023e-02
 -1.3444600e+00
 -1.5072545e-01
 -1.6459574e+00
  3.6770448e-01
 -1.3836166e+00
 -7.7684194e-02
 -1.4148064e-01
  1.3694346e+00
  5.6377345e-01
  2.6531696e+00
 -1.5758396e+00
  1.4159795e+00
 -1.4950348e+00
 -2.3513088e+00
 -1.8813897e+00
 -1.0454137e+00
 -1.3136719e+00
  8.1087667e-01
  1.1895538e-02
 -6.8368471e-01
  1.0245525e+00
 -3.3586374e-01
 -6.7896450e-01
  1.6681528e+00
 -9.7014642e-01
 -1.0765121e+00
 -1.5987644e+00
 -1.6051146e+00
 -2.1458952e+00
  2.4348052e+00
  1.6829159e+00
  1.2658010e+00
  8.3429211e-01
  1.0062927e+00
 -2.6322752e-01
  8.6309277e-02
 -6.1259359e-01
  1.9103705e+00
  2.4465466e-01
  5.1156479e-01
  1.2886462e-01
  2.0695926e-01
  1.5467696e+00
 -7.1447641e-02
 -1.3087645e+00
 -9.7852182e-01
  1.1478810e-01
 -2.0533283e-01
 -1.7140671e+00
  7.9101197e-02
  4.0540385e-01
 -6.0686324e-02
 -8.9543676e-01
 -1.6558125e+00
  1.8268033e+00
 -5.8763533e+00
 -5.4620844e-01
  1.1190065e+00
  1.5109496e+00
  2.0913780e+00
  6.7661238e-01
  3.3786926e+00
 -3.7828986e-02
  1.0445751e+00
 -1.1039402e+00
 -5.0865080e-02
  2.7153450e-01
  1.3203562e+00
 -2.2717501e-01
 -1.1245506e+00
  1.1280193e+00
  5.1183877e+00
  1.3361858e-01
  9.6135330e-01
  4.8570430e-01
  6.7822027e-01
 -1.5823851e+00
  5.1487565e-01
  2.7871134e+00
  1.1734381e+00
 -9.6508467e-01
 -1.2955952e-01
  1.7874088e+00
  1.5665723e+00
 -1.4822854e+00
 -5.9393722e-01
 -6.4713424e-01
  5.2657801e-01
  1.3590737e-01
  1.2473022e-01
  2.2783043e+00
  6.9059223e-01
  2.1554396e+00
 -3.3773489e-02
 -1.0812708e-01
 -6.5671200e-01
 -1.0164124e-01
  1.1754913e+00
  1.2300556e-01
 -1.0814600e-01
  7.5240493e-01
 -1.1085758e+00
 -9.0044922e-01
  1.6864018e+00
 -8.7459779e-01
  1.5759866e+00
  8.8430822e-02
  8.6857092e-01
  1.3328629e-02
  9.1496384e-01
  8.3269453e-01
  1.3100508e+00
 -3.5285402e-02
 -1.9202918e+00
 -1.5472873e-01
 -1.8336667e+00
  5.0061911e-01
  7.7013415e-01
 -2.8735323e+00
  1.5432628e+00
 -1.9766572e+00
 -1.3832550e-01
 -7.1454728e-01
  1.5194945e-01
 -3.6418924e-01
 -3.6577246e-01
 -5.1451904e-01
  3.2735612e+00
 -1.4513518e+00
 -2.2258325e-01
 -7.2408277e-01
 -1.0714220e-01
 -1.7562251e-01
 -3.4162186e-02
 -6.2896132e-02
  7.1312231e-01
 -1.9216499e-01
  1.7517163e-01
 -1.1236105e-01
  7.7792764e-02
 -7.1415114e-01
  9.0164226e-01
 -2.5851029e-01
 -7.5568452e-02
 -1.1815119e+00
 -1.5876294e+00
  1.6469785e+00
  2.9449105e-01
 -1.1707266e-01
 -8.2644987e-01
 -1.6945740e+00
 -1.8301491e-01
 -2.0654316e+00
 -2.3812773e+00
 -2.2758522e+00
  2.1105953e-01
  1.0971875e+00
 -6.0805714e-01
  5.5467385e-01
  4.1534414e+00
 -2.4560979e-01
 -2.5648468e+00
  1.2076572e-01
  2.7670588e+00
  3.1782813e+00
 -2.6730102e-01
 -2.1086698e+00
 -3.3011076e-01
 -8.3908767e-01
  5.5043596e-01
 -1.2136974e+00
 -1.8374782e+00
  1.4073231e+00
  7.5395918e-01
 -2.7953959e-01
 -2.5426643e+00
 -1.2025579e-01
 -3.0377090e-01
 -5.5233294e-01
  7.5740314e-01
 -1.4740026e+00
 -6.3256599e-02
 -1.0491735e+00
 -6.0100985e-01
  9.0107858e-02
 -1.0293856e-01
  1.6630077e-01
  6.2912710e-02
 -2.1656442e+00
  2.9295748e-03
 -1.2007521e+00
 -1.1402558e-01
 -1.2198752e+00
  4.9619281e-01
 -2.1652961e-01
  3.9237675e-01
  8.0579126e-01
 -1.3606292e+00
 -7.9494590e-01
  1.7445054e+00
 -2.2073725e-02
 -3.9141744e-01
 -6.1961061e-01
  1.5135264e-01
 -1.4564657e+00
  2.0376484e-01
  1.2216858e+00
 -5.1109201e-01
 -7.2800416e-01
 -1.1953411e+00
  4.9197161e-01
 -1.4119048e+00
 -4.2346844e-01
 -1.3984467e+00
  1.0081940e+00
 -1.2697389e+00
 -2.2684175e-01
  5.0174069e-01
 -1.0625756e+00
 -7.9727620e-01
 -1.6608994e+00
 -3.8308873e+00
  2.8843679e+00
  5.0383723e-01
 -1.3833957e+00
 -1.1838510e+00
  2.3000081e-01
  2.7976307e-01
  2.7639619e-01
  1.0185938e+00
 -2.8810349e-01
 -7.9274930e-02
 -3.6354327e-01
 -5.0289501e-02
  2.6356825e-01
  6.2255919e-01
 -2.9783979e-01
 -1.1212432e+00
  1.2179562e+00
 -7.5080556e-01
  2.0358819e-01
  1.7878959e-01
  2.6500943e-01
  1.7719244e+00
  5.3480971e-01
 -4.5504939e-02
  8.9898807e-01
 -1.3465188e+00
 -1.6307782e-01
  7.4315000e-01
 -4.1202910e-02
  1.0743904e+00
  2.7397612e-01
 -5.7061613e-01
  1.6280323e-01
  3.8286418e-01
  5.5227542e-01
  7.5823075e-01
  2.2137971e+00
 -9.7431252e-03
  9.6056551e-01
  9.7277182e-01
 -1.2740259e-01
 -3.2483975e-03
 -9.2474997e-01
  2.3303971e+00
  3.2167104e-01
  7.3067527e-03
 -3.1032518e-01
 -2.3505791e-01
  1.8924366e-01
  1.4147288e+00
  1.1599710e+00
 -4.8164878e+00
 -7.4350101e-01
  8.1070639e-02
  9.2296988e-01
 -4.5545898e-02
  7.6304924e-01
  5.1327300e-01
  1.7360378e-02
 -2.9287565e-01
  1.2453327e-01
  3.9402410e-01
 -1.9610332e-01
  4.6078691e-01
 -1.1907178e+00
 -7.9966784e-01
  9.8216432e-01
  4.7393417e-01
 -8.1049627e-01
  2.6904078e+00
  1.1708778e+00
  2.3426229e-01
 -1.8331069e+00
 -1.0633588e-01
  3.1069044e-03
  6.2706945e-03
 -3.3748884e-02
 -1.1740923e+00
  3.5944998e+00
 -2.1382113e-01
  6.2462813e-01
  2.6270717e-01
 -2.1190977e-02
  1.8445106e-01
  1.3176200e+00
  1.1732466e+00
 -4.0087318e-01
 -8.0307925e-01
 -2.7951288e-01
 -2.0070038e+00
  1.9489165e-01
  4.2128239e+00
  1.6483785e+00
 -2.2528088e+00
  9.4262397e-01
  5.1563411e+00
 -6.1284509e+00
  1.9148184e+00
  1.9461924e+00
 -1.9346775e+00
  2.4008533e-01
  5.9828234e-01
  8.3877392e-02
 -1.2518520e+00
  1.1600001e-01
 -7.3112679e-01
  1.5230869e-02
 -2.1467993e-01
  3.9195067e-01
  3.7737298e-01
  9.1612440e-01
 -7.0364308e-01
 -3.0702266e-01
 -4.0446866e-01
 -1.9182926e-01
  1.2373297e+00
  2.0768340e-01
  2.6921895e+00
 -1.4011190e+00
 -2.0697367e+00
 -2.8055325e-01
  7.9985887e-01
  7.5921583e-01
  8.6602104e-01
  3.3471319e-01
  1.4332045e+00
 -9.9121785e-01
 -4.2087221e-01
 -1.8986473e+00
  4.9937186e+00
  1.5560112e+00
  1.8126985e-01
  3.3468512e-01
 -4.0701413e-01
 -1.4581811e+00
  1.0520685e+00
  1.1573856e-01
  1.2724498e-01
 -6.8746990e-01
  1.2313706e+00
  1.4327320e+00
  2.4813882e-01
  5.3678179e+00
  1.2419683e+01
  9.5573545e-01
  1.5490354e+00
  9.9917710e-02
 -2.0675706e-02
  6.8488473e-01
 -7.6397759e-01
 -4.2887437e-01
  8.6227790e-02
  4.2789033e-01
 -1.6309794e-03
  9.7392416e-01
  7.6644719e-01
 -5.2340013e-01
 -4.6137422e-01
 -1.5778948e+00
 -3.8525817e-01
  1.3996030e-01
  4.9505988e-01
  1.7085209e-01
  5.3745311e-01
 -6.8212479e-01
  3.6376780e-01
  2.1164082e-01
 -1.8078643e-01
  2.9067892e-01
  2.8774405e-01
 -1.3442418e-01
  6.2532037e-01
  2.6369578e-01
  6.8663853e-01
  5.7038409e-01
  1.3243917e+00
  2.6275894e-01
 -9.3824637e-01
  5.2448714e-01
  7.6969939e-01
  3.9806080e-01
  1.9490011e-02
 -5.1904690e-01
  1.3251424e+00
 -4.6676686e-01
 -7.7718049e-01
 -4.5824489e-01
 -9.6522456e-01
  2.3318193e+00
  1.9256748e-01
 -7.9298735e-01
  4.1865196e+00
 -1.6519499e+00
 -4.8810801e-01
  1.6415882e-01
 -1.5384135e+00
  1.1197276e-01
 -5.8457327e-01
 -1.5438540e-01
 -7.9410136e-01
  2.1263929e-01
 -5.7817813e-02
  3.1922349e-01
 -1.4553048e-01
 -1.9809746e+00
  7.6624580e-02
 -7.7210210e-02
  3.1095168e-01
 -4.7137108e-02
 -1.0607743e-01
  4.0396702e-02
 -9.0174943e-02
 -1.1834758e-01
  1.5001297e-03
  6.9983996e-02
  5.8425885e-02
  1.0619672e-01
  7.8068167e-01
  6.2400546e-02
 -3.9503953e-01
 -4.0328324e-02
 -1.0322976e-02
  2.3113066e-01
 -3.7402543e-01
 -1.1691999e-02
  7.4714297e-01
 -6.1668761e-02
  8.4882557e-02
 -5.5909444e-02
 -1.1453695e-01
 -6.2117938e-02
 -4.4861268e-02
  9.3661249e-05
 -2.0322828e-01
 -1.3190651e-01
 -3.4745565e-01
  2.5634262e-01
 -1.0238768e+00
  3.4473453e-02
  7.9141629e-01
  3.2648015e-01
  4.9398634e-01
  1.1589070e-01
  4.5311514e-01
  1.3889191e-01
 -4.1149995e-01
  3.0715063e-01
 -3.7494093e-01
 -7.2719473e-01
  3.7440944e-01
  8.2531624e-02
 -6.6527084e-02
 -1.8205960e-01
 -7.1800387e-01
 -3.4640121e-01
  1.1959278e-01
  1.2742688e-01
 -1.5473258e-01
  5.0333507e-02
 -2.7221283e-01
 -1.3906434e-01
  7.2086936e-01
  2.9851843e-03
  2.8996211e-01
 -1.8485057e-01
  1.2825419e+00
  1.0586893e-01
  9.6509375e-02
 -5.4512825e-02
 -1.7493540e+00
 -4.7740930e-01
  1.7062728e-01
  6.0837463e-02
  1.2925808e-02
  3.0484354e-02
 -8.5403323e-01
 -1.1469389e-01
 -7.2440445e-02
  1.5415876e-01
 -1.5308434e-01
 -1.5757039e-01
 -1.2303150e+00
  3.9319962e-01
  7.9337597e-01
  1.6319948e-01
 -1.5733778e-01
  9.6910453e-01
 -2.3979610e-01
 -4.9880255e-02
  2.4998003e-01
  5.4197837e-02
 -2.2688588e-02
  1.2868267e-01
  1.5780137e-01
  3.8935599e-01
  3.5754663e-01
  6.0657188e-03
  7.5366884e-02
  6.2603444e-02
  7.8880382e-01
  3.8464934e-01
 -5.1439083e-01
 -3.3541191e-01
  4.7599876e-01
 -1.0051795e+00
  1.7394865e-01
  5.1459992e-01
 -4.0377879e-01
 -1.7993772e+00
  2.7815327e-01
  3.9769661e-02
 -8.8526648e-01
 -4.3635041e-01
  5.4445976e-01
  3.6623159e-01
  4.0033039e-01
  5.8750387e-02
  1.0345402e+00
 -4.6224767e-01
 -8.0594651e-02
 -6.4224577e-01
 -2.3260675e-01
 -2.5961906e-01
 -5.5562639e-01
 -7.5242221e-02
 -9.1937023e-01
  5.6989294e-01
 -1.1436479e-01
  5.5862248e-01
  3.0146495e-01
  2.4925482e-01
  8.9960849e-01
 -2.4718473e-02
 -2.8250229e-01
  4.2410199e-02
  2.8241712e-01
 -7.6466464e-02
  8.0786452e-02
  4.0120751e-02
  8.8491682e-03
  5.4524247e-02
  3.4363291e-01
 -6.9044656e-01
  8.2145607e-01
  5.8484709e-01
  9.4060183e-01
 -2.6417363e-01
  3.2360247e-01
 -2.5131259e+00
  2.3652777e-01
 -1.0365497e+00
  1.1183930e-01
 -6.3321397e-02
  5.1444751e-01
  5.8974916e-01
  4.6603373e-01
  4.4828430e-03
  1.3703477e+00
 -6.4353108e-01
 -1.4926974e+00
  1.3602666e+00
  5.5680454e-01
  8.6238843e-01
 -4.4282359e-01
  1.7330201e-01
  9.0833342e-01
 -5.2790487e-01
  1.4637122e+00
  1.0480725e+00
  1.5195299e+00
  1.2216430e+00
 -9.1875505e-01
  4.7798359e-01
 -1.2070390e+00
  5.0589991e-01
  1.1809784e+00
  1.8326411e+00
  2.9851704e+00
 -7.7276409e-02
  5.1173252e-01
  1.4294485e+00
  1.6143043e-01
  1.5274872e+00
  4.1343385e-01
 -2.5876507e-02
 -2.1702123e-01
  9.0435013e-02
 -1.0651863e+00
 -1.9095451e-01
 -1.5412949e+00
 -1.0171925e+00
  3.0469713e-01
 -1.4890462e+00
 -7.9688154e-02
  1.9342380e+00
 -6.9329953e-01
  3.6963388e-01
  3.1994626e-01
  1.5841722e-01
 -9.5035517e-01
  8.4694326e-01
 -2.8923912e+00
  9.7817183e-01
  1.0026361e+00
 -7.2288901e-02
 -1.5602331e+00
  2.7717309e+00
  5.9293386e-02
 -1.0133621e+00
 -2.1016045e+00
 -1.1906763e-01
  2.6177313e+00
 -1.2101333e-01
 -2.0827742e+00
  1.3993644e+00
  7.1807724e-01
 -1.2632265e+00
  1.5625988e-01
  6.1436969e-01
 -2.2997420e+00
  8.9926094e-02
  7.6257205e-01
 -6.7870057e-01
 -1.4681981e+00
 -2.3882575e+00
  1.0339763e+00
  4.6532977e-01
 -1.8783292e+00
  2.5710407e-01
 -1.0868369e+00
 -1.7590444e-01
  1.7341870e-01
  1.2549928e+00
  8.3651352e-01
  1.5828896e+00
  4.9012974e-01
  2.6349375e-01
 -7.7656105e-02
 -2.5097191e-01
  1.5513647e-01
 -4.5340359e-01
  4.8776492e-01
 -4.6896122e-02
 -1.0196395e+00
  1.0043136e-01
 -9.4991535e-01
  1.2852979e+00
 -1.8114380e+00
 -2.5735128e-01
 -3.6659911e-01
 -5.7439566e-01
  3.9362007e-01
  1.7427644e-01
 -2.7930677e-01
  3.2033715e-01
  8.9142501e-01
  1.8923502e-02
  6.5604977e-02
  5.0239235e-01
  2.3093428e-01
  2.7821280e-02
  1.5069294e-01
 -2.0809282e-01
 -1.1894836e-01
  2.0503058e-01
  9.0477240e-01
 -2.3423212e+00
  3.1143883e-01
 -6.1358918e-02
 -2.3191919e+00
 -1.4585510e-01
  1.9444592e+00
  2.8052876e+00
 -2.7120587e-01
  3.3320099e-02
 -2.0091825e-03
 -1.6803594e-02
 -2.4556894e-02
 -1.0344421e-03
  5.6423455e-01
 -3.0131707e-01
  1.0453692e-01
  2.0272471e-01
 -3.0118916e-02
  7.0969090e-02
 -1.6731955e-01
  3.8054812e-01
 -6.1511610e-02
 -6.5963042e-01
 -1.8447977e-01
 -5.9467000e-01
  1.9071663e-03
 -1.3245022e+00
  3.0475125e-01
 -4.1995544e-02
  9.5349568e-01
  5.6507814e-01
  1.4917985e-01
  6.6207165e-01
 -2.6550028e+00
  7.7619292e-02
 -2.3185289e-01
 -7.9293117e-02
  9.5430031e-02
  1.3251911e+00
 -3.9480258e-02
  2.1090056e-01
 -2.4120547e-01
 -1.3205720e-01
 -2.8127605e-01
  3.8272059e-01
 -5.0829607e-05
 -2.7128685e-01
  3.2761437e-01
 -1.6216139e-01
  5.2631378e-01
  9.4297230e-01
  1.1674638e+00
 -1.0123870e-01
 -1.8922731e-02
 -3.5059944e-02
 -9.0637743e-01
  5.7144612e-02
 -7.9152346e-02
 -2.0898573e-01
 -2.7782897e-02
 -3.3525029e-01
 -3.8138008e-01
 -3.0974954e-01
 -1.4476301e-01
 -1.4224717e-01
 -3.6421013e-01
 -1.2536191e+00
 -1.1570797e-01
  1.2353978e-01
  7.2948349e-01
  2.4691349e-01
  5.5525027e-02
  7.3549414e-01
 -3.4588715e-01
  1.2253544e+00
 -4.6129805e-01
  2.1668215e-01
 -1.4381429e+00
 -4.9476992e-02
  1.0643650e-02
 -1.4110628e-01
  3.2149574e-01
  2.4271167e-03
  7.9385757e-02
 -1.7190053e-01
 -5.7004815e-01
 -2.4129915e-01
  7.7652115e-01
  6.0062002e-02
 -5.4227829e-01
  2.0241050e-01
 -2.4829647e-01
  1.2585908e-01
  1.2016538e+00
 -1.1438106e-01
 -1.0302834e-01
  9.4218239e-02
  6.5459795e-02
  2.1108632e-01
 -1.1008547e-01
 -4.1533545e-02
  5.2727771e-01
 -1.0994388e+00
  2.2457346e-02
  7.6477483e-02
  6.5873042e-02
 -2.1068881e-01
 -1.1837845e-01
  5.2666587e-01
 -6.8799324e-02
 -6.1215281e-02
  8.1767231e-01
 -4.3841839e-02
 -6.6366309e-01
  9.4889486e-01
  3.7596220e-01
  1.3674361e+00
  6.7336267e-01
  1.2976360e-01
 -3.1465521e-01
 -1.2903874e-01
 -4.7938424e-01
  2.3795645e+00
  1.5601457e+00
 -1.8627291e+00
 -1.3762261e+00
 -6.5264416e-01
  1.3074071e+00
  2.0272202e+00
  1.3936545e+00
  2.3042512e-01
 -1.4812278e+00
 -1.9846289e+00
  1.9782505e+00
  7.2898261e-02
  1.1279858e-01
 -5.7728033e+00
  2.2296083e+00
 -1.0168865e+00
  1.2846442e+00
 -5.8111537e-02
  1.4513984e+00
  7.5057745e-01
  1.4420958e+00
 -1.7273687e+00
  1.8501827e+00
 -7.3177487e-01
 -2.3160622e+00
  8.8843161e-01
  3.1420469e-01
  1.8834746e-01
 -7.0482504e-01
  1.3069147e-01
 -8.6139256e-01
 -7.5739957e-02
 -3.9978567e-01
 -5.0830796e-02
  2.1532239e-01
 -1.0024469e+00
 -1.4693326e+00
 -1.0177540e+00
  9.9517614e-01
 -3.3034527e-01
  1.2793674e+00
 -1.2678211e+00
 -2.1899813e-01
 -1.7293797e+00
 -7.6199824e-01
  2.9276451e-01
  2.2212508e-01
  8.4632397e-01
  8.9260674e-01
 -1.4185141e+00
  7.1223813e-01
 -1.7739383e+00
  7.8675024e-02
  1.6199133e-01
 -1.8830036e+00
 -7.3726051e-02
 -1.1039497e+00
  1.4900944e+00
  2.1571928e-01
 -4.2788869e-01
 -5.4385692e-01
 -2.6843646e+00
 -1.0314184e+00
  1.5004874e+00
  7.6836455e-01
  1.4299144e-01
  8.5125488e-01
 -8.7755358e-01
 -1.2009486e+00
  4.1702545e-01
 -4.8304039e-01
 -2.2526081e+00
  2.7257705e+00
 -5.1994622e-01
  2.5087261e+00
 -7.6210000e-02
  1.0024339e+00
  6.2651926e-01
  4.1569825e-02
 -3.5948527e-01
  6.6102810e-02
 -5.3319070e-02
  5.7276346e-02
  1.1694700e+00
  9.4465202e-01
 -2.0238699e-01
  8.9450574e-01
 -9.4289094e-02
 -4.7346327e-01
  2.1847286e+00
 -2.5934291e-01
  8.6107022e-01
 -5.9688139e-01
  3.0464962e+00
 -2.4865808e+00
  1.5321399e-01
  1.3969779e+00
 -2.0781249e-01
 -3.2851118e-01
  9.5847410e-01
  3.3682342e+00
 -1.0141811e+00
  3.5364464e-01
  9.8171568e-01
 -9.0246409e-01
  7.5444704e-01
  5.4929179e-01
 -1.2408574e+00
  3.9203596e-01
 -3.0089433e-03
 -1.1130419e+00
  1.6421376e-01
 -3.7929276e-01
  4.4785575e-03
 -2.0163364e+00
  3.1184134e+00
  1.7453783e+00
 -1.8498549e+00
  7.3731470e-01
  1.4230807e+00
 -1.2784076e-01
  4.5769060e-01
  3.1430620e-01
 -2.1838006e-01
  1.1051172e-01
 -9.9578887e-02
  1.0008696e-01
 -1.9028051e-01
 -5.5676991e-01
  3.1742829e-01
  3.6531556e-01
  1.5108385e+00
 -2.2115889e-01
  5.8724761e-01
  5.4558963e-01
  1.2178764e-01
  1.6967857e+00
  2.9845064e+00
 -9.2926216e-01
 -1.1019622e+00
 -5.8900601e-01
  6.0833365e-01
  9.1483819e-01
 -2.6778824e+00
 -1.0641364e+00
  5.6117469e-01
 -1.7771680e+00
  6.5867744e-02
  2.0389245e+00
  1.7251307e+00
  2.2578055e-01
  3.5205483e-01
  1.3714901e+00
  2.5158966e+00
 -1.9293940e+00
  2.1161617e-01
  2.1323333e+00
  7.7442193e-01
  9.2543358e-01
 -1.1662889e+00
  1.3224313e-01
  7.4738938e-01
  1.1239690e+00
 -1.6489730e+00
  2.5611663e-01
 -3.9768735e-01
 -2.2066147e+00
  5.0478458e-01
  5.9938800e-01
  3.4501224e+00
 -1.6249720e-02
 -2.9178171e+00
 -6.5558952e-01
 -1.0510264e-01
  9.7140349e-02
 -5.9853119e-01
  5.3759831e-01
  5.9974182e-01
 -1.4033258e+00
 -5.6678134e-01
 -1.3166033e+00
 -2.1413790e-01
  3.4454689e+00
  9.3020862e-01
 -3.4665549e-01
  7.3954540e-01
  1.0141858e+00
 -1.3016050e+00
 -1.1638012e+00
 -7.9188406e-01
  3.0019864e-01
 -5.0671637e-01
 -4.5190784e-01
 -3.4391859e-01
 -2.2130733e+00
  2.6476920e+00
  1.0619434e+00
 -2.7621364e-02
 -2.5574952e-02
 -4.1593364e-01
 -6.1623412e-01
 -1.5220480e+00
  4.9253531e-02
 -1.2872142e+00
 -4.1211492e-01
  8.4690970e-01
  1.1470953e+00
 -2.2430150e-01
  1.6907725e+00
 -1.4285994e-01
  1.1206466e+00
 -2.8528619e+00
 -9.7976410e-01
 -5.4268979e-02
 -1.7288063e-01
  5.1657534e-01
 -1.7175543e-01
 -1.1845192e-01
  4.6133214e-01
  2.1570858e-01
 -7.2436586e-02
 -1.1390445e+00
 -7.0746675e-02
 -4.7297150e-01
  1.1473542e-01
  3.6741364e-01
  7.0442802e-01
 -4.2353243e-01
  1.8894852e+00
  4.2824939e-01
  6.2959355e-01
  2.2220741e-01
  7.3277766e-01
  1.1313757e+00
  1.0100293e-01
 -5.2284247e-01
  4.3613100e-01
  2.4065080e+00
  5.5610061e-01
 -1.4132014e-01
 -6.4795619e-01
  1.1044730e+00
 -7.2779107e-01
 -5.4904151e-01
 -2.2081447e-01
 -2.5772327e-01
  6.4869851e-01
  1.3295286e+00
  2.6106458e-02
 -2.0923269e-01
  6.7121333e-01
  2.1421349e+00
  9.7220495e-02
 -5.1262081e-02
  5.0518883e-04
  2.2972573e-01
  4.7990303e-02
  1.4945319e+00
 -5.6969017e-02
 -1.4045097e+00
 -4.8263159e-01
 -8.6252235e-02
  5.9870288e-02
  2.2462639e-01
  3.3160418e-02
  2.6203735e-02
 -2.5458619e-01
 -1.7824060e-01
  1.1642781e-01
  7.0423581e-02
 -8.6944348e-01
 -2.4236029e-01
 -1.4191546e-01
  4.2075914e-01
  8.7999898e-01
 -1.6900964e-02
  4.1537997e-01
 -4.3876939e+00
 -9.1942328e-01
 -3.1033298e-01
 -1.6281081e+00
  1.4539381e+00
  1.0384532e+00
  6.0909349e-01
  5.2198809e-01
 -1.5862441e+00
 -9.6983957e-01
  5.1123762e-01
 -1.3164907e-02
  1.8883753e-01
  1.7141536e-01
  1.3314927e+00
 -1.1991260e-01
  9.0165937e-01
  3.5094748e+00
 -5.3757257e+00
  2.3225977e-01
  3.0154100e-01
 -5.5222839e-01
 -2.4547438e-01
 -5.8363515e-01
  1.5481821e+00
 -1.0207345e+00
 -1.9302970e+00
 -1.0788536e+00
  9.3315625e-01
 -4.3459249e-01
 -1.2025793e+00
  1.7633121e+00
  2.0255461e-01
  4.1186884e-01
 -9.7807169e-01
  4.5725755e-02
  9.0039551e-01
  3.0241560e-02
 -6.5712446e-01
  1.5138544e-01
 -3.4070170e-01
  7.1362038e-03
  1.6114391e+00
  7.6869489e-03
  9.4667900e-01
 -6.1461505e-02
  6.5472960e-01
  4.9038392e-01
  2.3357420e-01
 -1.2071863e+00
 -2.4084502e-01
 -1.6288477e-01
 -1.2971599e-01
 -1.4917599e-01
  6.3032478e-01
 -7.6451868e-01
 -1.0222530e+00
  4.7055960e-02
  1.6289119e-02
 -2.3474176e-03
 -2.7089924e-02
 -1.9842334e-01
 -1.3270825e+00
 -1.0655936e+00
  5.0905699e-01
 -1.7456982e-01
 -3.4661153e-01
  4.1339102e-01
 -5.4755920e-01
 -4.1736031e-01
  1.1537247e-01
 -4.8150998e-01
 -7.7633224e-02
 -1.0260760e-01
  9.0167552e-02
 -1.1310978e-01
  1.0615507e-03
  6.4775549e-02
  2.6258028e-01
 -6.9919628e-01
 -1.3804226e-01
  1.5475193e-01
 -1.9007915e-01
 -4.2302188e-01
  7.9743430e-02
  2.4937557e-02
  5.3004193e-01
 -1.9396682e+00
  7.6435715e-02
  4.4567075e-02
 -8.3068490e-02
 -9.5409554e-01
  4.4699055e-01
 -4.3446078e+00
 -5.6094241e+00
  2.2063680e+00
  8.0732459e-01
  9.2231101e-01
 -9.2381763e-01
 -1.2076176e+00
  2.3690414e-01
  1.0143671e-01
 -4.3935709e-02
  9.6108252e-01
 -1.5079998e+00
  6.4199847e-01
  2.1735583e-01
 -1.9805734e-01
 -7.6979983e-01
 -9.6682000e-01
  2.1963921e+00
  3.7152287e-01
  1.5722813e-01
  1.9718057e+00
  8.9834380e-01
 -1.8035359e+00
 -1.4042181e+00
 -2.9751463e+00
  4.3283314e-01
 -6.0547364e-01
  3.1203330e+00
  2.8841093e-01
  1.1361815e+00
  2.9327543e+00
  3.0330980e+00
 -3.9565990e+00
 -3.2471183e-01
 -3.6157367e-01
 -1.0767134e-01
 -5.4622859e-01
  3.0086824e-01
  3.1252522e-02
 -2.9193148e-01
 -1.7715931e+00
  1.2303947e+00
 -1.1612829e+00
  4.1897789e-01
  2.7912760e-01
  1.1658803e+00
  4.3311200e-01
 -6.0874772e-01
  1.1271747e-01
 -3.1040108e-02
  5.1765668e-01
  5.9329534e-01
  3.5437465e-02
  1.1215837e-01
  1.1010839e+00
  1.7461582e+00
 -8.4219962e-01
 -6.1852044e-01
  1.6289673e+00
 -9.8811120e-01
 -3.8773745e-01
 -1.8216715e+00
  1.5428823e-01
  9.1829115e-01
 -1.9776227e-01
 -7.2994542e-01
 -1.7621043e-01
  1.9113865e-01
 -5.4590929e-01
 -1.7502365e-01
 -1.0256271e+00
  1.1459245e-01
  3.0258754e-01
  7.9576433e-01
 -1.1924421e+00
 -3.3353396e-02
 -1.3165301e+00
  3.7483218e+00
  7.6645590e-02
 -2.0055656e+00
 -1.2694529e+00
 -2.9517192e-01
 -4.0396002e-01
 -5.4442361e-02
  3.1375699e-02
  7.8977728e-01
  6.6707462e-01
 -3.3113126e-02
  1.2004756e+00
 -1.1771626e+00
 -2.2766874e+00
 -1.4714545e-01
  3.8256609e-01
 -2.5568292e-01
 -5.3784919e-01
 -2.6439188e+00
 -1.3575552e-01
  9.6621412e-01
  4.6015573e-01
 -5.0551838e-01
  1.0834538e+00
 -7.0012051e-01
 -5.9751821e-01
 -5.7850677e-01
  1.0351750e+00
  1.2562163e+00
  4.6341661e-01
  7.5345534e-01
  1.6283424e+00
 -5.0152814e-01
 -1.0494545e+00
  3.4415159e-01
  7.7462536e-01
  4.4886032e-01
  2.5329769e-01
  1.1015783e-01
 -2.7769382e+00
 -8.4840280e-01
  6.2879957e-03
  5.8492696e-01
 -6.8714106e-01
  1.2571000e+00
  1.1942388e+00
 -2.7637622e-01
  2.0874768e-01
  6.1589727e+00
 -3.8923800e-02
 -3.4380534e-01
  1.6514170e-01
  3.2964519e-01
 -3.4597736e-02
  8.0213970e-01
 -3.6098054e-01
  9.4720793e-01
  2.6701584e-02
  1.1306291e+00
 -1.0464590e+00
 -3.6946106e-01
 -1.7774053e-01
  8.4760815e-01
 -1.2008562e+00
  1.1564667e+00
 -1.2392844e+00
 -1.0157850e+00
  1.8506446e-01
 -6.7304993e-01
  7.8729469e-01
  6.0407847e-02
 -1.7369454e-01
 -9.7377586e-01
 -4.9686494e-01
 -3.0051109e-01
 -1.8542339e+00
  5.7455522e-01
  1.0290650e+00
 -8.4741436e-02
 -6.5890118e-02
 -2.4124510e+00
 -1.1368321e+00
  1.5391575e+00
  2.2249848e-01
  7.9886866e-01
 -4.5967293e-01
 -1.3389590e-01
  3.3256140e-01
 -1.1504636e+00
 -2.2702679e-01
 -9.5797735e-01
  4.9342757e-01
  2.6010580e+00
  1.3924518e+00
 -1.8266029e+00
  1.1816655e+00
 -2.1043089e-01
  8.2941926e-01
 -2.0204017e+00
 -1.7958991e-01
 -3.8564557e-01
 -3.8652489e-01
 -1.8370643e-01
  4.8494976e-02
  6.6998470e-01
 -3.5261456e-02
 -2.4146516e+00
 -1.6146519e+00
 -1.0748621e+00
 -4.3788528e-01
 -7.4807274e-01
 -6.2381905e-01
 -1.0574331e+00
 -1.7301306e-01
 -1.5286695e+00
 -2.5184112e+00
 -1.8360507e-01
  2.7743170e+00
  3.2852119e-01
 -3.0514719e+00
 -5.6751603e-01
 -6.5527809e-01
 -7.8832376e-01
 -2.3323491e+00
 -8.3949065e-01
 -1.7877187e-01
  2.4889211e-01
 -4.5002660e-01
 -2.2078393e-01
 -2.2691061e-01
 -8.2335174e-01
  3.1891224e-01
 -9.0119565e-01
 -1.4551938e+00
 -1.7004328e+00
  5.5156846e-04
 -1.2982227e+00
 -8.8642043e-01
  5.5691537e-02
 -2.4003687e+00
 -8.6518592e-01
 -5.1823038e-01
  1.1044061e+00
  6.2005464e-02
 -7.3649525e-04
 -1.7852703e-02
  1.8339133e-01
 -1.8976171e-02
  1.1028510e+00
  5.6089342e-02
 -1.8324551e-01
 -1.0079037e-01
 -6.0009792e-02
 -1.1567137e-01
  3.9059922e-01
 -8.3438754e-01
 -2.7173489e-02
 -1.6636829e+00
 -2.0429698e-01
  1.4701158e+00
  1.3896195e+00
 -2.0332854e+00
 -1.2132587e+00
 -9.2142624e-01
 -1.1366025e-01
 -5.9500599e-01
 -1.3302075e+00
 -1.3636664e+00
 -1.7355354e+00
  2.2001007e+00
  2.3601490e-01
 -1.7556292e+00
 -7.3536348e-01
 -2.3119061e+00
 -2.6339567e+00
  1.9908943e+00
 -1.5662968e-01
  1.6557574e+00
  7.5974888e-01
 -1.7498862e+00
  1.9282159e+00
 -9.0034628e-01
  1.0694845e+00
  2.8383872e-01
 -7.3040801e-01
 -3.4513086e-01
 -1.6492984e+00
  3.7852671e+00
  1.3487523e+00
  9.4277227e-01
  6.3554084e-01
 -5.5200398e-01
  2.1125981e-01
  5.3195512e-01
  1.4368664e-01
  1.5956613e-01
  6.2078193e-02
 -6.6033930e-02
  1.9959375e-01
 -4.8089954e-01
  2.0662656e-01
 -3.1384431e-02
 -9.5775998e-01
 -1.9433169e-01
 -1.0398859e+00
 -1.3116834e-02
 -9.7295541e-01
 -5.9052408e-01
  1.6288227e+00
 -4.3346280e-01
 -2.0616922e+00
  2.4450166e+00
  8.5912287e-01
 -1.4118459e+00
 -7.3610395e-02
  3.4182701e-01
 -2.2545366e+00
 -1.8465534e+00
 -1.6373484e+00
 -7.8008848e-01
 -6.1320126e-01
 -2.9595235e-01
 -2.8011423e-01
 -2.3321843e+00
  1.3816344e+00
  2.2888856e+00
 -1.0281020e+00
  1.9284679e-01
  8.3029501e-02
  4.1878645e-04
  1.8786208e-01
  1.3266277e+00
 -1.1356643e+00
 -1.0460275e+00
 -6.3167363e-01
 -4.1572180e-02
 -2.0737031e+00
 -1.7057166e-01
  5.8533721e-02
 -2.5980273e-02
 -5.3059804e-01
 -5.3346384e-01
 -5.0759695e-02
  3.4759846e-01
 -3.6745325e-02
  1.1835785e-01
 -1.2231103e+00
 -1.0861797e+00
  1.0356398e+00
 -8.6140501e-01
 -6.7191321e-01
  9.6808495e-03
  5.1631379e-01
  1.5924300e+00
  5.6675988e-01
 -2.4005109e-01
  4.4068765e-02
  1.2226859e-02
  1.4436118e-01
  3.8033044e-01
 -7.9346484e-01
  1.7450437e-01
 -8.6694145e-01
  2.8655675e-01
 -1.1456515e+00
  5.1840488e-02
  1.2884763e-01
 -9.3305357e-02
  1.9690402e-02
  5.5197001e-01
  1.5578392e-01
 -2.3310402e-01
  2.8502834e-01
  1.8091782e-03
 -1.6065174e-01
  9.2413664e-02
  3.7623188e-01
 -7.9134837e-02
 -5.7240874e-02
  2.8567505e-01
 -5.1452541e-01
  2.8206557e-01
 -1.1198653e-01
 -1.7697653e-02
  1.0592052e+00
  5.4530454e-01
 -2.3128238e-01
 -3.5875261e-02
 -5.4760957e-01
 -2.2221226e-01
 -5.4312420e-01
 -3.5341352e-01
  8.9173339e-02
  4.7620094e-01
 -3.8126063e-01
  5.7209706e-01
  1.2746397e-01
 -4.5303553e-02
 -4.2276639e-01
  1.2695426e+00
 -2.3034230e-01
 -3.9521730e-01
  2.0077481e+00
 -2.8340718e-01
  5.1819521e-01
  4.5429182e-01
  9.6355510e-01
 -4.5329338e-01
  2.4570356e-01
 -5.6153692e-02
  2.8030655e+00
 -9.5784277e-02
  1.2444721e+00
  7.7088809e-01
  2.3225044e-01
  4.7118169e-01
 -4.2650542e-01
 -1.0360780e+00
 -1.9250236e+00
 -1.1250547e+00
  2.1130580e-01
  7.1971250e-01
  5.8287632e-01
  3.0547099e-03
  3.3421949e-01
  1.8519264e-01
  3.3895990e-01
 -3.8458410e-01
 -1.3477153e+00
  6.6568106e-01
 -2.6654100e-01
  7.8038824e-01
 -2.1291396e-01
  1.4083663e-01
 -1.3034715e-01
 -1.2907438e-01
 -1.4486517e-02
 -4.6583475e-03
 -1.9029257e-01
  2.1293725e-01
 -1.6752285e-01
  1.3092804e+00
 -1.3105761e+00
 -1.3419358e-01
 -6.6962361e-01
 -1.3811145e+00
 -4.8768893e-01
 -9.8549014e-01
 -1.3882089e+00
  1.1657777e-01
 -1.2749666e+00
 -1.6693821e+00
 -1.0958333e+00
  1.5931158e+00
  5.9298652e-01
  5.7022697e-01
  4.4848323e-01
 -7.8019845e-01
 -5.3795111e-01
 -1.7528559e+00
  1.3834845e+00
  8.8265181e-01
  4.6128964e-01
  1.8438283e+00
  1.6784631e+00
 -1.6946232e-01
  2.8506708e-01
  1.3875538e-01
 -3.0555680e-01
 -3.2294118e+00
 -2.1715996e-01
  1.1039213e+00
  8.2075685e-01
  3.0043489e-01
  1.0590309e-01
  6.8524998e-01
  1.7888408e+00
 -9.0678953e-02
  6.5714824e-01
 -7.3853922e-03
  5.0440031e-01
  2.9307485e-01
 -3.8738128e-02
 -1.6654946e-01
  5.0886512e-02
 -9.8940498e-01
  3.0438656e-02
 -5.6420747e-02
 -2.7020206e+00
  5.3240234e-01
 -5.3996450e-01
  1.3979563e+00
  2.1595933e-02
  6.8608689e-01
  5.2645350e-01
  4.3567777e-02
 -2.1355146e-01
 -3.2371047e-01
 -5.9069823e-03
  1.5158765e-01
 -2.9343038e+00
  3.6654785e-01
  2.2708026e-01
 -1.3747424e-01
 -5.2877471e-02
 -3.7968883e-01
  1.5853722e-01
  1.8844825e-01
  1.2385048e-01
  2.0942175e-01
  8.9564598e-01
  3.5359927e-02
  5.9429631e-03
  3.3575650e-02
  6.5229851e-01
  7.5833634e-02
  3.7407532e-01
  5.7060931e-02
  2.2409810e-01
  6.8408541e-02
  5.0662387e-02
 -1.8271229e-01
 -9.4345577e-02
  5.4970142e-02
 -7.7214047e-02
  1.0080501e-01
 -3.8599363e-01
  2.9366679e-02
  2.7304169e-02
 -7.3725986e-03
  5.0767785e-01
 -4.5251590e-01
 -3.8621506e-01
  4.5598271e-01
  1.1249156e-01
 -6.6518432e-01
 -3.8973659e-01
  6.2315100e-01
 -3.0841693e-01
 -3.1844178e-01
  6.5105861e-01
  3.1653300e-01
 -1.7285427e+00
  1.4087358e-02
 -2.5136030e-01
 -9.4194204e-01
  2.3696440e-01
 -9.4431102e-01
 -2.7774315e-02
 -2.4553673e+00
  1.6070051e-01
  6.7889076e-01
  4.8810223e-01
 -1.5465352e-01
  9.7328973e-01
 -1.7761497e+00
 -2.4685071e+00
  9.3930054e-01
 -5.8307749e-01
 -9.5780450e-01
 -4.5477954e-01
  1.0540552e+00
 -5.0465012e-01
 -2.1303310e+00
  2.0157056e+00
  1.2751173e+00
  2.0768194e-01
 -6.2518257e-01
  1.2295530e+00
 -7.9447681e-01
 -3.0673285e+00
  4.2177337e-01
  2.6357427e+00
 -2.6914176e-01
  9.1748178e-01
  5.5407202e-01
  1.3431261e-02
  1.5578851e-03
 -3.6554074e-01
  4.6944007e-01
  8.4177097e-03
 -3.7066978e-01
  2.0473334e-01
 -4.1111055e-01
 -2.5783071e-02
  2.2107697e-01
 -3.1668231e-01
 -1.7096184e-01
 -5.6314301e-02
 -9.6415378e-02
  3.5953879e-01
 -1.3117005e-01
 -8.8023990e-02
 -6.2164143e-02
 -4.1089818e-01
 -4.0770006e-01
  5.0206101e-01
 -7.0380855e-01
 -3.8874090e-01
  7.6759815e-02
 -1.1833392e+00
 -2.0486544e-01
 -2.2126193e-01
  5.9674132e-01
  4.8853016e-01
  4.6722941e-02
  3.2655811e-01
 -2.0910758e-01
  8.4483437e-02
 -4.6824652e-01
 -4.5729149e-02
 -7.8400636e-01
 -3.6803934e-01
 -7.8500181e-01
  3.9665979e-01
 -4.0269828e-01
 -1.9280277e-01
  1.2470173e+00
 -7.6724964e-01
 -9.0216435e-02
 -1.2973101e-01
 -2.2092512e-02
 -4.2561378e-04
 -3.5099381e-01
 -1.0182805e-01
 -2.5131744e-01
  2.8248605e-01
 -1.0769667e-01
 -9.9693216e-02
  1.2176088e-01
 -4.0592197e-01
  1.3211654e-01
 -6.6760719e-01
  3.3968909e+00
  1.2100390e-01
  7.7998263e-01
  6.9080186e-01
 -1.5039643e+00
  1.9699606e+00
  8.9391434e-01
  1.2267389e+00
  2.5245473e-01
 -4.9095166e-01
 -1.1174992e-02
 -9.4613987e-01
  1.1869926e+00
  7.6342571e-01
  1.2683627e-01
 -4.6248922e+00
  1.2046696e+00
 -9.4125813e-01
 -8.7895954e-01
  9.6688104e-01
  7.8048028e-02
 -2.3993143e-01
 -1.6020850e+00
 -1.0257463e+00
  2.3154981e-01
 -3.8140148e-02
  8.9837033e-01
 -1.8543370e-01
  5.2154416e-01
 -6.6275901e-01
 -3.7995028e+00
  4.8329079e-01
 -4.7624880e-01
 -3.7444377e+00
  4.9853325e-01
  2.6879564e-01
  1.6520530e+00
 -5.3591646e-02
 -3.6584207e-01
  2.6290765e-01
  4.3141747e+00
  2.5114903e-01
  7.4748820e-01
  5.5039722e-02
 -9.0797859e-01
 -6.7549005e-02
 -9.1622911e-02
 -3.0895680e-01
 -5.5714726e-01
 -1.9603744e+00
 -1.5428366e-01
  1.5965264e-01
  2.0143284e-02
 -4.2145333e-01
  2.8974569e-01
  2.5507292e-01
 -3.3589110e-01
  1.2494444e+00
  4.2010632e-01
 -9.3615526e-01
 -5.5289429e-01
  2.9420614e-01
  4.6434110e-01
 -1.6666931e-01
 -1.3740518e+00
 -2.4011697e-01
 -5.2774560e-01
  3.6331408e-02
 -1.3896857e-01
 -2.1472286e-01
  7.3946174e-03
 -7.8266099e-02
 -2.0727845e-01
  1.1609670e-01
 -1.9573520e-01
 -1.4469031e+00
 -3.5343528e-01
  2.2339674e-02
  7.2004962e-01
 -1.5702610e-01
  1.6867302e-01
 -7.8629786e-03
 -2.8884569e-01
 -2.5351670e-01
 -4.3025184e-02
 -9.6231475e-02
  4.6235216e-01
 -3.1758544e-01
  2.6033494e-01
 -8.6612636e-01
  6.0077731e-02
  2.3652297e-01
 -3.3216199e-01
 -2.2303572e-01
 -2.1092744e-01
 -4.8697166e-02
  1.6068751e-01
 -5.7948500e-01
  3.1552649e-01
 -1.7477123e-01
  1.4983001e-01
 -1.5108134e-01
 -1.1777367e-02
 -1.6105989e-02
 -1.2830375e-01
  5.2274350e-02
  1.0403714e-01
  6.1394330e-02
 -2.8543147e-01
 -4.4460230e-02
 -1.3064028e+00
 -2.8525946e-01
 -9.2682377e-02
 -1.5096057e-02
  2.9690340e-01
 -1.6229878e-01
 -1.4618509e-01
  2.6866155e-02
 -1.0025679e-01
 -1.0243433e-01
 -1.0502887e-01
 -4.0833846e-02
 -7.6169717e-01
 -8.4345140e-02
 -1.2088679e-01
  1.8408895e-01
  4.2599555e-02
 -2.8792730e-01
 -5.8264011e-01
 -1.1688052e-01
  3.1205946e-01
 -6.9636861e-03
 -2.2545111e-01
  7.9384387e-02
  1.7957699e-02
  5.9914835e-02
  1.1704543e+00
 -5.7305568e-01
  1.0716441e+00
  3.0776799e-01
 -1.0877705e+00
 -5.3177613e-01
  1.8894831e+00
  7.5853392e-02
  2.8188729e+00
  1.0823088e+00
  1.2386372e+00
  1.4228853e+00
 -1.5551715e+00
  4.2327973e-01
 -6.2181458e-02
  4.7762341e+00
 -3.9044890e+00
  1.1569297e+00
  1.4824046e-01
 -3.8243465e+00
 -1.7143527e+00
 -3.0249247e-01
  2.6250648e+00
 -8.2264858e-01
  2.7072725e+00
 -4.6851981e-02
  1.8333998e+00
  8.3904719e-01
 -8.6234975e-01
  1.3162874e+00
  1.4501737e+00
  1.7704927e+00
 -6.0718852e-01
  6.0114586e-01
  2.5892179e+00
  9.8463017e-01
 -1.6378543e+00
  8.3350325e-01
  2.1312869e+00
  2.9730269e-01
  1.6583756e-01
 -2.2448592e-01
 -3.6009848e-01
 -1.1899555e+00
 -7.1679108e-02
 -2.0648625e-01
  3.8923419e-01
 -7.1376525e-02
  6.8886451e-02
  7.2122484e-01
 -1.6536535e-01
  2.7576523e-02
 -9.8650783e-01
  9.5532961e-02
  7.9718125e-01
  1.1038804e+00
  8.2939111e-02
  5.5943596e-01
  3.9209060e-02
  2.5892180e-01
 -1.2529147e-01
 -6.4622790e-02
  5.3428030e-01
  8.1881773e-01
 -7.7960753e-01
 -6.5220892e-01
 -1.0526646e+00
 -1.7538697e-01
  4.8280932e-02
  5.3601503e-01
  1.5425780e-01
  1.5252963e+00
  2.9400888e-01
 -7.3259747e-01
  8.0061242e-02
 -2.6295328e+00
 -5.3571874e-01
  9.1429579e-01
  2.3474872e+00
 -5.1212841e-01
  1.0555772e-01
 -2.5173813e-01
 -5.9471969e-02
  5.5492491e-01
 -2.0810573e-01
 -9.5937550e-01
  8.6988544e-01
  4.0274754e-01
 -2.2272617e-01
  4.4900971e-03
 -5.4737221e-02
  1.2531593e-01
  1.0269207e+00
 -8.7639429e-02
 -1.2970527e-01
 -9.3499040e-03
  2.3303077e-01
  9.7369589e-02
  1.5251328e-01
  9.5738626e-01
  1.2911673e+00
  5.1662523e-01
 -6.6970932e-01
  4.9026647e-01
 -3.3729191e+00
 -1.5988384e-01
  2.4787498e-01
 -6.1421070e-02
  1.4419867e-01
  2.5574034e-01
 -6.9192594e-01
  7.1992177e-01
  3.8020155e-01
 -2.3412077e-01
  8.5105473e-01
  6.8110287e-01
 -4.9485514e-01
 -5.7027340e-01
 -1.9060932e+00
 -4.0342551e-02
 -7.7968729e-01
 -5.2320325e-01
 -2.2565490e-02
 -8.8312645e-03
  2.6423723e-01
 -1.9386427e+00
  2.8024139e+00
 -2.1911633e-01
 -1.3690599e-02
 -2.1909101e-02
 -2.2737381e+00
 -1.8592967e-02
 -4.0791962e-02
 -1.2484001e-01
 -4.1829586e-01
  4.0368992e-01
  1.8243811e-01
  1.4718689e+00
 -2.0259314e-03
 -9.0398830e-01
  1.9326054e-01
 -1.7510758e-01
 -1.1484845e+00
  4.6407595e-02
 -1.3590944e+00
 -1.5531532e+00
  7.7582300e-01
  1.0197644e+00
 -5.4665899e-01
  1.2474808e+00
 -1.3989936e-01
  1.9148918e+00
 -5.2314341e-01
  6.4484531e-01
  1.3907421e-01
 -2.2713071e-01
  3.9414605e-01
  1.6028268e+00
 -4.6153584e-01
 -7.1055216e-01
  3.0878970e-01
  2.4958242e-02
  8.2904184e-01
  1.9702068e-01
 -1.2489545e-01
  1.5386027e-01
  6.6953832e-01
  4.0183803e-01
 -5.9120142e-01
 -5.4872997e-02
 -4.9584264e-01
  2.4663083e-01
  2.0801648e-01
  3.5267746e-01
  1.4326550e-01
 -3.4596441e+00
  3.0014987e+00
  1.8814607e-01
 -5.1864867e+00
  1.3263466e+00
 -1.5635718e-01
  3.2883447e-01
  4.6316728e-01
 -1.8474121e-01
 -7.4303937e-01
  1.1160835e-01
  3.6353275e-02
  2.2282900e-01
  5.2950871e-01
  2.2344439e-01
 -5.8730727e-01
 -2.7989897e-01
 -4.5825487e-01
  1.7989297e-01
 -5.8707759e-02
 -1.9121400e+00
  3.1949717e-03
  1.6512257e-03
 -1.4919397e-01
 -5.9211340e-02
  2.7840240e+00
  5.4905798e-02
 -3.1461278e-01
 -2.0200460e-01
  1.6700500e+00
 -1.0075791e+00
 -2.2756135e+00
  1.0413417e-01
 -2.1893771e-01
  7.2998691e-01
 -3.0197538e-02
 -3.7710533e-01
 -2.0092439e-02
  5.3777349e-01
  3.4074879e-01
 -6.5078199e-01
  4.1628772e-01
  3.8356268e-01
 -3.2953137e-01
  2.6922813e-01
  1.4391521e+00
 -2.8276125e-01
 -3.2194831e+00
  1.2076916e+00
  1.4628488e-01
 -7.0543690e-03
 -1.2956418e-01
 -6.0528135e-01
  3.4083763e-01
 -2.5917554e-02
 -4.3739587e-01
  6.1669099e-01
  1.0989495e-01
  3.5230067e-01
 -2.4052075e-01
  4.0329611e-01
 -1.4093406e+00
 -4.5428935e-01
 -9.7147487e-02
 -2.0309632e+00
 -1.2383815e+00
  2.9124090e-01
  2.1591702e-01
  8.0624253e-01
  1.8828346e-01
 -1.9990234e-01
  3.8329720e-01
 -2.4774596e-01
 -1.1631721e-01
 -2.3491502e+00
 -3.1220505e-01
 -7.6009351e-01
 -1.1061164e+00
  1.1887300e+00
 -4.0421978e-01
  4.7927094e-01
 -1.0406742e+00
 -9.1065794e-02
 -4.8248416e-01
  2.0560737e-01
  2.0604922e-01
 -2.3237099e-01
 -1.9336371e-01
  1.4474553e+00
  1.3374071e-01
  7.3178452e-01
  4.0300304e-01
  1.8888855e-01
 -3.2315836e+00
 -1.5750815e-01
 -5.0919771e-01
  1.5098795e+00
  7.5037432e-01
  2.5003022e-02
  3.9976048e-01
  1.2956084e+00
 -1.1252730e+00
 -1.3083508e+00
  1.3281782e-01
  2.5776085e-01
 -5.2915192e-01
 -5.2774668e-01
 -1.2585202e+00
  1.6640458e+00
 -1.4410885e-02
 -2.0419556e-01
 -5.5398828e-01
  9.5930338e-01
  4.0307911e-03
 -4.4428349e-01
  5.5665296e-01
 -6.9720769e-01
 -2.4750876e+00
 -8.4748942e-01
  1.1945968e+00
 -1.0717578e-01
 -1.9026356e+00
 -2.9378194e-01
 -1.7769612e+00
 -5.1239319e-02
 -1.1522013e-01
 -1.4648678e+00
  8.6664073e-02
 -1.9472809e-01
  6.1841542e-01
 -1.2193562e+00
  2.1228673e-01
 -4.7105050e-01
 -5.0300699e-01
  1.3169297e+00
 -4.2262062e-01
 -4.0467110e-02
  2.6334076e+00
 -2.3457687e+00
  3.2851040e-01
 -5.4359984e-01
  9.1405368e-01
 -1.3346156e-01
  1.6158765e-02
 -2.2459447e-01
  9.1775663e-02
 -2.3581123e-02
 -7.4438199e-02
  1.1484771e+00
  9.2654812e-01
 -1.1193913e+00
 -4.6507278e-01
 -3.4334174e-01
  2.4165940e-01
  1.0702037e-01
 -2.0374501e+00
  8.0836910e-01
 -9.1476476e-01
  4.2264080e-01
 -4.0709335e-01
 -1.8400416e-01
 -1.5168056e-01
  1.3000140e-01
  1.7352736e-01
  3.7453383e-01
 -3.0623627e+00
 -5.2270615e-03
  1.6061879e+00
 -2.0730306e-01
  1.5451999e-03
  7.7790268e-02
 -3.1305492e-02
 -1.0665746e-01
  6.3493639e-01
 -7.1601576e-01
 -8.5801232e-01
  6.3082039e-01
  7.0426762e-01
 -4.4742921e-01
 -8.5123676e-01
  3.1230778e-01
  4.1913128e-01
  4.7684815e-02
  8.2085156e-01
 -1.0352447e-01
 -1.1090731e-01
 -5.5024371e-02
 -7.0932937e-01
 -1.4613752e+00
  1.2965707e-01
 -4.2687383e-01
 -1.2845026e-01
 -8.1844456e-02
 -9.2673734e-02
 -8.2476109e-01
  4.4200597e-03
  7.1637839e-01
 -2.0336781e+00
 -5.7834697e-01
  1.3894123e-01
 -2.5623047e-01
  7.4352580e-01
  9.4719398e-01
 -2.5890818e-01
 -1.1668312e-01
 -5.4791588e-02
 -1.4629360e+00
 -8.9229071e-01
 -2.0811966e-01
  1.0631457e-01
 -7.4992788e-01
  1.5584451e+00
 -6.9196707e-01
 -1.0929122e+00
  8.0412084e-01
  7.2644055e-01
  1.0078810e+00
  3.8635081e-01
 -4.6687776e-01
  8.3579803e-01
 -1.4886997e+00
 -1.3575917e-01
  8.6638844e-01
  1.8371930e-02
 -1.1663583e-01
  1.9987974e-01
 -1.2680566e+00
  9.8559642e-01
 -3.9732686e-01
 -2.1507047e-01
  6.3846730e-02
  5.6088889e-01
 -5.9069484e-01
  1.1352552e+00
 -8.1307226e-01
 -5.6916773e-01
 -2.6636040e-01
 -1.0651670e+00
 -5.5108267e-01
  2.4995352e-01
  8.3061826e-01
  1.0444046e+00
 -1.0752004e+00
  2.2174899e-01
 -6.8072397e-01
  2.6560125e-01
 -6.9865060e-01
  6.3484013e-01
 -5.3925055e-01
 -4.3485288e-02
 -2.4938917e-01
 -1.6319485e-01
  7.2879255e-01
  2.7579767e-01
 -1.5364997e-01
 -9.6355283e-01
  1.1348911e-01
 -1.4777908e-01
 -7.3398221e-01
  5.5482215e-01
  5.0775685e+00
  3.6003891e-01
 -1.5602993e+00
  8.1886721e-01
  1.0001133e-01
 -1.0172693e+00
  8.5637860e-02
  5.2603954e-01
 -1.0824955e-01
  5.4202324e-01
 -1.5152295e+00
  1.5356919e-01
  2.8134438e-01
 -3.3693737e-01
  3.8293719e-02
  5.1853627e-02
 -3.8155743e-01
  1.8802205e-01
 -5.3421283e-01
  1.4615972e+00
 -4.7776815e-01
 -1.8742067e-01
  1.5969884e-01
  2.1253107e-01
 -5.8540058e-01
 -5.0077375e-02
 -7.5757486e-01
 -1.0528094e+00
 -1.7199220e-01
 -4.0291116e-01
  2.5380533e-02
  3.5886768e-01
 -4.9861202e-01
  5.5315018e-01
 -1.0779705e+00
  2.2053379e-01
 -7.9151136e-01
 -8.9389347e-02
  1.1100857e+00
 -6.4363301e-01
 -6.4923972e-01
 -1.6589085e+00
  6.4238638e-01
  6.8021899e-01
  9.4947737e-01
  7.0848735e-03
  7.1534830e-01
 -1.2295022e+00
 -2.5006422e-01
  2.1242464e-01
  4.7754136e-01
  4.8113075e-01
  2.5381154e-01
  1.1747656e-01
  9.6209174e-01
  5.8627242e-01
  1.3914379e-01
  1.4065826e-01
 -8.3281797e-01
 -4.6175322e-01
  2.1102669e+00
  7.6560038e-01
  1.1589546e+00
 -2.1135042e+00
  7.3038375e-01
  7.8488028e-01
  2.5256863e-01
 -2.5268537e-01
  1.1937737e+00
 -5.3233451e-01
 -4.3709546e-01
 -1.5856019e+00
  5.4400927e-01
  7.7239418e-01
  8.2768238e-01
  2.9053620e-01
 -1.8121959e-01
  3.1965822e-01
  2.2596100e-01
  1.0529566e-01
  1.8181408e-02
  9.5530838e-01
 -5.4595578e-01
  9.1849828e-01
  1.4988722e-02
  7.4113828e-01
  1.6332465e+00
  5.2947313e-01
  1.0493643e-01
  1.1007275e-02
 -4.6436286e-01
 -1.0012416e+00
  6.8793662e-02
  2.3502092e+00
 -3.6363940e+00
  7.7740192e-01
  7.4259031e-01
 -6.1430049e-01
  3.1400996e-01
  2.7227038e-01
  1.2598355e-01
  5.2873212e-01
  8.4874415e-01
  1.4609734e+00
 -8.0546141e-01
 -1.0309561e+00
  1.4992869e+00
  1.1959424e+00
  5.8001608e-01
 -4.0902984e-01
 -2.5701365e-01
 -1.0155558e-01
 -9.2853731e-01
  3.3139282e-01
 -8.6820126e-01
  5.7338667e-01
 -3.5609320e-01
 -9.2430621e-01
  6.9369501e-01
  6.1143968e-02
  6.1143968e-02
  6.1143968e-02
  6.1143968e-02
  6.1143968e-02
  7.6784417e-02
  7.6784417e-02
  7.6784417e-02
  7.6784417e-02
  7.6784417e-02
  7.6784417e-02
  7.6784417e-02
  3.2853883e-02
  3.2853883e-02
  3.2853883e-02
  3.2853883e-02
  3.2853883e-02
  3.2853883e-02
  3.2853883e-02
  3.2779153e-02
  3.2779153e-02
  3.2779153e-02
  3.2779153e-02
  3.2779153e-02
  3.2779153e-02
  3.2779153e-02
  5.7611376e-02
  5.7611376e-02
  5.7611376e-02
  5.7611376e-02
  5.7611376e-02
  5.7611376e-02
  5.7611376e-02
  1.8114755e-02
  1.8114755e-02
  1.8114755e-02
  1.8114755e-02
  1.8114755e-02
  1.8114755e-02
  1.8114755e-02
  7.3675890e-03
  7.3675890e-03
  7.3675890e-03
  7.3675890e-03
  7.3675890e-03
  7.3675890e-03
  7.3675890e-03
